41 100
NNG 0.227496 0.212361 0.075807 0.069338 -0.143555 0.070618 0.025399 -0.048673 0.149773 -0.057920 -0.309794 0.248812 0.038515 0.114457 0.053252 -0.149665 0.006421 -0.001953 -0.586540 0.238268 -0.023928 0.111980 0.038175 -0.411194 -0.037116 -0.019451 -0.203034 0.258301 -0.265260 0.086487 0.290111 0.042356 0.250536 -0.162882 -0.150042 -0.184149 -0.171752 -0.340294 0.235817 0.273848 0.216554 -0.159033 -0.002764 0.014499 0.437966 -0.080968 0.104000 0.159582 -0.009111 0.452421 0.244263 0.060816 -0.105472 0.021616 0.020474 0.168622 -0.136732 0.226636 0.326317 -0.081109 -0.116312 0.054766 -0.172525 0.185735 0.208321 0.138513 0.121063 -0.192595 0.018773 0.185894 -0.209600 -0.208233 -0.112922 -0.115675 0.302343 -0.046511 -0.071473 0.027178 0.103567 -0.111766 -0.118207 -0.088059 -0.044309 -0.198935 0.197217 -0.090624 -0.289005 -0.140632 0.260362 0.128524 0.057198 0.038237 0.133913 0.107546 0.242925 0.127937 -0.030312 -0.025387 -0.083737 0.253477
EC 0.005148 -0.128807 0.209321 0.377335 0.078361 0.335871 0.274025 -0.430318 -0.028735 0.050855 -0.113625 -0.237801 0.024329 0.161106 -0.038523 -0.111723 -0.151186 -0.266414 -0.207258 -0.267198 0.372762 0.272859 0.233107 -0.478284 0.203631 -0.181812 0.101511 0.519900 0.019051 0.154590 0.287362 -0.269825 -0.063347 -0.326216 0.073434 0.025111 -0.127766 0.063551 -0.229099 0.022225 0.183993 0.190479 0.320955 0.213882 0.105718 0.564718 0.204931 -0.313368 -0.111531 0.200803 0.281696 0.132905 0.053695 0.133164 0.015441 -0.346661 -0.136451 0.010328 -0.085659 -0.255744 -0.287507 -0.166426 0.079859 -0.451540 -0.033261 -0.127506 0.079606 -0.090324 -0.025597 -0.069023 -0.107927 -0.006598 0.554285 0.211373 0.332007 -0.482385 -0.419327 -0.211350 0.119526 0.005687 -0.073380 -0.253101 -0.134306 0.177196 -0.005259 -0.346646 -0.066008 -0.370450 -0.004111 0.300135 0.026217 0.053524 0.093701 0.108371 -0.174680 0.197090 -0.068133 0.129372 0.428630 -0.183268
VV 0.040740 -0.026707 0.043581 0.216461 0.187903 0.189373 0.181931 -0.299600 -0.111685 0.011338 -0.059811 -0.093447 -0.167573 0.032074 0.054500 -0.046880 -0.120050 -0.385169 -0.221791 -0.060372 -0.022598 0.131118 0.032727 -0.289449 -0.179030 0.222669 -0.103618 0.151715 -0.143563 0.114749 0.270652 -0.351527 0.093732 -0.533707 -0.186323 -0.176728 -0.290468 0.069346 -0.187959 0.140839 0.079104 0.193390 0.264708 0.125188 0.155058 0.203132 0.175291 0.033389 -0.014282 0.127621 0.184069 0.081169 -0.237624 -0.033888 -0.015896 -0.184822 -0.159168 -0.009018 -0.162049 -0.024802 -0.284878 -0.234729 -0.143065 -0.093572 -0.031970 -0.201044 -0.112355 0.001432 0.074974 -0.263731 0.027109 -0.016747 0.406045 -0.006564 0.233494 -0.457287 -0.055744 0.072169 0.187710 0.038114 0.144400 0.071433 -0.186807 0.000565 0.054316 -0.133503 -0.172131 -0.221341 0.049793 -0.045302 0.277797 0.090189 0.110312 0.331742 0.222528 -0.045168 -0.222776 0.180409 0.179052 -0.205786
NNP 0.388336 0.408154 -0.105431 -0.114966 -0.240438 -0.159345 -0.146863 0.192387 0.303684 -0.111745 -0.460426 0.461093 0.153503 0.056130 0.069122 -0.248726 0.128961 0.208928 -0.570174 0.408938 -0.198376 0.064912 -0.028849 -0.277931 -0.098692 0.019945 -0.233491 0.056523 -0.237290 0.022441 0.104290 0.293099 0.195487 0.101750 -0.049014 -0.148983 -0.033526 -0.462305 0.385461 0.291925 0.259461 -0.337702 -0.147271 -0.158634 0.532324 -0.421381 0.025571 0.305671 0.096357 0.434147 0.270588 -0.055644 -0.146680 -0.099220 -0.094079 0.449016 -0.066440 0.267783 0.479813 0.012238 -0.030899 0.190446 -0.195672 0.403669 0.290618 0.317551 0.238261 -0.286058 0.023749 0.413700 -0.195944 -0.262433 -0.299621 -0.205682 0.388350 -0.009992 -0.148792 0.079730 0.174301 -0.116654 -0.301816 0.015975 -0.074380 -0.277587 0.355925 -0.196714 -0.462000 -0.000455 0.479236 0.013965 0.109528 -0.076478 0.275614 0.095549 0.486895 0.041999 0.127659 -0.276364 -0.340583 0.431223
SN 0.516685 -0.183804 -0.121061 -0.065217 -0.240911 -0.356639 0.140882 0.631436 0.593611 -0.123055 -0.470704 0.934701 -0.069046 -0.020603 0.854146 0.140017 -0.261691 0.211441 -0.420548 0.601377 0.013643 -0.128648 -0.250906 -0.182328 -0.379957 -0.245490 -0.339240 0.200320 0.144354 -0.247855 -0.120817 0.214605 0.586775 0.007002 -0.418955 0.019810 -0.358079 -0.476857 0.321758 0.146900 0.211280 -0.803859 -0.641238 -0.649384 -0.026954 -0.477593 0.025772 0.641280 -0.017190 0.187640 0.531665 -1.175388 -0.338738 -0.086004 -0.218085 0.631379 -0.180193 -0.022582 0.419218 0.331915 -0.108722 0.508423 -0.106575 0.933988 0.227488 0.666946 0.298550 -0.209931 -0.089930 0.090689 0.021424 -0.066612 -0.869767 -0.689202 -0.299080 0.775767 0.516679 0.217012 -0.184268 0.138596 -0.349222 0.376971 0.143567 -0.416116 0.218537 0.246782 -0.272539 0.619628 0.183941 -0.212255 -0.124425 -0.033998 0.019358 -0.229788 0.050376 0.322798 0.628437 -0.205426 -0.774522 0.539803
JKB 0.202139 0.106934 0.087669 0.131421 -0.083439 0.055997 0.068625 -0.069415 0.099526 -0.038644 -0.254923 0.152869 0.035294 0.107550 0.061029 -0.125840 -0.054603 -0.049104 -0.458059 0.104357 0.086475 0.099561 0.070923 -0.391831 -0.029804 -0.042113 -0.177120 0.274031 -0.160908 0.103245 0.231028 -0.029347 0.152495 -0.213189 -0.091440 -0.089168 -0.164774 -0.161796 0.115047 0.203519 0.209806 -0.069544 0.040882 0.045879 0.303531 0.002262 0.097186 0.099611 -0.060263 0.351904 0.266296 -0.031635 -0.120174 0.018033 0.000575 0.082021 -0.125475 0.169720 0.224671 -0.069583 -0.173078 0.005299 -0.115054 0.069530 0.109920 0.064841 0.129587 -0.160248 -0.006419 0.084021 -0.148557 -0.122025 0.021940 -0.078785 0.212750 -0.096139 -0.074372 0.009635 0.106670 -0.082580 -0.112092 -0.065498 -0.021676 -0.112387 0.125275 -0.077275 -0.221474 -0.123160 0.147961 0.106728 0.077429 0.064843 0.100830 0.112123 0.114914 0.107483 0.039438 -0.016180 -0.047224 0.150476
ETM 0.136016 0.080095 0.247684 0.237438 -0.089690 0.242469 0.120369 -0.255839 0.011406 -0.021524 -0.180818 -0.039305 0.079645 0.177544 -0.104380 -0.176795 -0.108534 -0.111255 -0.488394 -0.054918 0.267333 0.211599 0.142733 -0.501643 0.141148 -0.076346 -0.076853 0.445321 -0.209190 0.154007 0.300028 -0.116624 0.073980 -0.329402 -0.024036 -0.099315 -0.140022 -0.139160 0.026142 0.173761 0.220266 0.070634 0.222500 0.186938 0.320279 0.258552 0.148873 -0.113657 -0.101613 0.363167 0.266300 0.195960 -0.005705 0.130253 0.106625 -0.120451 -0.141962 0.187478 0.170379 -0.208116 -0.155616 -0.100992 -0.105043 -0.236570 0.122954 -0.043176 0.045741 -0.112105 0.011713 0.022508 -0.222857 -0.143494 0.323017 0.136981 0.356530 -0.338609 -0.302985 -0.096592 0.141055 -0.087147 -0.061152 -0.257921 -0.056853 0.030125 0.043860 -0.232069 -0.199276 -0.356401 0.107977 0.255880 0.060928 0.100889 0.118333 0.138713 0.029952 0.173073 -0.039173 0.103216 0.231814 0.030708
NNB 0.261100 -0.171233 0.092485 0.156916 -0.144574 -0.033840 0.206906 0.151642 0.274833 -0.070686 -0.278575 0.445193 -0.090714 0.054044 0.509353 0.091070 -0.223585 -0.033171 -0.422218 0.262943 0.197154 -0.033037 -0.038385 -0.354852 -0.207519 -0.213897 -0.239468 0.360813 -0.017999 -0.065098 0.180391 -0.069375 0.442298 -0.237276 -0.313066 -0.035336 -0.367193 -0.293418 0.136210 0.124505 0.199249 -0.350986 -0.222108 -0.212289 0.049897 -0.021826 0.127316 0.311741 -0.092833 0.305864 0.434961 -0.614856 -0.191569 0.030626 -0.018635 0.212228 -0.244891 0.047527 0.283788 0.112775 -0.204050 0.211986 -0.080112 0.369827 0.144297 0.293360 0.159842 -0.141799 -0.034868 -0.034925 -0.069662 -0.084288 -0.376980 -0.378103 -0.167937 0.453323 0.283119 0.091659 -0.153186 0.046885 -0.117770 0.089766 0.081771 -0.235355 0.025644 0.225214 -0.068589 0.204352 0.034258 0.008854 -0.135459 0.056416 -0.090103 -0.139878 -0.155013 0.295838 0.257031 0.016073 -0.290470 0.242025
JKO 0.150249 -0.062962 0.079914 0.211465 0.089101 0.126143 0.159090 -0.204527 -0.019598 0.002912 -0.132998 -0.066587 0.032099 0.120887 0.048448 -0.097395 -0.136771 -0.205016 -0.279894 -0.105779 0.144200 0.088592 0.130001 -0.309829 -0.021045 0.033582 -0.087579 0.245312 -0.015848 0.179565 0.189831 -0.177249 0.010187 -0.309415 0.010811 -0.029021 -0.196180 0.118140 -0.099826 0.101510 0.145564 0.140091 0.142194 0.116352 0.122495 0.193323 0.111063 -0.089339 -0.112293 0.213872 0.226255 -0.016604 -0.128833 0.034352 -0.060344 -0.119889 -0.120559 0.079707 -0.015923 -0.093060 -0.259379 -0.120807 -0.042469 -0.144967 -0.029222 -0.098517 0.096960 -0.107371 -0.032991 -0.091092 -0.054308 0.054608 0.295886 0.032346 0.172364 -0.365916 -0.131949 -0.013331 0.159103 -0.025061 -0.030491 -0.061144 -0.081004 0.012487 0.050555 -0.168054 -0.154398 -0.176939 -0.036810 0.092411 0.137311 0.096473 0.065138 0.188366 0.040543 0.025857 -0.022656 0.085471 0.102601 -0.062045
SS 0.534448 0.247549 -0.413172 -0.372782 -0.196875 -0.410483 -0.234610 0.518525 0.621186 -0.136777 -0.554047 0.750335 0.408672 -0.007572 0.187053 -0.261739 0.156386 0.391461 -0.263904 0.539816 -0.429173 -0.061449 -0.153411 0.094467 -0.125593 0.064870 -0.094033 -0.256542 0.055299 -0.030219 -0.295872 0.517691 0.075987 0.533309 0.117182 0.006050 0.131780 -0.361045 0.288762 0.223076 0.121910 -0.677735 -0.416319 -0.515196 0.308746 -0.778809 -0.140921 0.350465 0.253513 0.249616 0.359456 -0.583777 -0.228314 -0.214251 -0.343896 0.746042 0.042908 0.124127 0.387655 0.161172 0.020055 0.416220 -0.151437 0.912322 0.396800 0.671521 0.383081 -0.477905 -0.006688 0.416306 -0.156888 0.032606 -0.566296 -0.186581 0.362658 -0.027486 -0.181857 0.120818 0.369725 -0.087873 -0.578720 0.171937 -0.138606 -0.156095 0.508063 -0.477551 -0.699383 0.286190 0.536749 -0.246876 0.152561 -0.371349 0.489049 0.023375 0.776999 -0.051257 0.593148 -0.507975 -0.701441 0.630260
SF 0.131596 -0.408363 -0.105323 0.151385 0.227280 0.075405 0.193628 -0.014989 0.135151 -0.037589 -0.107796 0.095494 -0.016515 0.044407 0.349995 0.067174 -0.269282 -0.183023 0.006861 -0.071496 0.081858 0.003714 -0.049874 -0.043805 -0.141366 -0.000650 0.063191 0.150469 0.202244 0.040772 -0.008618 -0.269604 0.078092 -0.225115 -0.075024 0.093493 -0.288464 0.140128 -0.283810 -0.073377 0.034571 -0.138336 0.003707 -0.161918 -0.284216 0.186299 0.106326 0.013097 -0.033522 -0.000493 0.343436 -0.563639 -0.173113 -0.038054 -0.209629 -0.071244 -0.155028 -0.190935 -0.119228 0.037607 -0.219840 -0.003057 0.007479 0.201903 -0.004586 0.097512 0.072093 -0.093322 -0.027614 -0.303777 0.118209 0.206035 0.116484 -0.114191 0.028959 -0.238219 0.011422 0.057568 0.182667 0.174718 -0.091863 0.088855 -0.208703 0.013591 0.043601 -0.222591 -0.173514 0.129197 -0.093876 -0.104991 0.098656 -0.105080 0.045252 0.107102 0.062610 0.067497 0.215053 0.009722 -0.084648 -0.081404
XSV 0.115634 -0.061834 -0.013305 0.135032 0.140995 0.090940 0.184734 -0.122937 -0.010782 -0.035222 -0.093933 0.059614 -0.116945 -0.018397 0.150530 -0.025659 -0.099645 -0.262598 -0.189671 0.019381 -0.017729 0.050938 -0.038735 -0.193055 -0.232074 0.180132 -0.158445 0.136463 -0.052883 0.068231 0.149882 -0.250798 0.139860 -0.440838 -0.224205 -0.104145 -0.285684 0.048939 -0.135947 0.101606 0.101375 0.058897 0.104519 -0.028676 0.102681 0.106349 0.128669 0.110631 -0.012324 0.077653 0.225722 -0.103767 -0.247192 -0.070915 -0.058756 -0.074987 -0.163084 -0.017033 -0.110074 0.023892 -0.254464 -0.114601 -0.145510 0.079031 0.003443 -0.075744 -0.081136 -0.016027 0.054368 -0.221604 0.075073 -0.004502 0.201729 -0.104563 0.089122 -0.279627 0.034106 0.136998 0.108240 0.080891 0.086940 0.125049 -0.130233 -0.011190 0.078937 -0.032242 -0.166587 -0.068956 0.069095 -0.112129 0.228412 0.092582 0.138999 0.218311 0.186690 -0.016416 -0.059364 0.105412 0.030603 -0.109962
JX 0.251492 0.078703 0.111455 0.148811 -0.090811 0.040473 0.054487 -0.042261 0.091976 -0.056357 -0.244422 0.185413 0.016195 0.113863 0.127750 -0.096149 -0.086547 -0.027255 -0.470385 0.132233 0.119406 0.089841 0.046013 -0.380400 -0.088882 -0.042251 -0.206908 0.286924 -0.169453 0.081254 0.243872 -0.066908 0.210552 -0.281889 -0.130802 -0.097625 -0.194555 -0.194964 0.121523 0.201092 0.230634 -0.103618 0.016977 0.012067 0.289207 -0.024058 0.107903 0.164255 -0.059061 0.352413 0.297846 -0.095044 -0.141963 0.011206 -0.003121 0.093448 -0.174381 0.153456 0.266242 -0.037191 -0.158790 0.002688 -0.142836 0.088474 0.123046 0.060249 0.114964 -0.120236 -0.003431 0.056077 -0.136944 -0.149391 0.008780 -0.156706 0.157697 -0.068387 -0.013629 0.042390 0.100349 -0.060382 -0.095840 -0.039928 -0.018858 -0.165025 0.111493 -0.049513 -0.248926 -0.093255 0.129462 0.081285 0.096747 0.084996 0.061208 0.108273 0.099087 0.130744 0.052441 -0.008881 -0.094322 0.148909
EP 0.127234 -0.434461 -0.010136 0.299431 0.240386 0.186227 0.364896 -0.194483 0.026375 -0.016360 -0.031556 -0.087392 -0.029531 0.049051 0.328661 0.040591 -0.305323 -0.345380 0.062596 -0.215284 0.240541 0.053353 0.035956 -0.117116 -0.103113 -0.002100 0.070734 0.293217 0.287733 0.064802 0.049209 -0.377753 0.005055 -0.373361 -0.065930 0.106698 -0.320644 0.263293 -0.368122 -0.146091 0.068437 0.115024 0.107191 -0.083341 -0.300505 0.438303 0.169693 -0.154924 -0.072404 -0.082469 0.299460 -0.337244 -0.134985 0.010217 -0.181124 -0.278602 -0.207220 -0.192974 -0.314899 0.014234 -0.323331 -0.111440 0.092481 -0.170705 -0.103880 -0.050326 -0.015325 0.023035 -0.043603 -0.359416 0.183865 0.228138 0.371795 -0.045619 -0.018424 -0.369293 -0.069727 -0.023132 0.093968 0.178755 0.054602 0.031103 -0.181774 0.124593 -0.040760 -0.215549 -0.026961 -0.057706 -0.183708 -0.014695 0.091221 0.046657 0.017088 0.078659 -0.116652 0.075590 0.057944 0.174299 0.183602 -0.304602
JKS 0.149189 0.094466 0.116413 0.185312 0.007165 0.137824 0.095207 -0.211103 -0.006654 0.002663 -0.179129 -0.040705 0.051810 0.124315 -0.068105 -0.175779 -0.050495 -0.144828 -0.375872 -0.046972 0.125755 0.144246 0.126004 -0.388928 0.027503 0.028466 -0.116193 0.274275 -0.139647 0.164851 0.234153 -0.106892 0.015389 -0.295535 0.006693 -0.086236 -0.137764 -0.008203 -0.020259 0.172039 0.187090 0.112817 0.190859 0.144883 0.297585 0.150471 0.112032 -0.061480 -0.078176 0.281946 0.216754 0.138257 -0.093618 0.028249 0.013454 -0.074235 -0.100254 0.141346 0.083500 -0.129616 -0.211952 -0.124687 -0.089420 -0.149707 0.046803 -0.084382 0.075719 -0.117089 0.009163 0.007495 -0.137027 -0.066016 0.315434 0.079459 0.307742 -0.396627 -0.241931 -0.027617 0.187192 -0.077905 -0.062016 -0.119015 -0.080289 0.022820 0.099514 -0.218886 -0.225821 -0.262683 0.110864 0.136636 0.158480 0.082433 0.155593 0.216727 0.138740 0.045147 -0.048986 0.049101 0.128014 -0.004740
SP 0.529068 0.281009 -0.150718 -0.185903 -0.274051 -0.349033 -0.099725 0.492042 0.529824 -0.124082 -0.544617 0.776241 0.196807 0.025075 0.349556 -0.155030 0.023926 0.316057 -0.560369 0.582100 -0.150950 -0.087605 -0.132014 -0.223729 -0.211760 -0.070499 -0.321634 0.044476 -0.106576 -0.073323 -0.070074 0.359984 0.317758 0.158918 -0.118604 -0.057068 -0.115452 -0.506982 0.436181 0.246243 0.278655 -0.564077 -0.419772 -0.434669 0.384767 -0.610453 -0.054862 0.488485 0.064628 0.367834 0.419256 -0.569084 -0.249579 -0.134041 -0.145451 0.672265 -0.094815 0.223488 0.546411 0.151790 0.010853 0.372597 -0.177160 0.714411 0.310319 0.532246 0.326142 -0.320561 -0.026974 0.392507 -0.157307 -0.170084 -0.606968 -0.390298 0.128425 0.302334 0.096493 0.168317 0.067321 -0.059334 -0.440579 0.131156 -0.000548 -0.349996 0.375150 -0.053890 -0.467457 0.284724 0.438082 -0.112359 0.066755 -0.081942 0.261985 -0.051906 0.404991 0.130009 0.443020 -0.355536 -0.657849 0.612532
JKG 0.234384 0.240070 -0.021111 0.016237 -0.041879 0.021042 -0.021606 -0.055696 0.133634 -0.045177 -0.269359 0.169985 0.144850 0.079612 -0.075532 -0.231190 0.044354 -0.025273 -0.387975 0.143893 -0.086638 0.109095 0.027494 -0.279293 -0.034789 0.122894 -0.140280 0.109359 -0.182581 0.110925 0.139778 0.030934 0.047179 -0.137222 -0.012580 -0.110377 -0.069350 -0.148076 0.088548 0.215898 0.170137 -0.048888 0.078297 0.002324 0.385772 -0.128164 0.050226 0.083224 0.047726 0.291364 0.224154 0.076844 -0.143578 -0.060751 -0.050083 0.142859 -0.074880 0.175237 0.158802 -0.067737 -0.124418 -0.013119 -0.157893 0.111925 0.161343 0.070871 0.093162 -0.190353 0.032909 0.125296 -0.150507 -0.098977 0.115586 0.013187 0.375664 -0.330522 -0.219720 0.037171 0.239109 -0.092778 -0.140153 -0.055297 -0.126261 -0.035992 0.221313 -0.280426 -0.374476 -0.190862 0.277528 0.011776 0.200386 -0.019836 0.274898 0.210457 0.389004 -0.016909 0.034041 -0.086804 -0.052414 0.152609
EF 0.122002 -0.349565 -0.070354 0.228036 0.174307 0.092028 0.467965 -0.114899 0.201844 0.062747 -0.116329 0.003249 0.082556 -0.006613 0.307674 -0.037350 -0.216510 -0.304209 0.218928 -0.222440 0.255458 0.109221 0.087097 -0.135113 0.015320 -0.089752 0.117304 0.260219 0.435441 -0.005011 -0.130354 -0.163429 -0.106328 -0.164794 0.084151 0.189966 -0.133938 0.296750 -0.423729 -0.189657 0.057463 0.087824 0.040134 -0.222185 -0.239403 0.402623 0.118514 -0.283242 -0.043334 -0.243000 0.329391 -0.409530 -0.103153 -0.043714 -0.209470 -0.212650 -0.051262 -0.221891 -0.454405 -0.030066 -0.345241 0.009922 0.208597 -0.197037 -0.128701 0.054198 0.062797 -0.058998 -0.097485 -0.196564 0.156251 0.294763 0.378292 0.087992 0.008753 -0.383543 -0.296085 -0.113810 -0.001351 0.211951 -0.140772 0.058039 -0.126028 0.335475 0.019964 -0.361791 0.000328 -0.032616 -0.050063 -0.039614 -0.006942 -0.011358 0.229936 -0.009307 -0.117258 0.073136 0.258909 0.054018 0.231627 -0.232873
SL 0.472272 0.334544 -0.549081 -0.490208 -0.081841 -0.423192 -0.213434 0.524808 0.755773 -0.061390 -0.549211 0.808449 0.589282 0.018374 0.054786 -0.378501 0.176559 0.300594 -0.052269 0.530972 -0.593745 0.018719 -0.205703 0.127326 0.036424 0.209114 0.034759 -0.370808 0.155814 -0.064733 -0.500324 0.535693 -0.147661 0.616831 0.184225 0.088198 0.245134 -0.227705 0.168876 0.167216 -0.001464 -0.591093 -0.383894 -0.572171 0.274807 -0.827492 -0.227214 0.230074 0.334306 0.060804 0.347259 -0.551580 -0.242566 -0.310196 -0.428800 0.749018 0.190884 0.130343 0.118696 0.148286 0.078305 0.465809 -0.077113 0.874222 0.359822 0.636649 0.359701 -0.513686 -0.027859 0.405995 -0.129709 0.164420 -0.402080 0.026626 0.485489 -0.192870 -0.333937 0.035731 0.441137 -0.085618 -0.620469 0.151166 -0.274465 0.052929 0.558204 -0.738570 -0.757781 0.154517 0.581285 -0.372412 0.226726 -0.481808 0.683618 0.108859 0.952818 -0.215715 0.698347 -0.566175 -0.584550 0.605572
XSN 0.159351 0.167069 0.123095 0.148072 -0.038215 0.146908 0.069453 -0.170649 0.025682 -0.031828 -0.217003 0.080272 0.027795 0.110043 -0.049551 -0.177182 -0.033452 -0.126603 -0.491636 0.067604 0.069523 0.145825 0.074553 -0.428695 -0.007690 0.052412 -0.174007 0.280384 -0.226698 0.140200 0.265919 -0.102476 0.126469 -0.336143 -0.114055 -0.156016 -0.185732 -0.140985 0.086837 0.233239 0.198785 0.040038 0.145156 0.123740 0.385506 0.075937 0.107323 0.044549 -0.048617 0.339586 0.237889 0.158923 -0.119828 0.028868 0.040786 0.007157 -0.138918 0.204398 0.146982 -0.115359 -0.177039 -0.088697 -0.169878 -0.042349 0.110734 -0.023141 0.041393 -0.121557 0.038668 0.045647 -0.153317 -0.151579 0.177712 0.007695 0.304299 -0.275858 -0.144156 0.016379 0.146141 -0.092879 -0.036180 -0.099471 -0.073633 -0.063705 0.113441 -0.137614 -0.245231 -0.262477 0.164402 0.108191 0.166090 0.108461 0.156034 0.203579 0.185045 0.069860 -0.084814 0.051091 0.084803 0.074962
VCP 0.113510 0.037706 -0.065952 0.086165 0.153691 0.074121 0.148018 -0.141458 0.047730 0.032706 -0.145176 0.014092 0.048821 0.037811 -0.020426 -0.165870 -0.057075 -0.283647 -0.155329 -0.017387 -0.093348 0.092059 0.029587 -0.199147 -0.075683 0.227479 -0.071817 0.036835 -0.031022 0.137218 0.066078 -0.145859 -0.048580 -0.285472 -0.021942 -0.076717 -0.165395 0.142236 -0.157166 0.111000 0.040816 0.163247 0.156783 0.018362 0.151824 0.052832 0.069186 -0.035725 0.011353 0.057260 0.168295 0.018108 -0.229754 -0.068464 -0.084067 -0.041419 -0.042033 0.039614 -0.192465 -0.006046 -0.222223 -0.113406 -0.099292 -0.012320 0.007496 -0.088205 -0.031345 -0.096351 0.039007 -0.135041 -0.012755 0.101641 0.321985 0.108908 0.255486 -0.478213 -0.164548 0.047687 0.220867 -0.010007 0.001199 0.043195 -0.165458 0.116146 0.133425 -0.263310 -0.224997 -0.177408 0.092880 -0.077794 0.250912 0.015156 0.241964 0.282017 0.323562 -0.122180 -0.024415 0.065757 0.086305 -0.094350
MAG 0.092751 -0.010751 0.098697 0.255441 0.083702 0.189469 0.174561 -0.275141 -0.008819 0.017900 -0.156125 -0.084293 -0.002336 0.115728 0.001683 -0.131637 -0.108551 -0.261241 -0.290214 -0.090204 0.146777 0.170459 0.121220 -0.384060 0.012722 0.036231 -0.055128 0.291113 -0.084585 0.142069 0.257207 -0.223675 0.021690 -0.370188 -0.019596 -0.077532 -0.203433 0.028110 -0.118198 0.105678 0.148073 0.166118 0.239709 0.135132 0.186854 0.266495 0.146710 -0.096177 -0.062374 0.217339 0.237826 0.087429 -0.107601 0.026637 -0.008858 -0.156883 -0.137072 0.064929 -0.049507 -0.119188 -0.250722 -0.156950 -0.048112 -0.211432 0.006361 -0.122984 0.019542 -0.079184 0.019780 -0.093810 -0.078591 -0.015740 0.388930 0.082768 0.277898 -0.415930 -0.214381 -0.045428 0.158531 -0.027201 -0.018009 -0.103579 -0.138901 0.050813 0.051670 -0.230147 -0.154270 -0.274370 0.051178 0.119655 0.149635 0.064958 0.118713 0.205234 0.084850 0.053725 -0.099345 0.100138 0.216801 -0.106104
VX 0.035776 -0.225940 0.006599 0.283165 0.297486 0.243775 0.304144 -0.363842 -0.130935 0.030521 0.005123 -0.256794 -0.057873 0.042424 0.073652 -0.063358 -0.216233 -0.466310 -0.017637 -0.283618 0.103637 0.116667 0.091248 -0.185983 -0.080599 0.198573 0.032016 0.179634 0.106854 0.169006 0.144611 -0.414234 -0.094345 -0.483377 -0.006817 -0.032155 -0.279671 0.338006 -0.387817 -0.042124 0.046962 0.347027 0.307709 0.112091 -0.088881 0.421573 0.169238 -0.225581 -0.060096 -0.046404 0.183448 0.037020 -0.183869 -0.012577 -0.108282 -0.355333 -0.146170 -0.104378 -0.390417 -0.059276 -0.346695 -0.285379 0.005754 -0.334467 -0.147106 -0.254589 -0.095860 0.027180 0.021217 -0.358660 0.130966 0.186930 0.609927 0.115781 0.190518 -0.678409 -0.194085 -0.013656 0.208999 0.109878 0.143318 0.002003 -0.238257 0.166989 -0.017800 -0.295053 -0.078413 -0.260836 -0.120319 -0.020950 0.248754 0.085838 0.098726 0.301102 0.087271 -0.076639 -0.175912 0.216731 0.325279 -0.382179
VA 0.042397 0.004796 0.045769 0.228026 0.175329 0.219850 0.205649 -0.338744 -0.053299 0.050956 -0.115364 -0.145567 -0.012709 0.074461 -0.066970 -0.170184 -0.104823 -0.393550 -0.223364 -0.142771 0.052278 0.174119 0.110145 -0.343846 -0.005423 0.178937 -0.033272 0.198642 -0.069385 0.183780 0.204596 -0.281755 -0.060312 -0.424179 -0.003329 -0.100812 -0.207050 0.153696 -0.211571 0.102359 0.077173 0.300807 0.316329 0.175210 0.179733 0.287715 0.131134 -0.161200 -0.037101 0.118818 0.193023 0.176799 -0.167472 -0.002371 -0.031931 -0.200953 -0.089205 0.051530 -0.222422 -0.096851 -0.292242 -0.228081 -0.069622 -0.264234 -0.041166 -0.193158 -0.052005 -0.066903 0.055549 -0.170707 -0.029350 0.056165 0.522626 0.181685 0.322661 -0.585721 -0.255137 -0.027288 0.208353 -0.014665 0.052618 -0.058272 -0.192911 0.134384 0.052578 -0.289804 -0.151595 -0.329611 0.041204 0.046875 0.240703 0.074595 0.175013 0.316563 0.185944 -0.052673 -0.159642 0.151551 0.297478 -0.201414
SW 0.512087 -0.304781 -0.383486 -0.159621 -0.075841 -0.454907 0.171870 0.656157 0.770328 -0.090020 -0.495121 0.939061 0.163155 -0.090740 0.862441 0.069984 -0.181208 0.172799 -0.014931 0.520702 -0.101022 -0.214021 -0.231416 0.088310 -0.311008 -0.177416 -0.099833 -0.053860 0.455433 -0.258476 -0.396021 0.244639 0.313724 0.287441 -0.152319 0.174498 -0.259309 -0.247859 0.078230 -0.065231 0.097223 -0.762482 -0.646320 -0.828455 -0.255294 -0.478273 -0.077874 0.446178 0.116014 -0.059051 0.570826 -1.365773 -0.314998 -0.210191 -0.404591 0.645892 -0.122630 -0.162957 0.106782 0.371110 -0.123136 0.558869 0.062568 0.952275 0.188419 0.756226 0.355555 -0.309111 -0.098824 0.088663 0.137111 0.236119 -0.794109 -0.533129 -0.262399 0.527168 0.300987 0.169351 -0.065826 0.196887 -0.502882 0.373671 -0.049230 -0.197330 0.261527 -0.072426 -0.269291 0.661236 0.188913 -0.366723 -0.087538 -0.268778 0.191434 -0.260297 0.176283 0.176345 0.790334 -0.364267 -0.781482 0.490863
MM 0.162287 0.084392 0.084173 0.162015 -0.036850 0.118127 0.111670 -0.130817 0.068041 -0.027213 -0.221230 0.099453 0.011867 0.103649 0.053950 -0.137452 -0.084514 -0.141918 -0.412707 0.059866 0.090556 0.146580 0.055796 -0.395256 -0.024568 -0.001132 -0.134585 0.283511 -0.151088 0.091921 0.246161 -0.105333 0.137258 -0.289419 -0.112069 -0.111225 -0.194319 -0.132408 0.052089 0.168276 0.178478 0.011405 0.103558 0.055778 0.278210 0.092796 0.119404 0.046563 -0.046642 0.290528 0.250008 0.033434 -0.120009 0.026917 0.004733 0.007704 -0.139229 0.139581 0.114620 -0.065574 -0.176594 -0.033214 -0.112279 -0.028958 0.103921 -0.001692 0.057620 -0.102683 0.020738 0.016079 -0.119529 -0.115581 0.134905 -0.036520 0.241116 -0.186008 -0.109191 -0.000575 0.097318 -0.044658 -0.045400 -0.072686 -0.068538 -0.064336 0.102378 -0.120877 -0.190651 -0.187365 0.128175 0.106200 0.094280 0.072974 0.106268 0.144790 0.122026 0.089690 -0.039246 0.049937 0.070222 0.051879
JC 0.298922 0.292166 0.037702 0.010572 -0.168174 -0.032820 -0.055184 0.045543 0.177986 -0.073180 -0.325274 0.260484 0.125915 0.104715 -0.015680 -0.210180 0.049498 0.095262 -0.525437 0.247014 -0.030591 0.080390 0.028455 -0.337980 -0.044896 0.009973 -0.206292 0.172781 -0.249587 0.079778 0.188190 0.125795 0.146843 -0.087340 -0.048246 -0.132776 -0.074917 -0.309992 0.247010 0.245645 0.241739 -0.142468 -0.025808 -0.033688 0.457688 -0.198614 0.049965 0.173230 0.004155 0.393228 0.246712 0.049365 -0.115372 -0.021868 -0.004554 0.246305 -0.093304 0.235966 0.359898 -0.059934 -0.058621 0.061756 -0.173833 0.173658 0.219438 0.137738 0.143188 -0.188478 0.005748 0.239974 -0.197768 -0.205766 -0.059700 -0.091952 0.333621 -0.138502 -0.149396 0.053509 0.162010 -0.120442 -0.195738 -0.081443 -0.049279 -0.165302 0.247619 -0.156460 -0.365788 -0.116415 0.322541 0.090929 0.118617 0.021807 0.214844 0.117925 0.318676 0.068952 0.058821 -0.121568 -0.153215 0.271295
XR 0.096209 0.259733 0.268535 0.224856 -0.007010 0.268131 0.170598 -0.445457 -0.019076 0.124631 -0.113293 -0.302207 0.074890 0.187311 -0.422925 -0.283683 0.047439 -0.364527 -0.362465 0.004659 0.100604 0.252569 0.209236 -0.456268 -0.004530 0.281374 -0.128210 0.181503 -0.465434 0.268557 0.486703 -0.163724 0.009113 -0.535757 0.138644 -0.294057 -0.081646 -0.068468 -0.188416 0.207333 0.048500 0.537990 0.461084 0.214047 0.559499 0.151997 0.152576 -0.240722 0.013134 0.269490 0.138411 0.567005 -0.132729 0.082585 0.196569 -0.143546 -0.016428 0.091316 -0.174115 -0.185279 -0.131415 -0.271192 -0.188140 -0.359998 0.220837 -0.351037 -0.255263 0.038002 0.083639 -0.189455 -0.320976 0.006643 0.784100 0.420437 0.587806 -0.902227 -0.499544 0.026802 0.226893 -0.182699 -0.012335 -0.267110 -0.156336 0.243697 0.190870 -0.406894 -0.325674 -0.588594 0.299403 0.240268 0.213539 0.032104 0.364998 0.303906 0.432370 -0.065164 -0.227594 0.311352 0.491443 -0.211856
XSA -0.080413 0.244242 0.131415 0.180273 0.256616 0.411379 0.243795 -0.448376 -0.189715 0.067834 -0.105732 -0.198930 0.044262 0.016167 -0.448393 -0.405178 -0.124449 -0.626620 -0.526056 -0.280554 -0.011283 0.179061 0.090607 -0.541480 0.122125 0.477497 -0.172505 0.201890 -0.321375 0.387774 0.158892 -0.362951 -0.206948 -0.673851 -0.008964 -0.226004 -0.305247 0.352852 -0.184568 0.283365 0.047617 0.602783 0.585648 0.468694 0.421295 0.405452 0.042581 -0.339353 -0.122372 0.189937 0.144648 0.571113 -0.279313 -0.015358 0.180869 -0.287795 -0.020278 0.303270 -0.342219 -0.277248 -0.343471 -0.454438 -0.258622 -0.436254 -0.079108 -0.326707 -0.234577 -0.179693 0.226171 -0.253303 -0.120771 0.030337 0.782679 0.555329 0.508075 -0.898162 -0.425361 -0.000997 0.279352 -0.081900 0.198567 -0.186218 -0.239070 0.370120 -0.033544 -0.310597 -0.127906 -0.602040 0.058361 -0.018618 0.431774 0.260131 0.340488 0.630138 0.371610 -0.168210 -0.290220 0.270058 0.537823 -0.223309
XPN 0.312498 0.146805 0.006441 0.022541 -0.163043 -0.050338 -0.000861 0.105077 0.215869 -0.096980 -0.321280 0.345515 0.075551 0.074127 0.148070 -0.116266 -0.000960 0.095625 -0.480103 0.267974 -0.004781 0.040262 -0.010169 -0.291243 -0.117972 -0.047222 -0.216567 0.204324 -0.155533 0.034387 0.149652 0.092301 0.244417 -0.103126 -0.140478 -0.098936 -0.153598 -0.307953 0.223388 0.219197 0.226489 -0.262133 -0.111328 -0.123030 0.343898 -0.190817 0.068701 0.246034 0.003687 0.360911 0.311465 -0.176812 -0.148138 -0.019219 -0.051171 0.264849 -0.137254 0.174703 0.346695 0.004153 -0.105003 0.117445 -0.165544 0.307958 0.209653 0.230701 0.158176 -0.195145 -0.005938 0.174450 -0.139161 -0.169776 -0.201899 -0.204354 0.197029 0.025047 -0.015866 0.085612 0.104902 -0.061353 -0.185302 0.007978 -0.011503 -0.197884 0.215639 -0.066279 -0.324378 0.009790 0.262988 0.033874 0.070371 0.013860 0.155434 0.047953 0.231247 0.120887 0.146419 -0.103993 -0.247498 0.294078
NR 0.424371 -0.544528 -0.064005 0.155088 -0.125620 -0.184393 0.415928 0.490904 0.537203 -0.125775 -0.379064 0.815928 -0.194476 -0.022892 1.113818 0.271675 -0.483704 -0.045461 -0.305077 0.400359 0.263003 -0.117313 -0.234134 -0.274570 -0.420193 -0.360352 -0.290082 0.446460 0.326176 -0.276556 -0.004675 -0.103171 0.683098 -0.244759 -0.541536 0.124842 -0.570536 -0.304676 0.066822 -0.026330 0.204744 -0.695908 -0.583016 -0.642407 -0.335960 -0.079798 0.139382 0.526537 -0.091722 0.102273 0.673317 -1.395893 -0.362240 -0.042630 -0.206486 0.352861 -0.346002 -0.169611 0.192037 0.337093 -0.296419 0.473196 -0.005628 0.746646 0.135067 0.562393 0.223133 -0.102847 -0.098407 -0.210100 0.152994 0.046584 -0.750580 -0.752197 -0.569403 0.916200 0.658502 0.195248 -0.379655 0.285281 -0.179537 0.357203 0.130762 -0.316773 0.012746 0.426813 -0.001211 0.635711 -0.082126 -0.180190 -0.277612 0.033164 -0.165877 -0.351961 -0.337256 0.445934 0.614193 -0.032912 -0.570645 0.293766
NP 0.106656 0.130386 0.088271 0.195883 0.019960 0.189972 0.112563 -0.271725 -0.001897 -0.001608 -0.190122 -0.051875 0.031941 0.122654 -0.087716 -0.207794 -0.044394 -0.222504 -0.380992 -0.041187 0.076506 0.204425 0.113358 -0.412236 0.043923 0.078519 -0.078905 0.269074 -0.178853 0.142879 0.275445 -0.144856 0.025133 -0.329706 -0.022991 -0.123569 -0.155294 -0.051685 -0.039234 0.160234 0.161112 0.167808 0.251324 0.153177 0.318259 0.187907 0.137235 -0.076812 -0.027101 0.267248 0.206811 0.239237 -0.096437 0.021400 0.011500 -0.102337 -0.107866 0.136577 0.013847 -0.128848 -0.199952 -0.135600 -0.101661 -0.196007 0.075687 -0.113740 0.011661 -0.099012 0.042134 -0.001122 -0.121597 -0.091313 0.355020 0.100429 0.379724 -0.434880 -0.273793 -0.043042 0.180690 -0.065720 -0.020020 -0.132233 -0.143299 0.031036 0.103475 -0.260162 -0.213318 -0.328673 0.151306 0.137897 0.154421 0.054738 0.175355 0.236940 0.197499 0.020037 -0.132192 0.068809 0.228469 -0.055201
MAJ 0.224524 0.209550 0.060522 0.079507 -0.099862 0.051802 0.012982 -0.047983 0.116948 -0.051788 -0.270059 0.179122 0.070060 0.097597 -0.010470 -0.184272 -0.004723 -0.018484 -0.484592 0.161831 0.010885 0.106349 0.040036 -0.370882 -0.025801 0.021566 -0.182118 0.222395 -0.218314 0.093211 0.216403 0.006662 0.134302 -0.196500 -0.087746 -0.134332 -0.142930 -0.222821 0.156321 0.225056 0.210941 -0.062687 0.052396 0.022527 0.392946 -0.055097 0.079471 0.117387 -0.011671 0.349291 0.247491 0.070130 -0.117661 0.001376 0.003870 0.133555 -0.118652 0.207708 0.236883 -0.068363 -0.117733 -0.002924 -0.152618 0.075075 0.159911 0.063811 0.088585 -0.149589 0.026725 0.137065 -0.156651 -0.169564 0.040994 -0.061557 0.303032 -0.179030 -0.128471 0.034197 0.139336 -0.093922 -0.109555 -0.077168 -0.063376 -0.117524 0.172832 -0.144969 -0.290666 -0.170988 0.238698 0.091100 0.132692 0.048072 0.178816 0.153447 0.239993 0.076157 -0.002808 -0.031948 -0.041670 0.170291
ETN 0.078964 -0.087345 0.119643 0.276714 0.091941 0.250997 0.237309 -0.297741 -0.014846 0.011426 -0.113529 -0.114215 0.007107 0.118592 0.028837 -0.104043 -0.157321 -0.262367 -0.248913 -0.155887 0.206361 0.179670 0.123245 -0.367964 0.057128 -0.019846 -0.003914 0.363732 -0.017951 0.134802 0.225543 -0.235779 0.011687 -0.350222 -0.030191 -0.026451 -0.199439 0.052922 -0.167477 0.054653 0.148459 0.153526 0.231789 0.126664 0.094079 0.376355 0.168160 -0.169961 -0.078582 0.174310 0.240086 0.076293 -0.051019 0.062969 -0.019728 -0.234913 -0.146077 0.029191 -0.086487 -0.147554 -0.255762 -0.136195 -0.006019 -0.262055 -0.006327 -0.098811 0.018372 -0.069354 -0.003501 -0.118470 -0.045372 0.003625 0.398305 0.100461 0.246551 -0.407932 -0.243785 -0.088517 0.118225 0.022881 0.003867 -0.137755 -0.137883 0.089362 0.024715 -0.244692 -0.107668 -0.269481 0.001650 0.152235 0.076193 0.072266 0.096584 0.155313 -0.014572 0.098574 -0.081002 0.141008 0.287547 -0.153146
SO 0.370503 -0.205783 -0.110962 0.051683 -0.068328 -0.160871 0.201016 0.294958 0.431138 -0.080696 -0.365358 0.571539 0.024907 0.011471 0.584159 0.036267 -0.212642 0.012410 -0.258181 0.307850 0.069395 -0.056060 -0.106194 -0.185559 -0.228992 -0.144226 -0.172325 0.211041 0.164652 -0.100151 -0.041335 0.024013 0.328088 -0.084701 -0.224102 0.042429 -0.304096 -0.214577 0.064619 0.055355 0.169112 -0.445197 -0.326840 -0.425856 -0.041302 -0.154672 0.067263 0.304991 -0.010166 0.135555 0.478000 -0.816092 -0.255284 -0.067814 -0.192350 0.326698 -0.187553 -0.037640 0.164039 0.183227 -0.199173 0.282927 -0.038983 0.522725 0.144388 0.413671 0.212234 -0.187525 -0.055942 -0.017919 0.033797 0.042551 -0.390639 -0.383036 -0.110947 0.296670 0.199172 0.109827 -0.038549 0.110130 -0.256214 0.187924 -0.011570 -0.173531 0.152325 0.005166 -0.209181 0.316899 0.108913 -0.128475 -0.031691 -0.052339 0.084772 -0.107727 0.058178 0.209614 0.425057 -0.115965 -0.407012 0.274863
VCN 0.177694 -0.074085 -0.011157 0.197101 0.112865 0.134954 0.233729 -0.156978 0.105505 0.000228 -0.200319 0.046554 0.031374 0.067062 0.127774 -0.132265 -0.144241 -0.272757 -0.235425 -0.033108 0.077867 0.129135 0.050194 -0.299956 -0.065634 0.091458 -0.062589 0.244509 0.022357 0.109328 0.136329 -0.195667 0.042461 -0.333647 -0.052875 -0.035971 -0.237821 0.067507 -0.169077 0.065259 0.138396 0.091478 0.144532 -0.033913 0.104568 0.194587 0.138242 -0.063762 -0.027001 0.120996 0.305821 -0.118750 -0.191285 -0.030610 -0.101437 -0.080632 -0.135043 0.000951 -0.123264 -0.043495 -0.274332 -0.071902 -0.051794 -0.063401 0.034864 -0.017126 0.015924 -0.103570 0.008664 -0.140905 -0.000306 0.062427 0.315099 0.029585 0.245121 -0.440494 -0.195774 0.004590 0.161794 0.049032 -0.057365 -0.001844 -0.179875 0.083786 0.120731 -0.287454 -0.220319 -0.161131 0.088170 0.011872 0.160795 0.033061 0.213507 0.192824 0.187914 0.020095 0.036866 0.067153 0.128264 -0.091293
SH 0.245655 0.029492 -0.089030 0.026095 -0.018272 -0.041887 0.071460 0.062920 0.218756 -0.044112 -0.265217 0.232837 0.109923 0.035668 0.146568 -0.130042 -0.050400 -0.021647 -0.226395 0.127539 -0.027466 0.043791 -0.006414 -0.168408 -0.069575 0.016318 -0.080223 0.113757 0.024229 0.029635 0.007076 0.035053 0.066064 -0.047021 -0.017795 -0.009923 -0.112816 -0.096370 0.018746 0.088330 0.135994 -0.146028 -0.051903 -0.159211 0.137658 -0.076015 0.047017 0.082625 0.032592 0.145246 0.272252 -0.230758 -0.144822 -0.066010 -0.139123 0.152914 -0.075880 0.042117 0.076157 0.016691 -0.140142 0.084264 -0.054032 0.189651 0.122857 0.178423 0.122181 -0.169603 -0.003619 0.057070 -0.033342 0.011860 -0.009439 -0.078423 0.191887 -0.169721 -0.128318 0.031156 0.143405 0.009248 -0.184354 0.028123 -0.106285 -0.025094 0.180823 -0.225102 -0.268633 0.004002 0.182926 -0.037104 0.093733 -0.053174 0.206511 0.077739 0.240591 0.036680 0.174133 -0.101984 -0.124080 0.131047
NA 0.205283 -0.057371 -0.054637 0.100132 0.046233 0.031355 0.163277 -0.024616 0.179663 -0.023333 -0.225159 0.169799 0.067810 0.045605 0.178059 -0.104044 -0.108150 -0.141915 -0.191789 0.049671 0.035876 0.073965 0.009632 -0.213827 -0.077779 0.025862 -0.067401 0.170061 0.061339 0.048998 0.044710 -0.082784 0.060810 -0.175567 -0.046454 -0.004888 -0.181122 -0.012692 -0.080319 0.055421 0.120128 -0.058376 0.014621 -0.125837 0.075054 0.048979 0.085164 0.026455 0.002922 0.107878 0.294811 -0.235057 -0.173764 -0.048844 -0.123634 0.041668 -0.107814 0.010589 -0.035016 0.004941 -0.210204 0.020348 -0.035967 0.090745 0.064338 0.101666 0.085145 -0.131564 -0.006337 -0.055619 -0.004663 0.058978 0.111373 -0.048563 0.160741 -0.239946 -0.126555 0.023693 0.129950 0.040504 -0.126942 0.030414 -0.122984 0.023915 0.133564 -0.231804 -0.221247 -0.047295 0.109756 -0.030912 0.112425 -0.022483 0.184524 0.112641 0.174403 0.039404 0.136788 -0.019864 -0.026170 0.029819
JKQ 0.145006 -0.218635 -0.051807 0.199733 0.161598 0.115859 0.273151 -0.134827 0.105771 0.002677 -0.136274 0.020820 0.025848 0.044067 0.202713 -0.062128 -0.194770 -0.274290 -0.060868 -0.107591 0.113704 0.092865 0.036571 -0.183930 -0.074232 0.048243 0.008903 0.211307 0.158575 0.071287 0.038002 -0.222112 0.003216 -0.281991 -0.025482 0.041941 -0.231162 0.157246 -0.263784 -0.027706 0.080802 0.066302 0.094293 -0.092537 -0.073151 0.254806 0.128324 -0.108581 -0.030805 -0.004265 0.295007 -0.253232 -0.171855 -0.035007 -0.158956 -0.132365 -0.119657 -0.099876 -0.226279 -0.015586 -0.288057 -0.057756 0.018997 -0.054493 -0.028066 0.005487 0.021556 -0.074723 -0.014941 -0.210522 0.081534 0.164165 0.303833 0.008841 0.137815 -0.403066 -0.169341 -0.006777 0.137440 0.112261 -0.055673 0.031029 -0.175591 0.124414 0.066098 -0.282439 -0.144060 -0.077422 -0.000246 -0.034615 0.124589 0.003939 0.159158 0.140103 0.090290 0.028053 0.096247 0.071001 0.118192 -0.156959
JKC 0.207888 -0.087422 0.003797 0.203716 0.096349 0.136879 0.250756 -0.162299 0.122852 -0.008379 -0.223971 0.068757 0.041917 0.080632 0.149215 -0.137533 -0.159896 -0.265014 -0.249176 -0.037000 0.110419 0.134605 0.060600 -0.319520 -0.072557 0.060562 -0.069329 0.277375 0.032270 0.113355 0.135253 -0.189703 0.052572 -0.341895 -0.051557 -0.029032 -0.247577 0.047664 -0.171458 0.070342 0.148162 0.057397 0.131525 -0.042008 0.105080 0.207607 0.139299 -0.049769 -0.037149 0.141392 0.350676 -0.150108 -0.193096 -0.026517 -0.115568 -0.070198 -0.152143 0.012647 -0.109153 -0.037875 -0.297386 -0.068599 -0.040627 -0.054549 0.040217 -0.000517 0.042935 -0.119595 0.005669 -0.128068 -0.005465 0.063937 0.309116 0.010736 0.231121 -0.419610 -0.197335 -0.001205 0.168755 0.051285 -0.070602 -0.006130 -0.168105 0.080287 0.121172 -0.290402 -0.231660 -0.166262 0.087016 0.012941 0.153648 0.026155 0.205344 0.185105 0.159111 0.052524 0.065126 0.066288 0.107688 -0.082916
JKV 0.088613 -0.025052 -0.019364 0.046568 0.020165 0.012196 0.071091 -0.005712 0.064653 -0.008843 -0.081325 0.066135 0.018156 0.022390 0.072624 -0.041877 -0.046695 -0.056831 -0.070305 0.019601 0.019577 0.022372 0.005023 -0.086768 -0.033715 0.008895 -0.031185 0.073584 0.020922 0.022235 0.015884 -0.031157 0.029616 -0.077971 -0.019943 -0.004843 -0.071114 -0.001585 -0.029179 0.019949 0.052012 -0.024914 0.006798 -0.051140 0.023328 0.023346 0.037049 0.008866 -0.003197 0.037837 0.123547 -0.103337 -0.063686 -0.016914 -0.046530 0.015448 -0.043676 0.002013 -0.009563 0.000575 -0.084040 0.008242 -0.017912 0.038800 0.028504 0.041671 0.028522 -0.044644 -0.004920 -0.027855 0.004464 0.019973 0.038909 -0.028539 0.061066 -0.084317 -0.040185 0.010897 0.048217 0.016836 -0.042787 0.014363 -0.043620 0.004879 0.051683 -0.081906 -0.085186 -0.018645 0.040711 -0.006792 0.046249 0.001615 0.066429 0.042043 0.063913 0.018350 0.054040 -0.000767 -0.012250 0.006042
