41 100
NNG -0.102216 -0.032203 -0.047140 -0.146673 -0.279815 -0.114161 -0.093900 0.548925 0.091650 0.414722 -0.295530 0.294973 -0.006979 -0.406552 -0.283338 -0.135229 -0.062592 0.139821 -0.036891 -0.129892 0.246192 -0.021213 -0.254748 0.078377 -0.085205 0.207695 0.073564 -0.049685 0.151657 -0.291114 -0.050956 0.056300 -0.042149 0.077950 0.014030 -0.293690 -0.183200 0.365554 -0.288460 -0.020115 0.174992 -0.157703 -0.053186 -0.293591 0.201720 0.213827 -0.358451 0.102445 0.236081 0.009192 -0.085176 0.089856 0.107022 0.049884 0.131073 -0.089725 -0.065344 -0.037651 -0.565746 -0.234427 0.322286 0.124616 -0.053120 0.305983 -0.016387 -0.073589 -0.038194 0.416244 0.063920 0.177594 0.264010 0.141385 -0.128579 -0.019584 0.022397 -0.207220 0.078324 -0.037806 -0.071416 0.039113 0.179918 0.161491 -0.025206 0.328912 -0.199029 0.119607 0.163773 0.346802 -0.026060 0.086003 0.210336 0.022681 -0.242173 0.101593 -0.122896 -0.013334 0.053658 -0.079623 0.091072 -0.036441
EC -0.207315 0.205479 0.300539 -0.367342 0.002277 -0.204098 0.137098 0.049061 -0.070405 -0.059019 -0.097958 -0.271221 -0.140909 -0.129767 -0.028520 -0.027298 0.043825 -0.243503 0.107548 0.043039 0.071992 -0.033652 -0.085983 0.433208 0.247048 -0.239965 0.219899 -0.108841 0.021251 0.229049 -0.096623 0.268642 -0.161749 -0.554474 0.070068 -0.310893 0.028497 -0.158893 -0.104869 -0.036553 -0.129664 -0.097774 -0.105449 0.100447 -0.276133 -0.228283 -0.041991 0.256071 0.395746 0.187887 -0.039008 -0.001419 -0.060788 -0.275140 0.178404 0.043194 0.063421 -0.197699 -0.057506 0.404985 0.164271 -0.234961 -0.024873 0.130322 0.079366 0.021522 -0.341107 0.010653 0.070442 0.188266 -0.094988 0.344488 0.072146 0.169656 0.150664 -0.057435 -0.172518 -0.148507 -0.134790 0.073466 0.200080 0.392022 -0.098897 0.093696 0.157361 0.279481 0.434474 -0.239976 -0.291169 0.156998 0.298577 0.047709 -0.413837 -0.222535 -0.091478 -0.061467 -0.336287 -0.302884 0.017167 -0.110788
VV -0.163813 -0.201492 -0.088756 -0.203860 -0.088640 0.015524 -0.236025 0.059321 0.098644 -0.070309 0.012290 -0.060036 -0.111753 0.074099 -0.282497 -0.225344 -0.220320 -0.162560 0.172176 -0.235169 0.036059 -0.236727 0.188163 0.028826 0.316491 -0.146734 0.235127 -0.125861 0.028426 -0.073108 -0.128984 0.140953 -0.082293 -0.188241 0.051013 -0.186562 0.101882 -0.135018 -0.273179 -0.014006 -0.012905 -0.120087 -0.106841 -0.017908 -0.263396 -0.024719 -0.136111 -0.046150 0.133194 -0.039329 0.081597 -0.195035 -0.109662 -0.122980 0.216176 -0.099347 0.045441 -0.214685 -0.260277 0.134784 0.313473 -0.184872 0.042607 0.315671 -0.092620 -0.153654 -0.275280 -0.070905 0.483867 0.297591 0.007999 0.165902 -0.005494 -0.110470 -0.251150 0.133328 -0.186258 -0.124864 -0.209737 0.052273 0.241279 0.152306 -0.000224 0.391401 0.117540 0.395551 0.040939 -0.205418 -0.077181 0.110528 0.465311 0.030170 -0.159122 -0.075331 -0.342393 0.097638 -0.057613 0.000152 -0.029457 -0.187671
NNP -0.119412 -0.094439 -0.063018 -0.017259 -0.235242 -0.043392 0.123999 0.484652 -0.043990 0.464939 -0.511433 0.376782 -0.008523 -0.356885 -0.097979 0.127145 0.128585 0.342801 -0.110445 -0.123169 0.176194 0.174527 -0.508584 -0.144220 -0.248104 0.393227 -0.073694 0.099254 0.141137 -0.478834 0.029443 -0.004992 0.013262 0.233091 -0.119741 -0.224140 -0.090327 0.611628 -0.310337 -0.142079 0.335126 -0.185379 0.058162 -0.368475 0.563639 0.373568 -0.386600 0.216887 0.033277 -0.123638 -0.080543 0.271378 0.230061 0.256642 0.099775 -0.101634 -0.042099 -0.017943 -0.740104 -0.527626 0.390455 0.272924 -0.135160 0.279829 0.033460 -0.111059 0.307773 0.620240 -0.220445 0.070471 0.435412 -0.125412 -0.330988 0.010474 -0.006849 -0.403879 0.272253 0.129253 0.025814 -0.080724 0.231390 -0.005498 -0.156333 0.310799 -0.501222 -0.022234 0.096989 0.596424 -0.002757 0.195674 0.194822 0.158320 -0.077868 0.279367 -0.150611 -0.104069 0.189578 -0.038540 0.316416 0.046887
SN 0.186100 -0.086976 -0.406023 0.464386 0.126467 -0.082264 -0.014378 0.776280 0.425420 0.539759 -0.157206 0.182653 -0.052577 -0.142836 0.571532 0.141547 0.160574 0.468260 0.000277 -0.184865 -0.285651 0.184404 -0.592782 -0.249212 -0.818455 0.430699 -0.015175 0.143630 0.104295 -0.744882 -0.047858 -0.339044 0.071250 0.727821 -0.006794 -0.324261 -0.370064 0.430601 -0.139323 -0.593187 0.136211 0.208534 0.141141 -0.538141 0.470425 0.431330 -0.114150 -0.386153 0.343864 -0.704466 0.238356 0.254187 0.641609 0.490534 -0.493934 0.007057 -0.571213 0.250754 -0.755002 -0.760609 0.252210 0.160770 0.127090 0.643593 0.374463 -0.023413 0.740003 0.453365 -0.133956 0.324593 0.745262 -0.476602 -0.474939 0.012347 -0.121252 -0.037945 0.701719 0.307624 0.061136 -0.131046 0.224519 -0.568437 -0.273042 0.474015 -0.410214 -0.503322 -0.283968 0.790205 -0.082694 0.223109 -0.346865 0.065461 0.286586 0.746730 0.106443 -0.607605 0.638764 0.224514 0.210469 0.086348
JKB -0.111761 -0.044215 -0.035783 -0.097181 -0.077689 -0.111146 -0.000544 0.376317 0.104565 0.326479 -0.161522 0.114606 -0.078340 -0.235666 -0.065833 -0.084269 -0.047233 0.050143 0.021929 -0.133982 0.096400 0.097658 -0.220699 0.129655 -0.056525 0.098948 0.070193 -0.020169 0.061985 -0.149158 -0.037477 0.052522 -0.057545 -0.035444 0.038610 -0.268313 -0.065604 0.183171 -0.235945 -0.041179 0.049145 -0.067265 -0.029934 -0.141363 0.051320 0.169265 -0.170023 0.072259 0.252900 -0.021053 0.020700 0.100064 0.105895 0.008212 0.037106 -0.017661 -0.091873 -0.041015 -0.455399 -0.059636 0.262694 -0.027629 0.013739 0.275869 0.059045 -0.052383 0.044503 0.264199 0.145384 0.177486 0.230231 0.120239 -0.085554 0.019321 0.002947 -0.067694 0.055480 0.017672 -0.102317 0.019863 0.216370 0.113983 0.002722 0.297261 -0.031448 0.130845 0.086353 0.141600 -0.095892 0.125783 0.174731 -0.034944 -0.197839 0.119303 -0.119957 -0.136517 0.016400 -0.163483 0.083633 -0.046670
ETM -0.197304 0.228131 0.210813 -0.334785 -0.102372 -0.250652 0.063984 0.349873 0.012972 0.164246 -0.197377 -0.069534 -0.078534 -0.359218 -0.153348 -0.118717 -0.065976 -0.101066 0.001976 0.020126 0.244280 -0.002384 -0.198469 0.419786 0.191451 -0.037165 0.109758 -0.104419 0.111779 0.136656 -0.037013 0.132379 -0.118340 -0.293607 0.087786 -0.323994 -0.070804 0.071257 -0.139306 0.028130 -0.081063 -0.137562 -0.122584 -0.083734 -0.134511 -0.066786 -0.188576 0.202183 0.369513 0.145581 -0.075706 0.011438 -0.019325 -0.175775 0.200131 0.042726 0.048306 -0.153236 -0.271586 0.221598 0.235436 -0.093351 -0.075932 0.187543 0.047231 0.077164 -0.299639 0.174582 0.045251 0.169679 0.046936 0.370822 -0.005840 0.138955 0.186670 -0.155956 -0.122457 -0.134720 -0.159717 0.106319 0.165451 0.406210 -0.062763 0.200412 0.061313 0.281059 0.462343 -0.060619 -0.204857 0.158185 0.261646 -0.026885 -0.450477 -0.116939 -0.037368 -0.041715 -0.246153 -0.301523 0.123990 -0.138448
NNB 0.051278 -0.039107 -0.233167 0.149328 0.043639 -0.119416 -0.090018 0.614146 0.354903 0.423560 -0.072833 0.095023 -0.078372 -0.188715 0.219631 -0.051589 0.014993 0.182354 0.030072 -0.152638 -0.112464 0.119188 -0.285031 0.028901 -0.373664 0.206941 0.080666 0.018897 0.067335 -0.338375 -0.086739 -0.129869 -0.023415 0.297301 0.062028 -0.304511 -0.285682 0.172702 -0.185270 -0.271662 0.020340 0.126525 0.018881 -0.263790 0.101046 0.235079 -0.109660 -0.227892 0.398294 -0.354509 0.122821 0.130699 0.356826 0.143687 -0.252159 0.041328 -0.346347 0.131502 -0.482343 -0.276591 0.162829 -0.031809 0.115843 0.451103 0.186363 -0.023514 0.292904 0.268799 0.100970 0.298009 0.457518 -0.099273 -0.203435 -0.003544 -0.039632 0.042046 0.305451 0.166379 -0.062596 -0.008659 0.182021 -0.206653 -0.043314 0.354837 -0.020942 -0.143232 -0.094447 0.350630 -0.116927 0.134371 -0.145752 -0.086741 0.000630 0.385798 0.026497 -0.380415 0.310454 -0.013454 0.067296 0.030401
JKO -0.126178 -0.054187 0.000773 -0.158267 0.003772 -0.129860 -0.049849 0.152943 0.058331 0.130420 -0.009438 -0.046677 -0.098696 -0.075859 -0.102751 -0.193467 -0.103064 -0.114085 0.111419 -0.122598 0.019179 -0.035529 -0.018949 0.221007 0.106739 -0.126601 0.180753 -0.048097 0.052569 -0.022720 -0.025699 0.117435 -0.113830 -0.231939 0.053453 -0.264880 -0.025663 -0.010066 -0.207053 -0.012704 -0.080737 -0.059076 -0.016502 0.010264 -0.170791 0.049757 -0.075285 0.077719 0.290131 0.040062 0.046218 0.017433 0.003040 -0.122427 0.049807 -0.055013 -0.076344 -0.119466 -0.298941 0.185583 0.231780 -0.161611 0.026365 0.259598 0.047389 -0.065233 -0.152035 0.041497 0.332145 0.229972 0.060856 0.205933 0.016232 0.025036 -0.045564 0.090032 -0.062388 -0.067148 -0.193613 0.067365 0.212529 0.212034 0.018091 0.301083 0.120283 0.255101 0.107511 -0.104568 -0.137732 0.074083 0.280566 -0.027527 -0.260078 -0.036908 -0.181302 -0.048495 -0.092822 -0.142684 0.008237 -0.146804
SS -0.091809 -0.147927 -0.031073 0.289549 -0.045180 0.035455 0.389308 0.377278 -0.318871 0.265050 -0.724111 0.232946 -0.009363 -0.107102 0.323760 0.513244 0.441766 0.491725 -0.183026 -0.099206 -0.086626 0.202866 -0.791573 -0.340076 -0.550967 0.374724 -0.061700 0.200576 0.179305 -0.782049 0.120356 0.039180 0.031490 0.287810 -0.240687 -0.321822 -0.047680 0.719812 -0.283259 -0.374659 0.444831 -0.199815 0.238789 -0.409681 0.844608 0.383263 -0.131693 0.332760 -0.171934 -0.311315 0.064219 0.384172 0.442366 0.601303 -0.161016 -0.126885 -0.139179 -0.060448 -0.734624 -0.865220 0.255586 0.364665 -0.057977 0.209667 0.326489 -0.116164 0.714989 0.661795 -0.646767 -0.056974 0.635025 -0.616185 -0.488338 0.159290 0.044764 -0.599384 0.516864 0.187625 0.250202 -0.198825 0.312566 -0.293784 -0.264110 0.154474 -0.760445 -0.295833 -0.056510 0.773824 -0.015724 0.375930 0.173841 0.398010 0.173610 0.494043 -0.089886 -0.213735 0.260705 0.162734 0.515944 0.162977
SF -0.144773 -0.083014 -0.120308 0.111985 0.220346 0.044056 -0.030218 0.071266 0.042580 -0.168710 0.072065 -0.258838 -0.110456 0.244250 0.258201 0.027080 0.046667 -0.128676 0.083253 -0.108986 -0.217031 -0.215263 -0.114465 -0.045728 -0.113208 -0.273910 0.284541 -0.071504 0.133678 -0.208743 -0.055650 0.231636 -0.025221 -0.074746 0.014823 -0.310065 0.004652 -0.275169 -0.131462 -0.264266 -0.089812 0.004114 0.055296 -0.006998 -0.336007 -0.190705 0.244475 -0.078246 0.083178 -0.268136 0.314914 -0.172448 0.087640 0.108089 -0.234142 0.018904 -0.123000 -0.189256 -0.119686 -0.076287 0.102893 -0.220985 0.270639 0.332978 0.324753 -0.090414 0.029180 -0.166740 0.185470 0.245762 0.234985 -0.191588 -0.113232 0.077949 -0.096807 0.032199 -0.017001 -0.097816 0.011028 0.005721 0.245659 -0.107198 -0.087392 0.308086 0.117081 0.087850 -0.095198 -0.116948 -0.182754 0.176731 0.233214 0.056175 -0.015076 0.225362 -0.130124 -0.210834 -0.077960 0.118708 0.035567 -0.111124
XSV -0.086169 -0.232061 -0.140837 -0.044780 -0.023092 -0.007444 -0.197188 0.146150 0.050420 -0.010893 -0.047508 -0.026752 -0.093193 0.073138 -0.147934 -0.171729 -0.150256 -0.043589 0.144749 -0.216052 -0.031428 -0.180017 0.071513 -0.059707 0.131488 -0.090564 0.213574 -0.050151 0.074519 -0.198223 -0.080060 0.056483 -0.077839 -0.031180 0.027715 -0.174419 -0.009722 -0.021199 -0.252867 -0.046896 0.028629 -0.085391 -0.020382 -0.082634 -0.113869 0.065022 -0.088098 -0.056583 0.085801 -0.108992 0.090219 -0.118648 0.033648 -0.015389 0.040745 -0.111480 -0.064040 -0.150106 -0.296579 -0.026923 0.271005 -0.125313 0.085166 0.322359 0.009530 -0.139727 -0.090528 -0.023949 0.365310 0.259203 0.130713 -0.010641 -0.061539 -0.066686 -0.194785 0.093532 -0.067100 -0.070050 -0.138526 0.020789 0.226218 0.010536 0.012022 0.356760 0.041506 0.274086 -0.046135 -0.089550 -0.028286 0.092933 0.348905 0.055386 -0.097442 0.005556 -0.252577 0.058194 0.020597 0.072789 0.036733 -0.186641
JX -0.097636 0.000402 0.008303 -0.092992 -0.117515 -0.162984 0.004048 0.429526 0.043004 0.303562 -0.234634 0.125800 -0.060136 -0.279374 -0.098349 -0.072914 -0.057317 0.100853 -0.009847 -0.097870 0.139070 0.083989 -0.267089 0.112508 -0.036094 0.153305 0.059843 -0.030739 0.097510 -0.197081 -0.009460 0.001137 -0.065625 0.022815 0.017953 -0.259582 -0.094879 0.296840 -0.219638 -0.045240 0.089512 -0.105992 -0.032132 -0.214685 0.149673 0.206392 -0.220105 0.086095 0.210784 -0.021222 -0.027757 0.108791 0.141925 0.046093 0.060115 -0.027675 -0.070070 -0.054028 -0.498977 -0.121253 0.276939 0.047346 -0.033588 0.260836 0.049617 -0.012746 0.048627 0.310345 0.058183 0.146965 0.253235 0.106709 -0.118358 0.020386 0.025844 -0.144734 0.075366 -0.006637 -0.106146 0.031560 0.191191 0.120774 -0.022694 0.284360 -0.118432 0.119416 0.157194 0.197473 -0.067597 0.135464 0.190511 0.007000 -0.209147 0.087260 -0.098761 -0.075516 0.032877 -0.146857 0.169833 -0.078944
EP -0.103005 0.006125 0.020071 -0.054654 0.215571 -0.039475 0.007981 -0.051820 0.085302 -0.193674 0.092405 -0.347664 -0.148452 0.151818 0.191061 -0.043101 0.079173 -0.253095 0.213036 -0.052690 -0.222941 -0.189601 0.077497 0.167276 0.052794 -0.336990 0.285557 -0.064698 0.020558 0.051235 -0.131763 0.228319 -0.102430 -0.370215 0.069162 -0.273208 -0.006931 -0.406247 -0.131775 -0.209260 -0.217147 0.063897 -0.006389 0.142372 -0.424774 -0.226456 0.166197 -0.002656 0.350448 -0.151074 0.186265 -0.118858 0.008581 -0.139335 -0.110938 -0.019068 -0.102412 -0.185664 0.028019 0.288810 0.110176 -0.344526 0.135330 0.288721 0.224378 -0.103235 -0.163397 -0.199231 0.304728 0.338100 0.009171 0.032107 -0.023741 0.116472 -0.055765 0.188122 -0.062285 -0.052727 -0.083034 0.014467 0.245148 0.060205 -0.152231 0.235801 0.234389 0.184301 0.049111 -0.280563 -0.295676 0.128881 0.192002 0.062410 -0.104019 -0.011027 -0.110807 -0.152949 -0.166023 -0.014064 -0.058352 -0.133995
JKS -0.193741 -0.024558 0.115738 -0.248759 -0.108828 -0.136337 0.037397 0.151667 -0.107811 0.112990 -0.221651 0.002776 -0.085140 -0.158684 -0.217154 -0.104451 -0.071854 -0.044533 0.055761 -0.110354 0.145209 -0.007799 -0.096333 0.198205 0.206454 -0.031709 0.125198 -0.049690 0.055207 -0.051474 0.008638 0.139563 -0.121092 -0.282323 0.015520 -0.254848 0.058984 0.154088 -0.247887 0.051310 0.029996 -0.197865 -0.042272 -0.033729 0.012611 0.097171 -0.173636 0.249390 0.177301 0.135258 -0.037347 0.054026 -0.029675 -0.073345 0.203497 -0.088608 0.053567 -0.193902 -0.369060 0.116951 0.285378 -0.047029 -0.085063 0.173507 -0.019954 -0.055306 -0.159438 0.179114 0.168644 0.134578 0.064270 0.205419 -0.016855 0.046071 -0.008226 -0.101403 -0.085246 -0.101417 -0.162199 0.041557 0.253071 0.302071 -0.016908 0.242700 -0.048199 0.320910 0.227372 -0.043898 -0.126775 0.151903 0.418792 0.077339 -0.291919 -0.107138 -0.221232 0.066866 -0.149043 -0.182048 0.135452 -0.116551
SP 0.032215 -0.112461 -0.196021 0.257047 -0.035299 -0.080677 0.166339 0.642327 0.033490 0.497398 -0.460076 0.288854 -0.010625 -0.244025 0.284624 0.219708 0.209043 0.441042 -0.103879 -0.151232 -0.036162 0.254403 -0.641151 -0.230306 -0.574257 0.437287 -0.063853 0.145427 0.138590 -0.664901 0.050443 -0.144339 0.022682 0.453201 -0.092004 -0.271666 -0.199342 0.619640 -0.235984 -0.334582 0.287172 -0.039780 0.144019 -0.460986 0.627569 0.471060 -0.198789 0.006613 0.112259 -0.358350 0.059293 0.309500 0.472608 0.449203 -0.246432 -0.054745 -0.300244 0.103383 -0.788012 -0.703333 0.303811 0.280340 0.004444 0.392939 0.265940 -0.057064 0.631508 0.589827 -0.280701 0.093464 0.650333 -0.385124 -0.408235 0.056228 -0.016124 -0.327712 0.512243 0.214875 0.112313 -0.134752 0.269430 -0.307677 -0.192215 0.335658 -0.515709 -0.263758 -0.122554 0.723449 -0.029280 0.246340 -0.052214 0.177696 0.112737 0.511647 -0.007037 -0.330435 0.386019 0.061873 0.340439 0.084763
JKG -0.167210 -0.023757 0.102932 -0.231486 -0.207539 -0.141527 0.036924 0.302664 -0.106923 0.212401 -0.358832 0.133582 -0.050982 -0.294980 -0.275323 -0.066682 -0.049823 0.058975 0.012626 -0.101504 0.226157 0.017923 -0.184655 0.120369 0.148258 0.110405 0.076926 -0.031637 0.089960 -0.137015 -0.000803 0.085797 -0.108377 -0.147152 -0.004363 -0.242890 -0.003818 0.312885 -0.284556 0.052938 0.139924 -0.228425 -0.057615 -0.164015 0.178661 0.174845 -0.291490 0.266712 0.147296 0.114493 -0.118157 0.096299 0.029038 -0.015934 0.239539 -0.095340 0.066673 -0.166589 -0.476042 -0.041924 0.339149 0.064780 -0.133572 0.183889 -0.046765 -0.055098 -0.094727 0.331242 0.051191 0.115685 0.135225 0.167087 -0.087742 0.030767 0.030716 -0.228257 -0.029449 -0.071897 -0.114412 0.030250 0.227889 0.271002 -0.042834 0.244159 -0.175908 0.274025 0.256666 0.122797 -0.076005 0.152355 0.377247 0.112721 -0.273471 -0.077592 -0.192959 0.091462 -0.088948 -0.167460 0.200178 -0.108253
EF 0.030034 0.153969 0.196368 -0.019539 0.352426 -0.145691 0.147490 -0.173932 0.000084 -0.372712 0.068731 -0.593830 -0.189773 0.289458 0.486407 0.109200 0.230130 -0.242798 0.267179 0.053347 -0.415173 -0.143738 0.030355 0.278343 -0.012044 -0.378906 0.322270 -0.019938 -0.091990 0.075702 -0.150014 0.122666 -0.166287 -0.477395 0.058652 -0.293732 -0.056780 -0.406048 0.035222 -0.387730 -0.273457 0.158984 0.037139 0.166851 -0.313478 -0.284940 0.239046 0.019249 0.477091 -0.182283 0.151467 -0.019904 0.173718 -0.157949 -0.219251 0.011396 -0.232637 -0.106137 0.170298 0.389878 -0.013901 -0.381110 0.110385 0.256243 0.296413 -0.014366 -0.080729 -0.290715 0.069852 0.340466 -0.033183 -0.076482 0.004889 0.224872 0.011595 0.224933 0.105470 -0.031343 -0.098157 -0.054706 0.241917 -0.008680 -0.280659 0.041549 0.172292 -0.006419 0.167738 -0.301834 -0.406860 0.184120 0.030575 0.206471 -0.046794 -0.071780 -0.001549 -0.230593 -0.102846 0.009214 -0.041881 -0.068491
SL -0.119284 -0.097037 0.229810 0.312411 -0.039330 0.012461 0.590891 0.244976 -0.620194 -0.026976 -0.929050 0.091151 -0.007158 -0.028688 0.367982 0.709138 0.547438 0.405620 -0.248409 -0.002779 -0.121328 0.124546 -0.792493 -0.311932 -0.541920 0.293986 0.051028 0.106418 0.092623 -0.779668 0.118211 0.227358 -0.118826 0.036456 -0.220763 -0.423818 0.100326 0.721030 -0.287517 -0.371750 0.522049 -0.363720 0.215279 -0.358203 0.919250 0.311626 0.034405 0.606690 -0.267971 -0.145837 0.012225 0.353274 0.478062 0.675567 -0.214405 -0.178322 -0.052044 -0.236859 -0.591226 -0.839968 0.101657 0.458008 -0.035780 0.000235 0.425336 -0.104621 0.688578 0.621712 -0.896934 -0.218484 0.613085 -0.742240 -0.388716 0.276253 0.164342 -0.806737 0.477345 0.059483 0.375467 -0.190484 0.411673 -0.186304 -0.273259 -0.069291 -0.864691 -0.290975 -0.005839 0.708862 -0.123418 0.509651 0.305236 0.593594 0.239275 0.358501 -0.099162 -0.071353 0.112883 0.112941 0.585006 0.148756
XSN -0.148712 -0.021972 0.071920 -0.233053 -0.179987 -0.135935 -0.062076 0.290317 -0.041614 0.151034 -0.265747 0.061266 -0.067620 -0.236643 -0.291923 -0.145415 -0.093161 -0.007502 0.064355 -0.125082 0.177941 -0.070431 -0.047235 0.157156 0.172229 0.029750 0.145691 -0.072995 0.072527 -0.108131 -0.039900 0.101178 -0.138003 -0.197725 0.029245 -0.287904 -0.042387 0.174565 -0.289579 0.049984 0.071798 -0.206365 -0.078452 -0.097859 0.037422 0.119074 -0.254827 0.203467 0.221879 0.088813 -0.078495 0.034728 0.011881 -0.063875 0.203655 -0.096306 0.040175 -0.173096 -0.377001 0.044518 0.266718 -0.015395 -0.093524 0.202473 -0.064109 -0.062636 -0.183760 0.236768 0.164938 0.184973 0.106295 0.202550 -0.024294 0.009985 -0.001840 -0.122175 -0.045556 -0.102292 -0.143407 0.050059 0.229804 0.252000 0.003712 0.230629 -0.054967 0.306207 0.212019 0.043319 -0.107111 0.128307 0.366599 0.083553 -0.266791 -0.096934 -0.197236 0.095801 -0.098103 -0.139411 0.123431 -0.088430
VCP -0.162816 -0.115159 0.027642 -0.167705 -0.056578 -0.046115 -0.059474 0.070233 -0.109453 -0.079821 -0.208249 -0.081902 -0.078398 0.009573 -0.224873 -0.107245 -0.063944 -0.079607 0.107766 -0.173689 0.034279 -0.181616 0.091688 0.111515 0.234198 -0.129555 0.212828 -0.063752 0.041269 -0.090778 -0.018059 0.171093 -0.158773 -0.301850 0.019241 -0.283602 0.064922 0.011830 -0.281108 0.031033 0.016885 -0.200561 -0.033619 0.030242 -0.058855 0.040146 -0.086143 0.190164 0.144697 0.039676 0.012078 -0.045079 -0.020040 -0.051550 0.151916 -0.132978 0.036730 -0.249191 -0.221827 0.089937 0.182532 -0.098967 -0.038127 0.164646 -0.024276 -0.104745 -0.199028 0.054513 0.226965 0.184053 0.053978 0.074700 -0.008050 0.021932 -0.077132 -0.032775 -0.089960 -0.115687 -0.127102 0.039635 0.282352 0.193452 -0.007170 0.201801 0.016214 0.352313 0.095927 -0.130459 -0.136257 0.166843 0.457565 0.158975 -0.179383 -0.109415 -0.257703 0.135909 -0.104084 -0.039916 0.099499 -0.090949
MAG -0.175437 0.006712 0.083542 -0.254554 -0.067451 -0.110247 -0.042432 0.129745 0.017938 0.012703 -0.090130 -0.109180 -0.107250 -0.094813 -0.173462 -0.129727 -0.093555 -0.148213 0.119412 -0.105096 0.084776 -0.105325 0.013610 0.218918 0.227258 -0.122080 0.194971 -0.102691 0.037543 0.022972 -0.086018 0.159164 -0.117287 -0.319635 0.058125 -0.271701 0.043700 -0.062424 -0.214828 -0.017946 -0.043882 -0.121692 -0.102503 0.004812 -0.191918 -0.051401 -0.125063 0.128480 0.272890 0.063238 0.014987 -0.055186 -0.055095 -0.153729 0.175899 -0.047783 0.037757 -0.196849 -0.234331 0.212514 0.243639 -0.154488 -0.026088 0.225385 -0.004690 -0.061313 -0.255097 0.052542 0.257387 0.236149 0.007775 0.248241 0.018026 0.029024 -0.034362 0.003432 -0.118639 -0.126927 -0.167115 0.057866 0.230861 0.265547 -0.048996 0.248790 0.077477 0.312441 0.218167 -0.144315 -0.176665 0.132622 0.359766 0.057048 -0.267623 -0.114386 -0.199707 0.017326 -0.162005 -0.157647 0.040728 -0.129718
VX -0.204502 -0.062155 0.082896 -0.258681 0.064326 -0.008741 -0.100738 -0.192356 -0.032930 -0.331373 0.062552 -0.341045 -0.141022 0.199900 -0.150267 -0.169374 -0.107359 -0.349996 0.238382 -0.131185 -0.055921 -0.313822 0.288497 0.191671 0.403496 -0.390216 0.331098 -0.149759 -0.002888 0.133292 -0.116400 0.298848 -0.154882 -0.538512 0.061539 -0.255184 0.167095 -0.413646 -0.209433 -0.024825 -0.181576 -0.116823 -0.090589 0.208693 -0.498050 -0.245186 0.073122 0.103547 0.215338 0.038284 0.135417 -0.241437 -0.189753 -0.231856 0.160664 -0.073895 0.092139 -0.329422 0.029600 0.428604 0.184156 -0.344917 0.064924 0.200650 0.017309 -0.134223 -0.424577 -0.255250 0.478639 0.306167 -0.149883 0.204346 0.106710 0.033377 -0.164412 0.166314 -0.258936 -0.217758 -0.186810 0.043469 0.285883 0.253998 -0.059719 0.231308 0.259616 0.458908 0.124538 -0.460971 -0.243841 0.141717 0.504914 0.113592 -0.191590 -0.210528 -0.293721 0.111394 -0.292165 -0.045769 -0.066151 -0.189266
VA -0.256154 -0.118963 0.091344 -0.340307 -0.114770 -0.031088 -0.099983 -0.057061 -0.110966 -0.164509 -0.142342 -0.132585 -0.113181 0.028509 -0.369293 -0.170400 -0.143876 -0.211377 0.155017 -0.180529 0.116040 -0.229697 0.196435 0.175343 0.456869 -0.219607 0.246303 -0.119457 0.020162 0.049563 -0.061315 0.260922 -0.170998 -0.475053 0.023444 -0.264608 0.177387 -0.110343 -0.299153 0.090680 -0.022243 -0.256370 -0.110368 0.100428 -0.227288 -0.073145 -0.126979 0.224687 0.146056 0.141747 0.004146 -0.129634 -0.184413 -0.193802 0.328400 -0.125696 0.166436 -0.339147 -0.185963 0.268871 0.271604 -0.184726 -0.058716 0.162959 -0.109023 -0.125648 -0.400886 -0.021990 0.372022 0.223271 -0.090600 0.253553 0.062287 -0.011040 -0.131265 -0.002767 -0.249959 -0.190824 -0.202235 0.067505 0.290691 0.346483 -0.008297 0.241427 0.100794 0.518032 0.203968 -0.301235 -0.159553 0.156907 0.625222 0.141749 -0.290332 -0.248473 -0.365381 0.214691 -0.238016 -0.113961 0.044699 -0.163619
SW 0.156185 -0.121960 -0.311423 0.623969 0.321210 0.005266 0.209661 0.551831 0.150356 0.232616 -0.255366 -0.069018 -0.105238 0.162275 0.887168 0.451142 0.437069 0.411487 -0.019231 -0.154989 -0.527346 0.151933 -0.672382 -0.340589 -0.938061 0.223348 0.093352 0.156056 0.099341 -0.839038 -0.042272 -0.132082 0.048806 0.482734 -0.110549 -0.424579 -0.297779 0.254461 -0.141302 -0.706740 0.157185 0.212349 0.239742 -0.381849 0.429273 0.261598 0.215855 -0.243135 0.223676 -0.744799 0.381427 0.257485 0.717472 0.625003 -0.724860 0.026275 -0.588689 0.158489 -0.523054 -0.802798 0.031350 0.065467 0.280003 0.545663 0.639716 -0.076301 0.929240 0.311926 -0.355464 0.231070 0.817027 -0.795946 -0.462385 0.148130 -0.069942 -0.142554 0.748220 0.290453 0.276525 -0.228843 0.339930 -0.740664 -0.296845 0.267237 -0.367455 -0.581208 -0.416476 0.667803 -0.193159 0.348436 -0.318313 0.264347 0.420610 0.801842 0.132644 -0.657501 0.524785 0.317123 0.256849 0.212979
MM -0.135454 -0.022150 0.012308 -0.185036 -0.119041 -0.129474 -0.061822 0.305708 0.063049 0.171449 -0.172825 0.034118 -0.073043 -0.192603 -0.182957 -0.139852 -0.093893 -0.018952 0.066080 -0.128612 0.115138 -0.049067 -0.089801 0.164421 0.109910 0.017121 0.129845 -0.063362 0.076924 -0.088788 -0.054206 0.073590 -0.097029 -0.142944 0.040726 -0.273640 -0.045148 0.123855 -0.232223 -0.016182 0.022084 -0.125561 -0.065503 -0.113493 -0.017170 0.088776 -0.200273 0.092555 0.259210 0.016719 -0.024074 0.014313 0.033168 -0.064307 0.142130 -0.054972 -0.038594 -0.124648 -0.369527 0.028864 0.268180 -0.044905 -0.032652 0.264734 -0.006367 -0.052961 -0.138551 0.183940 0.188112 0.207014 0.130733 0.180006 -0.056284 0.020852 -0.021827 -0.054365 -0.031009 -0.062125 -0.144469 0.056461 0.212136 0.195904 -0.032245 0.295151 -0.021226 0.241212 0.184580 0.029039 -0.115659 0.127844 0.292622 0.040013 -0.249116 -0.010848 -0.171026 -0.009980 -0.039314 -0.123181 0.093590 -0.113713
JC -0.143816 -0.063526 0.025030 -0.179727 -0.256399 -0.125399 0.043410 0.431760 -0.085900 0.366056 -0.443272 0.273946 -0.013182 -0.374539 -0.275497 -0.052233 -0.024849 0.172669 -0.041122 -0.133016 0.262550 0.076100 -0.297305 0.053290 0.013611 0.239810 0.009015 0.012869 0.116925 -0.258555 0.021576 0.038215 -0.075843 -0.009224 -0.036660 -0.242525 -0.056731 0.475522 -0.305834 0.035455 0.214931 -0.236418 -0.019024 -0.253786 0.345213 0.296645 -0.363889 0.250335 0.128474 0.082078 -0.142595 0.166014 0.099786 0.064085 0.204581 -0.113108 0.009223 -0.097762 -0.607796 -0.226677 0.367420 0.172370 -0.146422 0.209100 -0.048682 -0.076731 0.022883 0.465970 -0.018692 0.078560 0.251038 0.104749 -0.155548 0.012893 0.026864 -0.292703 0.070883 -0.006480 -0.073996 0.000266 0.239569 0.198668 -0.055334 0.274179 -0.295902 0.197464 0.198330 0.308395 -0.030855 0.153560 0.326965 0.114103 -0.244515 0.029499 -0.176350 0.055273 0.022502 -0.140635 0.228213 -0.058114
XR -0.308314 0.082927 0.118943 -0.579030 -0.247908 -0.151465 -0.113197 0.236915 -0.286854 -0.147812 -0.464812 -0.117766 0.031632 -0.208699 -0.692412 -0.240082 -0.223082 -0.130554 -0.017217 -0.197901 0.485365 -0.347898 0.147633 0.438068 0.713353 -0.190374 0.168512 -0.104919 0.176043 0.214462 0.055487 0.268191 -0.231017 -0.573975 0.054280 -0.309192 0.097948 0.100757 -0.273880 0.349137 -0.043297 -0.443532 -0.172238 0.002203 -0.144036 -0.108122 -0.258255 0.299530 0.218677 0.322140 -0.235478 -0.189586 -0.231817 -0.299461 0.580489 -0.056283 0.202305 -0.379835 -0.179494 0.238453 0.233240 -0.091742 -0.193786 0.076042 -0.181389 0.041565 -0.670561 0.034589 0.157880 0.090366 -0.052568 0.387380 0.037358 0.084552 0.103404 -0.239971 -0.338510 -0.322153 -0.231534 0.132006 0.340392 0.565670 -0.027746 0.186144 0.138064 0.777593 0.562342 -0.344467 -0.187793 0.256009 0.785388 0.241444 -0.648836 -0.407486 -0.273032 0.391311 -0.285065 -0.201623 0.229601 -0.134870
XSA -0.291735 -0.033332 0.280376 -0.523885 -0.196620 -0.200297 -0.185077 0.076137 -0.279029 -0.085473 -0.397637 -0.141857 -0.128154 -0.250405 -0.695848 -0.377673 -0.282694 -0.184113 0.282977 -0.176541 0.300159 -0.221704 0.426477 0.279980 0.699752 -0.087773 0.350628 -0.183949 -0.081384 0.100211 0.010293 0.184142 -0.391635 -0.587306 0.150383 -0.401267 0.129267 -0.014084 -0.504204 0.380951 0.011192 -0.517081 -0.158212 0.178754 -0.169681 0.145205 -0.341669 0.596280 0.172474 0.295229 -0.159947 -0.045903 -0.188803 -0.290319 0.467261 -0.216952 0.366760 -0.513614 -0.255047 0.497162 0.270338 -0.206197 -0.275052 0.011362 -0.399908 -0.112123 -0.570572 0.177322 0.492510 0.264113 -0.095201 0.428684 0.215861 -0.033949 -0.037130 -0.133244 -0.287495 -0.291800 -0.369198 0.052700 0.364689 0.597556 0.183050 0.088983 0.115789 0.848801 0.290535 -0.351199 -0.251198 0.134887 0.814594 0.157880 -0.382590 -0.554810 -0.413697 0.545590 -0.480213 -0.298536 0.216507 -0.117868
XPN -0.041043 -0.068097 -0.088882 0.023190 -0.112039 -0.117088 0.023949 0.487779 0.055463 0.368618 -0.325894 0.199634 -0.039357 -0.262761 -0.012225 0.008806 0.039791 0.227850 -0.020176 -0.133706 0.067368 0.090078 -0.346077 -0.015397 -0.217057 0.246221 0.024310 0.046300 0.113590 -0.364147 -0.001974 -0.060234 -0.030587 0.172796 -0.017531 -0.255028 -0.160871 0.401921 -0.235701 -0.136764 0.166837 -0.081493 0.036737 -0.295206 0.333284 0.299884 -0.243167 0.055107 0.179381 -0.142186 -0.018789 0.173964 0.245536 0.166458 -0.029734 -0.076964 -0.163932 0.000174 -0.576101 -0.326739 0.283983 0.120020 -0.040214 0.320935 0.093262 -0.048767 0.217473 0.395393 -0.047418 0.152123 0.369162 -0.077014 -0.229965 0.029311 -0.005763 -0.187801 0.221194 0.082516 -0.032030 -0.031186 0.210523 -0.029905 -0.085635 0.301258 -0.273264 0.002160 0.056077 0.378177 -0.046205 0.151290 0.108683 0.083600 -0.098347 0.213264 -0.078397 -0.122485 0.166866 -0.023947 0.210066 -0.020841
NR 0.211591 -0.042118 -0.476093 0.478974 0.336620 -0.123097 -0.145987 0.753423 0.702891 0.401411 0.200688 -0.122337 -0.135383 0.032851 0.736383 -0.029799 0.084630 0.174155 0.156044 -0.177656 -0.499665 0.078971 -0.334898 -0.062783 -0.759817 0.127878 0.191389 0.030071 0.038774 -0.497190 -0.192173 -0.254331 0.007694 0.547380 0.129824 -0.409631 -0.442486 -0.071502 -0.086324 -0.669693 -0.155193 0.428808 0.072339 -0.347382 -0.071732 0.205776 0.109457 -0.621018 0.648533 -0.806024 0.365707 0.073076 0.628958 0.256157 -0.669372 0.122568 -0.699681 0.285648 -0.473828 -0.380808 0.107104 -0.177833 0.340709 0.752700 0.471984 -0.026528 0.553038 0.099983 0.209979 0.542370 0.660289 -0.370078 -0.347398 0.018975 -0.153074 0.308373 0.564564 0.296331 -0.042884 -0.040590 0.208557 -0.610035 -0.193078 0.532289 0.072592 -0.448212 -0.332757 0.416788 -0.248514 0.174876 -0.472035 -0.140358 0.256102 0.730796 0.142252 -0.784532 0.581814 0.166738 -0.018341 0.009181
NP -0.205759 0.010424 0.104408 -0.291493 -0.127427 -0.121463 -0.007768 0.165213 -0.044227 0.045085 -0.210362 -0.043811 -0.088061 -0.158895 -0.256729 -0.117855 -0.086808 -0.093524 0.075634 -0.102000 0.159331 -0.090711 -0.031424 0.205769 0.268882 -0.061468 0.144835 -0.085600 0.054304 0.011913 -0.048919 0.160293 -0.122772 -0.319616 0.025580 -0.271881 0.055898 0.063091 -0.243234 0.033721 0.010106 -0.187236 -0.098632 -0.033357 -0.079226 0.006397 -0.191113 0.204910 0.224987 0.102661 -0.047045 -0.020536 -0.060929 -0.125753 0.247382 -0.069513 0.076958 -0.208256 -0.292206 0.145534 0.270543 -0.080812 -0.087721 0.194399 -0.044706 -0.053380 -0.256357 0.135843 0.176007 0.180462 0.035577 0.238769 -0.010036 0.048070 -0.013912 -0.092792 -0.123162 -0.125451 -0.162746 0.054812 0.235127 0.297411 -0.054169 0.236393 -0.003523 0.351535 0.277955 -0.095336 -0.165007 0.163257 0.421767 0.098125 -0.305499 -0.125627 -0.222735 0.071802 -0.155948 -0.172831 0.114470 -0.123160
MAJ -0.129009 -0.049988 0.037458 -0.148725 -0.174407 -0.123493 0.017793 0.330723 -0.050179 0.252552 -0.299114 0.152872 -0.041359 -0.269948 -0.199084 -0.067817 -0.037993 0.086680 -0.004255 -0.112152 0.179461 0.027888 -0.203602 0.092152 0.033322 0.119520 0.066211 -0.016928 0.094154 -0.192038 -0.003588 0.063625 -0.085375 -0.064192 0.001199 -0.242127 -0.050166 0.310299 -0.257467 0.016036 0.131180 -0.178192 -0.030063 -0.179545 0.189444 0.189142 -0.243988 0.185535 0.153446 0.062843 -0.076903 0.098201 0.067917 0.032619 0.141308 -0.089986 -0.015291 -0.108630 -0.464534 -0.108924 0.295832 0.081536 -0.073905 0.207666 -0.002885 -0.060597 -0.027101 0.314674 0.053778 0.108345 0.186709 0.112183 -0.095610 0.030423 0.019104 -0.184978 0.025940 -0.044139 -0.081158 0.023528 0.214517 0.179943 -0.026432 0.254788 -0.170898 0.186278 0.165370 0.171069 -0.051715 0.125103 0.287166 0.083645 -0.222354 0.010194 -0.154880 0.032585 -0.018986 -0.123198 0.156263 -0.085142
ETN -0.163362 0.084774 0.150741 -0.272268 0.005279 -0.145136 -0.002858 0.078904 -0.022577 -0.057849 -0.073715 -0.203289 -0.112935 -0.086408 -0.111041 -0.139242 -0.040284 -0.206924 0.133177 -0.039453 0.055144 -0.135308 0.023890 0.314406 0.241528 -0.222942 0.232161 -0.097579 0.045188 0.111722 -0.071081 0.209925 -0.143215 -0.423292 0.074050 -0.295362 -0.003283 -0.144317 -0.167293 -0.018879 -0.127602 -0.098862 -0.072666 0.061419 -0.278171 -0.141914 -0.059862 0.171038 0.335001 0.095126 0.009731 -0.063142 -0.061929 -0.212768 0.135607 -0.028610 0.020829 -0.204990 -0.113781 0.325161 0.188946 -0.221868 -0.009594 0.202865 0.049879 -0.037785 -0.325626 -0.030246 0.228350 0.241139 -0.050535 0.260343 0.047802 0.105804 0.040507 0.031155 -0.150954 -0.149930 -0.170393 0.069931 0.222214 0.310281 -0.064362 0.194232 0.152076 0.327707 0.287742 -0.229388 -0.236503 0.123778 0.338924 0.053722 -0.328427 -0.168846 -0.143765 0.014408 -0.249216 -0.163748 0.019633 -0.151817
SO 0.040334 -0.049717 -0.185749 0.233102 0.139552 -0.081453 0.062199 0.451564 0.195760 0.240344 -0.157706 -0.029450 -0.087068 -0.034671 0.397091 0.128090 0.160162 0.194636 0.043163 -0.126874 -0.229114 0.076881 -0.379402 -0.071137 -0.452235 0.131455 0.108244 0.060993 0.089534 -0.435652 -0.052791 -0.065222 -0.022308 0.237055 0.001659 -0.327872 -0.201107 0.163892 -0.155482 -0.401605 0.043881 0.100537 0.091714 -0.257551 0.184616 0.184363 0.009358 -0.143082 0.304444 -0.412890 0.185022 0.131902 0.398891 0.258861 -0.328778 0.006110 -0.353755 0.048822 -0.458809 -0.366812 0.170335 -0.009255 0.129552 0.442060 0.324837 -0.045314 0.408015 0.238928 -0.043088 0.271732 0.481317 -0.293849 -0.291549 0.087317 -0.049968 -0.037358 0.380639 0.150931 0.025466 -0.067416 0.245239 -0.288439 -0.192805 0.328704 -0.171600 -0.205571 -0.111454 0.364539 -0.165909 0.214105 -0.086998 0.087156 0.093603 0.419045 0.015020 -0.398208 0.283472 0.086350 0.153845 0.021369
VCN -0.168083 -0.027043 0.067016 -0.178743 0.035043 -0.100267 -0.005532 0.080497 -0.034733 -0.113812 -0.133927 -0.220698 -0.126985 0.018051 -0.064089 -0.077922 -0.003935 -0.157164 0.163965 -0.126076 -0.045302 -0.170970 0.032167 0.186728 0.182919 -0.212241 0.270594 -0.076624 0.043357 -0.036119 -0.072492 0.202667 -0.161376 -0.375164 0.046438 -0.337493 0.030953 -0.124731 -0.233341 -0.085322 -0.080587 -0.113825 -0.043922 0.038804 -0.200195 -0.070255 -0.029667 0.153524 0.284792 -0.026967 0.067038 -0.064723 0.005293 -0.109341 0.077237 -0.079704 -0.025072 -0.237710 -0.186641 0.199711 0.212186 -0.214983 0.019482 0.265952 0.079320 -0.089396 -0.212587 -0.018027 0.253965 0.284181 0.055360 0.097417 -0.030167 0.086059 -0.051186 0.025438 -0.068854 -0.109152 -0.140684 0.030493 0.313274 0.186236 -0.100063 0.249661 0.082048 0.321977 0.161851 -0.184846 -0.249899 0.192797 0.396518 0.138486 -0.215872 -0.088214 -0.218255 0.007197 -0.150329 -0.068861 0.071025 -0.140344
SH -0.096542 -0.060139 -0.007284 -0.008912 -0.029210 -0.063545 0.084197 0.241472 -0.046149 0.123088 -0.277163 0.033957 -0.058894 -0.099309 0.033121 0.067622 0.090499 0.095058 0.022494 -0.099778 -0.004376 0.001905 -0.241904 -0.002803 -0.103175 0.059504 0.087754 0.024348 0.081636 -0.255459 -0.009935 0.081800 -0.060967 -0.037465 -0.037345 -0.262126 -0.035442 0.204658 -0.209728 -0.147359 0.101375 -0.099623 0.038628 -0.148685 0.172741 0.131958 -0.112798 0.138878 0.136209 -0.106539 0.028258 0.101956 0.155355 0.114095 -0.000960 -0.074597 -0.075323 -0.099622 -0.385643 -0.181741 0.223893 0.025606 -0.009711 0.233744 0.120317 -0.077568 0.117193 0.244794 -0.040075 0.141884 0.249013 -0.096988 -0.169064 0.073473 -0.016503 -0.166890 0.124589 0.020456 -0.016465 -0.027186 0.230859 0.011153 -0.119672 0.219449 -0.188175 0.060127 0.070321 0.194484 -0.113291 0.181991 0.215734 0.144488 -0.084213 0.128645 -0.127648 -0.089596 0.045493 -0.017599 0.180336 -0.026946
NA -0.100481 -0.019017 0.025048 -0.055374 0.033440 -0.079099 0.043683 0.174106 0.000677 0.016906 -0.165769 -0.114112 -0.099656 -0.030715 0.062694 0.008543 0.062886 -0.028445 0.092797 -0.089558 -0.063918 -0.064545 -0.128438 0.085875 -0.009756 -0.060911 0.175397 -0.020893 0.051960 -0.147812 -0.056646 0.115660 -0.093753 -0.170311 0.010289 -0.293620 -0.029571 0.016980 -0.197662 -0.158169 0.001325 -0.065587 -0.000529 -0.061506 -0.020266 0.015566 -0.040958 0.096956 0.236562 -0.106683 0.065014 0.029541 0.112731 0.014666 -0.017149 -0.053764 -0.094812 -0.140506 -0.272949 -0.007829 0.192362 -0.101614 0.030388 0.273612 0.133063 -0.068885 -0.002633 0.105916 0.083192 0.218227 0.172699 -0.014666 -0.110182 0.082607 -0.025022 -0.045807 0.061947 -0.018042 -0.070420 -0.011691 0.252008 0.054009 -0.122455 0.235029 -0.042296 0.127562 0.098985 0.018572 -0.190496 0.186089 0.230111 0.124192 -0.124375 0.060206 -0.135246 -0.095887 -0.024295 -0.035114 0.111715 -0.070561
JKQ -0.122076 -0.019838 0.046515 -0.080225 0.104466 -0.070096 0.035177 0.048318 -0.020315 -0.131397 -0.091227 -0.243803 -0.125737 0.082694 0.098024 -0.000385 0.060965 -0.134673 0.151967 -0.088795 -0.136076 -0.153258 -0.034468 0.129196 0.066985 -0.210053 0.249709 -0.048584 0.043564 -0.080911 -0.077616 0.187395 -0.119798 -0.305434 0.019427 -0.315317 0.007212 -0.144607 -0.177663 -0.180490 -0.080074 -0.046882 0.003312 0.032514 -0.186317 -0.098799 0.046651 0.093438 0.260727 -0.107356 0.117352 -0.038730 0.062128 -0.052474 -0.026267 -0.058257 -0.084182 -0.195433 -0.148890 0.126557 0.172097 -0.207792 0.063866 0.273838 0.169037 -0.090570 -0.105339 -0.037527 0.172170 0.273180 0.094680 -0.007840 -0.068395 0.104232 -0.046564 0.028784 -0.001121 -0.075195 -0.089647 0.001017 0.282400 0.082693 -0.144561 0.230926 0.057026 0.190865 0.117081 -0.130937 -0.246508 0.185034 0.286922 0.149131 -0.142020 -0.006119 -0.167360 -0.086936 -0.104644 -0.019855 0.067951 -0.112382
JKC -0.148870 -0.015497 0.062961 -0.156760 0.027026 -0.100951 0.004551 0.113802 -0.024545 -0.070652 -0.149620 -0.190076 -0.122065 -0.004622 -0.040883 -0.059407 0.001857 -0.123948 0.141571 -0.114139 -0.036097 -0.146094 -0.022003 0.162726 0.141222 -0.167574 0.240206 -0.061525 0.038918 -0.059157 -0.080889 0.179212 -0.140157 -0.313190 0.036088 -0.325266 0.011761 -0.083417 -0.223662 -0.109650 -0.055702 -0.106809 -0.039527 0.002761 -0.154831 -0.047783 -0.042750 0.141821 0.269090 -0.036812 0.052211 -0.043761 0.041293 -0.081797 0.065983 -0.074965 -0.036905 -0.208995 -0.225950 0.142476 0.223128 -0.173281 0.013269 0.273287 0.088991 -0.084648 -0.157467 0.021878 0.207086 0.259393 0.086326 0.079129 -0.042311 0.085612 -0.040836 -0.004052 -0.038484 -0.086227 -0.122553 0.027775 0.289375 0.163385 -0.109781 0.250157 0.051400 0.275541 0.168853 -0.122231 -0.227287 0.191662 0.351994 0.126304 -0.203336 -0.051554 -0.199940 -0.026688 -0.132401 -0.079775 0.081148 -0.119822
JKV -0.054182 -0.011568 0.015594 -0.033901 0.012856 -0.043040 0.009826 0.077392 -0.008274 0.004831 -0.080624 -0.052065 -0.042120 -0.010533 0.010275 -0.006475 0.015447 -0.015368 0.047339 -0.042381 -0.018302 -0.032081 -0.046918 0.047720 0.004772 -0.031398 0.084864 -0.012501 0.026829 -0.068140 -0.028065 0.061856 -0.044355 -0.089575 0.007216 -0.137316 -0.009566 0.007137 -0.094265 -0.067141 0.001110 -0.033079 0.000707 -0.019906 -0.013882 0.009335 -0.018920 0.050955 0.103585 -0.039664 0.026188 0.009548 0.042573 0.003763 0.003331 -0.025392 -0.031981 -0.066284 -0.123702 0.009803 0.091555 -0.052565 0.010125 0.116126 0.058669 -0.039833 -0.011390 0.045787 0.047357 0.103020 0.069898 -0.000336 -0.041451 0.038120 -0.011568 -0.022648 0.012948 -0.020467 -0.036058 0.003161 0.114981 0.041242 -0.052616 0.104707 -0.011642 0.073041 0.049253 0.003399 -0.087102 0.085153 0.117347 0.060427 -0.057340 0.019589 -0.065336 -0.035369 -0.020346 -0.018456 0.052208 -0.038369
