460 100
. -0.233730 0.232350 0.266887 1.027598 -0.443535 0.120511 0.226946 0.031836 -0.128164 0.467217 0.626793 0.145682 0.417316 0.376301 -0.044520 0.317093 -0.016933 -0.469244 -0.240035 -0.083780 0.015041 0.173565 -0.311038 0.114598 -0.264984 0.019496 0.167037 -0.277732 0.426490 0.070472 0.291079 0.344218 -0.184926 0.272858 -0.541683 -0.534360 0.011934 0.191978 -0.121035 -0.112640 0.380668 -0.179926 0.284291 0.088809 0.253839 -0.510501 0.053726 -0.082889 -0.155810 0.733341 0.026342 0.193023 -0.264309 -0.450556 -0.297525 -0.041606 -0.265651 0.110162 0.398606 0.433901 -0.041198 -0.092078 0.250007 -0.215114 -0.172430 0.049332 0.184803 -0.254311 0.122611 -0.141822 -0.120044 -0.195180 -0.283388 -0.014494 -0.530517 -0.132398 -0.249839 0.165616 -0.108433 0.174619 -0.478041 0.072037 0.111215 -0.139534 0.209697 0.199568 0.119323 0.585740 0.358807 -0.111141 -0.131251 0.020758 -0.253331 -0.199502 -0.014012 0.228549 -0.231096 0.040837 -0.074110 -0.355912
하 -0.259753 0.252984 0.299200 1.152415 -0.485157 0.135963 0.252879 0.039184 -0.137287 0.526803 0.697009 0.164678 0.459943 0.421182 -0.042471 0.344767 -0.017671 -0.527658 -0.270336 -0.099092 0.019559 0.196463 -0.353415 0.130115 -0.292112 0.015095 0.188213 -0.317994 0.474048 0.074239 0.319174 0.375071 -0.204979 0.297369 -0.605371 -0.598775 0.004411 0.208949 -0.142273 -0.127428 0.418760 -0.205694 0.315064 0.097418 0.282457 -0.567018 0.068569 -0.085258 -0.167597 0.822037 0.035682 0.219790 -0.285637 -0.504677 -0.322384 -0.040834 -0.300571 0.123317 0.440343 0.481037 -0.047903 -0.100146 0.273774 -0.241657 -0.190599 0.054336 0.213042 -0.279447 0.135070 -0.163733 -0.127862 -0.220189 -0.319066 -0.018136 -0.590588 -0.140605 -0.283857 0.186749 -0.123391 0.189737 -0.528887 0.076206 0.133198 -0.160303 0.234966 0.223846 0.133838 0.658872 0.405976 -0.121304 -0.142238 0.017731 -0.292057 -0.216666 -0.013452 0.252691 -0.257711 0.042821 -0.084943 -0.391639
이 -0.291701 0.290164 0.334445 1.295233 -0.549288 0.155672 0.284633 0.041555 -0.158626 0.585701 0.777196 0.189232 0.523599 0.465351 -0.056986 0.394023 -0.015460 -0.590866 -0.303778 -0.100077 0.023923 0.222022 -0.393007 0.141746 -0.329985 0.024066 0.214162 -0.349018 0.532636 0.083896 0.361866 0.426159 -0.229178 0.337686 -0.674670 -0.674855 0.007571 0.234910 -0.150203 -0.142857 0.470853 -0.230020 0.359956 0.111548 0.309743 -0.638521 0.069116 -0.099010 -0.193736 0.920734 0.036359 0.241147 -0.325769 -0.563594 -0.363377 -0.051870 -0.335895 0.143789 0.494167 0.541363 -0.058362 -0.107796 0.314702 -0.263977 -0.209563 0.063474 0.241127 -0.321085 0.148180 -0.182495 -0.147881 -0.249878 -0.356984 -0.023145 -0.656417 -0.164594 -0.316353 0.209337 -0.135895 0.210329 -0.593221 0.086957 0.143511 -0.176608 0.257370 0.255107 0.138894 0.738211 0.451703 -0.129053 -0.166502 0.018497 -0.326998 -0.240913 -0.022428 0.282469 -0.290283 0.049235 -0.087360 -0.445804
다 -0.168943 0.164546 0.194208 0.743876 -0.311878 0.088522 0.159391 0.029419 -0.091205 0.334935 0.449577 0.103777 0.293390 0.273716 -0.035260 0.225462 -0.014600 -0.335075 -0.169880 -0.061248 0.015777 0.132449 -0.220476 0.078295 -0.185481 0.015906 0.120005 -0.207030 0.302976 0.053557 0.214895 0.246915 -0.134460 0.197412 -0.389879 -0.386845 0.010350 0.136350 -0.091009 -0.082266 0.267661 -0.124910 0.210551 0.064488 0.179074 -0.367796 0.041001 -0.053139 -0.111966 0.529893 0.026501 0.133141 -0.185535 -0.322320 -0.210559 -0.033027 -0.193988 0.087767 0.280994 0.310663 -0.032391 -0.065306 0.174424 -0.158723 -0.126439 0.028547 0.141259 -0.183830 0.084188 -0.104965 -0.085758 -0.140559 -0.199018 -0.005814 -0.373172 -0.096729 -0.181750 0.119293 -0.078547 0.122042 -0.341169 0.050038 0.085514 -0.107203 0.153178 0.148887 0.088424 0.424228 0.256424 -0.074462 -0.089156 0.005880 -0.183092 -0.133957 -0.012563 0.155764 -0.161749 0.029519 -0.056101 -0.249529
ㄴ -0.293305 0.285118 0.336625 1.296038 -0.552222 0.148352 0.277591 0.040801 -0.156970 0.592312 0.773885 0.188650 0.523587 0.465811 -0.056135 0.395648 -0.024369 -0.592084 -0.301741 -0.107689 0.025670 0.217835 -0.388683 0.135912 -0.327234 0.024830 0.214268 -0.353177 0.538358 0.089480 0.363816 0.424268 -0.230277 0.338237 -0.680871 -0.678839 0.011143 0.236841 -0.157060 -0.137682 0.475256 -0.229254 0.360907 0.117445 0.308453 -0.639983 0.074543 -0.105311 -0.188586 0.918754 0.035491 0.246260 -0.322007 -0.566732 -0.366307 -0.053730 -0.344291 0.138798 0.491853 0.536601 -0.062309 -0.113088 0.307260 -0.265761 -0.209147 0.059552 0.232521 -0.313717 0.151612 -0.178896 -0.140924 -0.249438 -0.359271 -0.017483 -0.662801 -0.157499 -0.316044 0.203586 -0.131701 0.210352 -0.594556 0.089490 0.148809 -0.178620 0.263444 0.255948 0.143143 0.738006 0.454862 -0.127698 -0.164780 0.027526 -0.319347 -0.248068 -0.020086 0.274472 -0.292208 0.050408 -0.097688 -0.448021
을 -0.302241 0.301628 0.348671 1.353577 -0.571108 0.161042 0.290114 0.044174 -0.157114 0.619365 0.816586 0.190915 0.540164 0.482590 -0.059001 0.403168 -0.025153 -0.612392 -0.313288 -0.110134 0.023469 0.231950 -0.408875 0.148921 -0.342929 0.027325 0.217918 -0.368014 0.554560 0.086567 0.375258 0.442956 -0.246737 0.349354 -0.711756 -0.708033 0.013473 0.243158 -0.160284 -0.140214 0.487730 -0.236168 0.373727 0.121915 0.324300 -0.671751 0.080261 -0.110016 -0.198570 0.959881 0.036503 0.251504 -0.339482 -0.588795 -0.383897 -0.048321 -0.358335 0.146583 0.515071 0.563948 -0.065704 -0.115643 0.323868 -0.281810 -0.217358 0.058103 0.250358 -0.325341 0.151266 -0.188214 -0.151370 -0.255680 -0.373900 -0.014212 -0.689943 -0.172430 -0.325927 0.219350 -0.140241 0.219989 -0.613322 0.093157 0.148468 -0.188672 0.274012 0.268878 0.153414 0.767957 0.474186 -0.140984 -0.169153 0.017135 -0.337245 -0.256346 -0.025594 0.287223 -0.298552 0.049676 -0.100048 -0.459329
' -0.256338 0.253086 0.289490 1.120899 -0.479130 0.129095 0.239119 0.034654 -0.128390 0.509121 0.669493 0.158976 0.449165 0.400113 -0.045511 0.332932 -0.021402 -0.514725 -0.264833 -0.095746 0.024752 0.197983 -0.338321 0.118779 -0.288709 0.020023 0.188290 -0.308128 0.462441 0.071426 0.314173 0.366935 -0.200646 0.285412 -0.583424 -0.589286 0.003693 0.199346 -0.135971 -0.122677 0.411311 -0.193078 0.313185 0.092393 0.272608 -0.550599 0.058122 -0.087320 -0.164748 0.790232 0.030010 0.209625 -0.281477 -0.488914 -0.320051 -0.039217 -0.296821 0.130278 0.423993 0.463530 -0.048190 -0.095223 0.267653 -0.225230 -0.180708 0.055100 0.205040 -0.276417 0.123505 -0.158742 -0.119721 -0.218884 -0.311829 -0.022046 -0.574073 -0.142237 -0.276447 0.183919 -0.119042 0.186557 -0.514045 0.072440 0.125015 -0.146832 0.221492 0.221430 0.119975 0.637835 0.397018 -0.109556 -0.138733 0.017982 -0.276404 -0.210821 -0.016036 0.240169 -0.246779 0.046446 -0.079202 -0.392342
의 -0.250718 0.255275 0.290428 1.129461 -0.482913 0.128805 0.249309 0.039536 -0.130539 0.513395 0.675727 0.159495 0.453692 0.408716 -0.040383 0.335536 -0.020401 -0.516135 -0.265892 -0.088045 0.021441 0.197103 -0.346209 0.121260 -0.282384 0.022989 0.185994 -0.304560 0.469796 0.070212 0.318059 0.370734 -0.203582 0.295720 -0.590470 -0.586705 0.010901 0.204842 -0.133711 -0.119248 0.408374 -0.199433 0.310318 0.101753 0.273444 -0.559103 0.067325 -0.091211 -0.166261 0.794829 0.036211 0.213481 -0.286349 -0.490966 -0.322511 -0.047609 -0.292902 0.123369 0.433077 0.472039 -0.051642 -0.097805 0.266364 -0.232360 -0.181020 0.054081 0.201837 -0.278859 0.131547 -0.157024 -0.127036 -0.218556 -0.306329 -0.012949 -0.576507 -0.141916 -0.273467 0.176885 -0.116986 0.188532 -0.517904 0.069518 0.121321 -0.157261 0.227962 0.220493 0.120242 0.644222 0.400709 -0.113610 -0.137713 0.021691 -0.281513 -0.207339 -0.022277 0.245545 -0.248300 0.044335 -0.085245 -0.388038
는 -0.270598 0.262552 0.306115 1.189461 -0.501652 0.142814 0.262364 0.041488 -0.144441 0.545140 0.717485 0.169828 0.474793 0.432028 -0.045150 0.353654 -0.015736 -0.541941 -0.277375 -0.097213 0.019775 0.206702 -0.366052 0.126757 -0.303551 0.017522 0.189427 -0.326948 0.495822 0.076367 0.328637 0.395455 -0.217748 0.308187 -0.617997 -0.621073 0.004608 0.215333 -0.139306 -0.127991 0.429505 -0.212162 0.331385 0.100900 0.282876 -0.589182 0.064943 -0.090883 -0.176334 0.843079 0.037184 0.225500 -0.301879 -0.518105 -0.339989 -0.047205 -0.315096 0.129357 0.453025 0.489060 -0.054102 -0.107604 0.286318 -0.240574 -0.191962 0.057016 0.222968 -0.294990 0.134324 -0.162743 -0.137075 -0.227678 -0.327948 -0.016179 -0.606367 -0.143832 -0.293594 0.189620 -0.120449 0.193089 -0.547341 0.080208 0.133151 -0.163624 0.243520 0.232729 0.127354 0.675729 0.415366 -0.122017 -0.146928 0.015480 -0.293388 -0.226561 -0.020725 0.259220 -0.261317 0.042082 -0.085517 -0.408337
에 -0.291042 0.282174 0.327665 1.266254 -0.542983 0.148567 0.279269 0.043542 -0.156723 0.579931 0.766379 0.178289 0.514901 0.462982 -0.054206 0.379737 -0.017365 -0.578522 -0.295598 -0.102396 0.028654 0.221686 -0.388647 0.137790 -0.320509 0.025415 0.204775 -0.350551 0.526701 0.087897 0.358031 0.418259 -0.229997 0.330531 -0.667999 -0.660905 0.008616 0.225618 -0.147902 -0.133393 0.462425 -0.223721 0.349453 0.109651 0.305111 -0.628850 0.067051 -0.100447 -0.187914 0.899209 0.040616 0.233534 -0.323507 -0.554986 -0.366143 -0.046549 -0.335390 0.142743 0.489159 0.528068 -0.053191 -0.108858 0.303869 -0.261372 -0.203455 0.060294 0.229915 -0.314882 0.149865 -0.172710 -0.142092 -0.238939 -0.353591 -0.021823 -0.644555 -0.155023 -0.308872 0.204486 -0.136483 0.203928 -0.579811 0.086876 0.141714 -0.176193 0.260970 0.255921 0.141398 0.727459 0.448172 -0.134314 -0.156913 0.021957 -0.319058 -0.236861 -0.024907 0.274754 -0.287351 0.054009 -0.089084 -0.432951
를 -0.271844 0.266588 0.309836 1.186241 -0.507777 0.140500 0.259970 0.041459 -0.142507 0.541355 0.712427 0.166465 0.481780 0.429866 -0.045087 0.361353 -0.015706 -0.546996 -0.281493 -0.100711 0.023688 0.199722 -0.363805 0.129666 -0.295367 0.024276 0.194903 -0.326233 0.496035 0.076561 0.334880 0.394036 -0.216219 0.312931 -0.618818 -0.618945 0.010510 0.212380 -0.147148 -0.127535 0.437431 -0.212384 0.332180 0.107809 0.286901 -0.591744 0.070500 -0.088218 -0.170456 0.844296 0.029175 0.218577 -0.300860 -0.521513 -0.339486 -0.044313 -0.312731 0.135027 0.454913 0.492227 -0.051314 -0.100093 0.282168 -0.246995 -0.194095 0.051446 0.220068 -0.291048 0.131668 -0.161988 -0.137181 -0.227846 -0.325402 -0.017510 -0.608780 -0.145094 -0.289847 0.192403 -0.122612 0.195817 -0.542619 0.076443 0.131263 -0.161851 0.242737 0.238948 0.127603 0.677309 0.417982 -0.121110 -0.152543 0.020091 -0.296278 -0.217875 -0.015470 0.254978 -0.268232 0.044396 -0.086685 -0.408316
은 -0.288592 0.279543 0.328274 1.277522 -0.545692 0.147900 0.280673 0.035578 -0.149879 0.578477 0.766430 0.185924 0.508090 0.458301 -0.054927 0.385343 -0.016921 -0.587778 -0.299243 -0.100039 0.024938 0.222734 -0.388818 0.141852 -0.319806 0.017211 0.207834 -0.344508 0.526003 0.084969 0.351473 0.417948 -0.227495 0.335090 -0.669200 -0.670024 0.005488 0.229817 -0.151782 -0.130656 0.469623 -0.224039 0.346890 0.109595 0.312863 -0.633932 0.068384 -0.101973 -0.183745 0.902507 0.041295 0.235757 -0.322280 -0.559828 -0.360138 -0.051494 -0.334618 0.140014 0.486306 0.529804 -0.054721 -0.110816 0.304451 -0.258144 -0.212190 0.056715 0.229472 -0.310252 0.141407 -0.178563 -0.143282 -0.241883 -0.353015 -0.020643 -0.650112 -0.159353 -0.311919 0.200280 -0.129865 0.210422 -0.586043 0.089692 0.140747 -0.168627 0.255313 0.251775 0.138690 0.725970 0.445102 -0.130545 -0.161800 0.019582 -0.315490 -0.243414 -0.018718 0.277499 -0.287699 0.054011 -0.085570 -0.437264
았 -0.147756 0.145180 0.167647 0.642428 -0.277963 0.069791 0.142895 0.022386 -0.073224 0.290654 0.384425 0.095846 0.260820 0.229312 -0.028784 0.197047 -0.011396 -0.296732 -0.154543 -0.050296 0.014886 0.106910 -0.197380 0.074230 -0.163223 0.007270 0.106046 -0.177384 0.262373 0.042936 0.178016 0.210177 -0.118369 0.171575 -0.337111 -0.336281 0.001538 0.120302 -0.071957 -0.070319 0.230318 -0.108270 0.177152 0.060713 0.157700 -0.315372 0.033794 -0.043254 -0.098236 0.458454 0.023916 0.115750 -0.166334 -0.284893 -0.181352 -0.025308 -0.171617 0.067027 0.250494 0.271930 -0.024831 -0.058551 0.149275 -0.131791 -0.107791 0.028369 0.122186 -0.152004 0.073468 -0.083052 -0.075732 -0.125493 -0.180968 -0.009580 -0.328673 -0.083581 -0.155591 0.107011 -0.062283 0.104887 -0.291230 0.042259 0.073830 -0.092576 0.128012 0.122649 0.070456 0.371534 0.228802 -0.071898 -0.075399 0.012354 -0.155592 -0.121661 -0.007717 0.140014 -0.147823 0.024190 -0.042099 -0.223769
었 -0.207298 0.203511 0.231174 0.898253 -0.382780 0.100569 0.195350 0.032421 -0.103029 0.409662 0.540791 0.122831 0.364905 0.327876 -0.032509 0.266648 -0.018443 -0.407958 -0.212199 -0.074302 0.013365 0.158201 -0.270097 0.096468 -0.224523 0.012519 0.149192 -0.243625 0.368791 0.057040 0.252420 0.292858 -0.157244 0.238686 -0.467057 -0.470718 0.003708 0.161355 -0.107811 -0.098907 0.324631 -0.161420 0.245307 0.074111 0.213647 -0.443144 0.050748 -0.062905 -0.135213 0.637530 0.024638 0.171982 -0.221627 -0.393975 -0.255487 -0.037645 -0.233873 0.103652 0.343417 0.377643 -0.042766 -0.080297 0.211673 -0.188582 -0.148243 0.041556 0.164828 -0.219108 0.098040 -0.123414 -0.096138 -0.169571 -0.245775 -0.016101 -0.458293 -0.108022 -0.217251 0.143366 -0.092124 0.149473 -0.409830 0.059893 0.099206 -0.118661 0.181924 0.171097 0.101232 0.515296 0.308880 -0.097631 -0.113480 0.009726 -0.226922 -0.168947 -0.014969 0.193160 -0.197606 0.038120 -0.060082 -0.309415
, -0.257910 0.254650 0.288815 1.131570 -0.485002 0.133849 0.242487 0.033436 -0.131494 0.518654 0.682787 0.156669 0.447471 0.410305 -0.049602 0.342496 -0.015146 -0.516161 -0.260304 -0.092800 0.025386 0.196501 -0.347781 0.125959 -0.284398 0.016555 0.182046 -0.310162 0.471129 0.080425 0.308530 0.373545 -0.199905 0.293103 -0.594713 -0.585229 0.009074 0.198244 -0.137511 -0.117060 0.406791 -0.196771 0.311439 0.102004 0.271698 -0.561441 0.060773 -0.092347 -0.158602 0.800463 0.034779 0.216933 -0.288414 -0.491026 -0.319143 -0.043791 -0.296505 0.122404 0.435752 0.464567 -0.054300 -0.097565 0.277540 -0.231245 -0.184387 0.049500 0.202390 -0.273552 0.129271 -0.159083 -0.122262 -0.212751 -0.305393 -0.018618 -0.570902 -0.141714 -0.272184 0.181207 -0.112956 0.184090 -0.520042 0.069994 0.123376 -0.154105 0.225539 0.224726 0.129750 0.639469 0.402597 -0.113321 -0.137977 0.022956 -0.282372 -0.208641 -0.015615 0.237927 -0.246435 0.039685 -0.081197 -0.394245
에서 -0.265488 0.261338 0.310833 1.186527 -0.509591 0.143669 0.262144 0.040001 -0.145684 0.545188 0.716599 0.167112 0.482260 0.432968 -0.047270 0.363261 -0.014991 -0.547365 -0.277145 -0.096734 0.024451 0.206711 -0.364962 0.127316 -0.297905 0.019578 0.188474 -0.321627 0.488327 0.080974 0.331522 0.392366 -0.214670 0.309330 -0.626507 -0.617456 0.006857 0.219194 -0.146612 -0.125510 0.438441 -0.209091 0.324873 0.101070 0.286293 -0.583097 0.063105 -0.093991 -0.174291 0.838713 0.034977 0.221439 -0.299658 -0.516163 -0.341501 -0.051003 -0.311300 0.136495 0.453587 0.495830 -0.054810 -0.105565 0.288699 -0.241753 -0.197113 0.053315 0.213053 -0.294096 0.139237 -0.162154 -0.133364 -0.230572 -0.327541 -0.013306 -0.609961 -0.148132 -0.285371 0.192235 -0.125307 0.193050 -0.546915 0.077844 0.132953 -0.165298 0.238483 0.239472 0.127616 0.679994 0.423880 -0.125476 -0.146422 0.016784 -0.300802 -0.225302 -0.021606 0.250547 -0.259005 0.047016 -0.084086 -0.407215
( -0.257362 0.254255 0.290860 1.148499 -0.482843 0.129871 0.249326 0.038275 -0.136017 0.526493 0.687563 0.161862 0.455543 0.416738 -0.045356 0.343102 -0.019776 -0.526379 -0.266652 -0.093541 0.021480 0.201183 -0.349855 0.123735 -0.289444 0.020812 0.181271 -0.316847 0.479866 0.078335 0.312274 0.374008 -0.203199 0.291103 -0.601621 -0.600158 0.013947 0.199195 -0.142946 -0.118073 0.422627 -0.200396 0.314183 0.094916 0.277661 -0.568763 0.058559 -0.095037 -0.164440 0.810963 0.027692 0.221620 -0.290565 -0.498256 -0.328192 -0.046506 -0.298411 0.128418 0.441379 0.471691 -0.050325 -0.103670 0.282285 -0.238485 -0.189271 0.053032 0.207021 -0.283423 0.131566 -0.154940 -0.125194 -0.217942 -0.319053 -0.022361 -0.585032 -0.143335 -0.285247 0.183100 -0.121066 0.191852 -0.528244 0.078426 0.122897 -0.148190 0.234032 0.232533 0.125100 0.648429 0.397363 -0.116867 -0.141080 0.024966 -0.287850 -0.217304 -0.012377 0.248999 -0.256274 0.047474 -0.078190 -0.399968
) -0.233065 0.226973 0.269695 1.030736 -0.438127 0.122914 0.225853 0.034041 -0.123238 0.472498 0.622966 0.145920 0.416902 0.373251 -0.035886 0.311371 -0.021954 -0.468012 -0.241864 -0.078810 0.024766 0.182315 -0.311840 0.114185 -0.264629 0.012864 0.169280 -0.278994 0.422131 0.064261 0.289739 0.344831 -0.187209 0.265569 -0.543206 -0.537622 0.013142 0.186161 -0.128155 -0.107778 0.380050 -0.180345 0.283637 0.087667 0.243073 -0.511863 0.054119 -0.079961 -0.145353 0.734002 0.025129 0.193119 -0.257053 -0.453643 -0.295353 -0.040256 -0.265739 0.113032 0.389893 0.431848 -0.047010 -0.088212 0.243823 -0.213279 -0.172414 0.051887 0.185991 -0.255997 0.119206 -0.147418 -0.109924 -0.198310 -0.285437 -0.019205 -0.520273 -0.131831 -0.250892 0.161279 -0.107705 0.173989 -0.469475 0.070592 0.120821 -0.138720 0.210423 0.207626 0.115071 0.586497 0.360934 -0.103567 -0.126851 0.017112 -0.261034 -0.195035 -0.015043 0.224791 -0.233436 0.038020 -0.073807 -0.354197
고 -0.204003 0.200583 0.236843 0.895901 -0.382934 0.102276 0.195193 0.031382 -0.108229 0.413776 0.536099 0.126307 0.362040 0.320948 -0.035026 0.268636 -0.016483 -0.405981 -0.206641 -0.076418 0.017082 0.149146 -0.276058 0.097227 -0.225820 0.020695 0.143224 -0.246949 0.368971 0.056098 0.252634 0.299283 -0.163312 0.235803 -0.473390 -0.471219 0.005311 0.164286 -0.107063 -0.090964 0.326100 -0.161814 0.251248 0.073077 0.216776 -0.447662 0.045021 -0.070184 -0.131494 0.637851 0.023177 0.162898 -0.228185 -0.396388 -0.252665 -0.034355 -0.232822 0.101687 0.345922 0.376833 -0.040807 -0.076860 0.218337 -0.179814 -0.143388 0.038372 0.166331 -0.218385 0.099553 -0.121504 -0.102873 -0.171941 -0.249092 -0.016729 -0.460795 -0.109818 -0.222557 0.143978 -0.088677 0.149413 -0.414974 0.056285 0.101002 -0.125393 0.181756 0.174589 0.095245 0.514223 0.314475 -0.092905 -0.116697 0.015290 -0.221984 -0.172532 -0.018580 0.194984 -0.197721 0.039395 -0.061597 -0.307838
" -0.205519 0.204324 0.240119 0.913100 -0.391900 0.103490 0.195320 0.025851 -0.111821 0.419571 0.549237 0.128262 0.372644 0.328949 -0.034379 0.278197 -0.009680 -0.418805 -0.218559 -0.071412 0.012570 0.158057 -0.277698 0.104645 -0.230007 0.012809 0.144890 -0.252203 0.376668 0.066268 0.256145 0.299415 -0.166383 0.235390 -0.477126 -0.478205 0.002110 0.166484 -0.107829 -0.097879 0.333709 -0.164655 0.252956 0.080333 0.225275 -0.457076 0.048150 -0.071596 -0.136359 0.647356 0.028278 0.169511 -0.232824 -0.402750 -0.260045 -0.033880 -0.242350 0.100451 0.353815 0.378027 -0.040406 -0.083962 0.220608 -0.193031 -0.149436 0.038780 0.171284 -0.220554 0.102701 -0.123543 -0.107636 -0.177799 -0.253435 -0.009256 -0.463014 -0.117231 -0.220280 0.145203 -0.096948 0.154420 -0.416689 0.057365 0.103175 -0.122085 0.181271 0.178440 0.099860 0.526530 0.324676 -0.096254 -0.116919 0.016021 -0.229326 -0.168627 -0.011295 0.194470 -0.201072 0.037332 -0.069010 -0.314185
가 -0.232954 0.228922 0.271014 1.035407 -0.442793 0.124969 0.228264 0.028845 -0.121412 0.474907 0.622027 0.148279 0.416624 0.368737 -0.038855 0.308383 -0.021334 -0.478108 -0.238138 -0.086051 0.023460 0.173703 -0.310624 0.111408 -0.265785 0.019568 0.171014 -0.280388 0.432841 0.070410 0.285145 0.338258 -0.188025 0.265982 -0.537390 -0.541715 0.006291 0.184072 -0.125854 -0.112288 0.375158 -0.181004 0.284474 0.092083 0.249073 -0.514802 0.061295 -0.081617 -0.154529 0.735323 0.027263 0.198836 -0.260991 -0.454822 -0.295391 -0.042808 -0.275703 0.110583 0.397248 0.434270 -0.041897 -0.090749 0.247115 -0.217538 -0.172113 0.051754 0.189917 -0.257489 0.114226 -0.140813 -0.120485 -0.200033 -0.284445 -0.014988 -0.528695 -0.128310 -0.256377 0.161926 -0.102770 0.167142 -0.470863 0.064951 0.119552 -0.136051 0.211769 0.208549 0.116969 0.590561 0.366155 -0.102777 -0.125431 0.017124 -0.256018 -0.194576 -0.012869 0.221246 -0.227934 0.040797 -0.078362 -0.358082
일 -0.303367 0.296069 0.345433 1.349404 -0.569762 0.162290 0.297149 0.040753 -0.155477 0.614998 0.810828 0.197532 0.539047 0.487862 -0.050516 0.411165 -0.024935 -0.613485 -0.315261 -0.104071 0.030204 0.228232 -0.408737 0.148140 -0.333870 0.024968 0.218639 -0.366383 0.557713 0.089436 0.373741 0.439440 -0.237411 0.345001 -0.702458 -0.703569 0.007307 0.237422 -0.158119 -0.139283 0.491287 -0.237333 0.365930 0.118395 0.327437 -0.663006 0.074115 -0.109877 -0.198914 0.954623 0.038378 0.257558 -0.335747 -0.584941 -0.379477 -0.056796 -0.358888 0.148758 0.517777 0.559174 -0.059594 -0.120040 0.327068 -0.281617 -0.222433 0.058784 0.248804 -0.334663 0.155781 -0.180702 -0.146436 -0.257951 -0.371380 -0.024443 -0.687862 -0.161505 -0.325843 0.208754 -0.140161 0.216466 -0.613808 0.088721 0.148763 -0.183720 0.269144 0.266655 0.150768 0.769889 0.472046 -0.134987 -0.170000 0.021946 -0.339559 -0.251768 -0.024815 0.289041 -0.301034 0.054863 -0.093482 -0.468031
로 -0.245875 0.245735 0.289977 1.106496 -0.466544 0.127603 0.237400 0.037407 -0.128500 0.500363 0.662845 0.160982 0.448615 0.397003 -0.040220 0.333125 -0.017474 -0.505253 -0.255264 -0.093371 0.026065 0.188246 -0.338089 0.119632 -0.275395 0.021522 0.179902 -0.305296 0.459229 0.070509 0.311819 0.367084 -0.196345 0.288444 -0.579508 -0.573791 0.010928 0.198631 -0.135592 -0.112598 0.399341 -0.191216 0.301930 0.094028 0.271059 -0.548854 0.061567 -0.082350 -0.163109 0.777076 0.034825 0.208943 -0.274734 -0.484907 -0.310497 -0.047555 -0.290309 0.118663 0.426877 0.453900 -0.048132 -0.091594 0.269755 -0.225130 -0.180271 0.048956 0.207240 -0.269711 0.127271 -0.155435 -0.127337 -0.208558 -0.308411 -0.011721 -0.567593 -0.133869 -0.273453 0.170681 -0.116055 0.181683 -0.505097 0.074340 0.122187 -0.145597 0.222827 0.221549 0.123772 0.625513 0.390552 -0.113056 -0.139322 0.018550 -0.281150 -0.210164 -0.017012 0.236144 -0.247504 0.040223 -0.074685 -0.380660
아 -0.226767 0.230939 0.271235 1.023952 -0.437710 0.117028 0.221731 0.030573 -0.117708 0.472022 0.614043 0.149324 0.413355 0.370029 -0.040970 0.311849 -0.011172 -0.466595 -0.243621 -0.079727 0.021578 0.176096 -0.313145 0.107173 -0.254893 0.014975 0.171234 -0.279430 0.430032 0.068383 0.289808 0.335274 -0.185255 0.264059 -0.540355 -0.537713 0.007067 0.184070 -0.125370 -0.110525 0.375698 -0.183612 0.288660 0.085141 0.253492 -0.505269 0.060219 -0.079081 -0.151944 0.732526 0.033564 0.197504 -0.263690 -0.447181 -0.290839 -0.041296 -0.271148 0.118096 0.391890 0.427176 -0.051416 -0.092628 0.253246 -0.214767 -0.162825 0.050134 0.190204 -0.252995 0.112025 -0.141497 -0.113526 -0.196324 -0.281952 -0.011700 -0.519849 -0.130641 -0.251878 0.158855 -0.105810 0.166360 -0.471261 0.066212 0.117484 -0.141236 0.207349 0.199829 0.108730 0.587719 0.359499 -0.106419 -0.128663 0.022928 -0.252951 -0.194615 -0.018229 0.226285 -0.227923 0.036618 -0.068528 -0.353743
으로 -0.225613 0.225478 0.265787 1.015525 -0.436596 0.118168 0.224331 0.028571 -0.120953 0.462971 0.608348 0.142241 0.405078 0.370526 -0.039457 0.307666 -0.012700 -0.464919 -0.235690 -0.082514 0.018063 0.179768 -0.309997 0.110008 -0.256981 0.018698 0.167742 -0.278298 0.425675 0.070337 0.278455 0.334815 -0.185151 0.267615 -0.534260 -0.532727 0.009606 0.181493 -0.120021 -0.108982 0.371612 -0.183135 0.278454 0.093481 0.240806 -0.499863 0.060275 -0.075490 -0.148077 0.718109 0.031942 0.188891 -0.251245 -0.441002 -0.290898 -0.039784 -0.268883 0.108515 0.383282 0.421308 -0.042622 -0.086362 0.248890 -0.205597 -0.161662 0.042329 0.190052 -0.246316 0.114086 -0.136063 -0.114197 -0.198593 -0.282447 -0.012333 -0.514169 -0.121602 -0.247082 0.156643 -0.100812 0.169611 -0.465398 0.072431 0.116655 -0.135238 0.206172 0.197178 0.110133 0.581378 0.356569 -0.106142 -0.128926 0.012451 -0.257305 -0.186708 -0.018345 0.222869 -0.221231 0.038502 -0.077194 -0.344411
되 -0.207624 0.201343 0.237073 0.919226 -0.394768 0.105547 0.197869 0.027568 -0.106511 0.425077 0.553427 0.133052 0.375765 0.333983 -0.040323 0.275917 -0.014579 -0.422345 -0.218279 -0.078739 0.016878 0.155009 -0.277270 0.099984 -0.228177 0.014756 0.153647 -0.249483 0.386563 0.063534 0.259082 0.302132 -0.169428 0.243642 -0.486166 -0.481659 0.008230 0.167144 -0.109020 -0.102635 0.337723 -0.163518 0.259077 0.075687 0.223918 -0.457145 0.052578 -0.072763 -0.137966 0.653867 0.025382 0.167651 -0.235410 -0.406399 -0.264625 -0.038908 -0.245881 0.102823 0.357646 0.378896 -0.043704 -0.082983 0.222758 -0.192153 -0.149419 0.037217 0.168485 -0.226513 0.104293 -0.131600 -0.104639 -0.173923 -0.253089 -0.012460 -0.468395 -0.119053 -0.226599 0.148360 -0.099924 0.147264 -0.426176 0.064788 0.104343 -0.129149 0.185942 0.186517 0.106683 0.530417 0.325107 -0.097551 -0.111503 0.011684 -0.225138 -0.169025 -0.017282 0.203622 -0.205732 0.040355 -0.063951 -0.322429
어 -0.209398 0.201026 0.232789 0.915170 -0.389454 0.111680 0.197583 0.032165 -0.105640 0.417456 0.551555 0.134280 0.367728 0.328848 -0.039197 0.278698 -0.017043 -0.421356 -0.214429 -0.072903 0.014964 0.160092 -0.276031 0.098425 -0.229072 0.016031 0.148117 -0.248185 0.381859 0.058468 0.256851 0.297512 -0.164737 0.238542 -0.476840 -0.477385 0.009925 0.162913 -0.113231 -0.098672 0.329240 -0.163516 0.253651 0.075609 0.224519 -0.455001 0.054707 -0.069404 -0.129022 0.650076 0.025963 0.171463 -0.228665 -0.393249 -0.258927 -0.038776 -0.241833 0.106137 0.347344 0.380042 -0.045684 -0.078886 0.215641 -0.189292 -0.148398 0.046056 0.166194 -0.219775 0.107889 -0.126291 -0.101999 -0.179828 -0.248311 -0.008810 -0.462344 -0.117862 -0.220003 0.147192 -0.094837 0.153624 -0.417719 0.064414 0.096849 -0.123181 0.180228 0.182167 0.101757 0.514413 0.323228 -0.095742 -0.114735 0.013286 -0.229823 -0.175560 -0.017849 0.201865 -0.205114 0.033023 -0.065707 -0.317867
있 -0.194745 0.186627 0.219913 0.836521 -0.357181 0.096016 0.184027 0.027594 -0.104245 0.377781 0.508018 0.123980 0.333805 0.300480 -0.033933 0.255195 -0.012619 -0.380203 -0.191517 -0.073057 0.018053 0.146440 -0.256255 0.092585 -0.213086 0.012510 0.132498 -0.227252 0.347904 0.058905 0.237012 0.281127 -0.155801 0.215528 -0.435975 -0.438466 0.010874 0.155067 -0.096565 -0.092425 0.309479 -0.148300 0.228775 0.073613 0.199583 -0.415649 0.052065 -0.065381 -0.119677 0.600750 0.026999 0.156085 -0.214712 -0.365823 -0.236307 -0.037220 -0.219624 0.096812 0.320362 0.344826 -0.036924 -0.070637 0.197932 -0.170692 -0.132129 0.033986 0.157138 -0.210360 0.092747 -0.117402 -0.093383 -0.158343 -0.231103 -0.008060 -0.425650 -0.101431 -0.206468 0.131238 -0.090349 0.137379 -0.381816 0.052015 0.088732 -0.118541 0.168888 0.167286 0.093779 0.479443 0.292164 -0.090200 -0.107560 0.014079 -0.211675 -0.156818 -0.016160 0.186675 -0.190272 0.037281 -0.059238 -0.285133
도 -0.197750 0.200984 0.230281 0.893894 -0.382214 0.106005 0.194316 0.024822 -0.107568 0.402761 0.538845 0.131339 0.353527 0.316734 -0.033870 0.267346 -0.009524 -0.407825 -0.209125 -0.071480 0.021825 0.154653 -0.267226 0.098185 -0.225744 0.017039 0.146058 -0.242129 0.369870 0.063383 0.244959 0.297508 -0.163382 0.230976 -0.467242 -0.462074 0.010642 0.164884 -0.103463 -0.095011 0.328648 -0.152999 0.242758 0.075989 0.217924 -0.442680 0.046529 -0.064530 -0.131421 0.628695 0.021444 0.166723 -0.228106 -0.385290 -0.250937 -0.033623 -0.235195 0.097977 0.339070 0.367178 -0.039404 -0.073343 0.217542 -0.184378 -0.145552 0.039352 0.163447 -0.222695 0.096518 -0.120713 -0.100279 -0.173886 -0.250434 -0.012818 -0.452362 -0.114342 -0.221940 0.141228 -0.093904 0.144513 -0.405461 0.055642 0.103682 -0.120191 0.180289 0.171190 0.099754 0.510419 0.311571 -0.093384 -0.112001 0.010975 -0.227349 -0.171655 -0.014708 0.192687 -0.201675 0.032954 -0.062505 -0.306393
ㄹ -0.214159 0.207190 0.247079 0.937758 -0.404067 0.114729 0.209612 0.025063 -0.107158 0.432219 0.567815 0.130873 0.375239 0.340091 -0.040016 0.286640 -0.019197 -0.434961 -0.222222 -0.081076 0.021855 0.157667 -0.284678 0.105388 -0.235299 0.017836 0.147856 -0.256381 0.385490 0.063390 0.261058 0.307358 -0.174627 0.241034 -0.495803 -0.497260 0.007030 0.167377 -0.116095 -0.100456 0.347652 -0.169469 0.260418 0.086326 0.224488 -0.467192 0.048438 -0.073325 -0.143156 0.673518 0.029621 0.171635 -0.238012 -0.406590 -0.267555 -0.033413 -0.242867 0.107926 0.365488 0.394826 -0.038330 -0.077153 0.224543 -0.191593 -0.150632 0.047148 0.178404 -0.226077 0.104031 -0.127889 -0.107583 -0.179500 -0.259312 -0.010785 -0.484117 -0.115528 -0.227812 0.152166 -0.098198 0.152743 -0.426785 0.066903 0.103299 -0.131645 0.186972 0.188480 0.098968 0.541259 0.337122 -0.103033 -0.118977 0.019741 -0.239416 -0.171745 -0.017390 0.201052 -0.206677 0.036270 -0.065953 -0.321015
과 -0.216100 0.215910 0.252419 0.972100 -0.416541 0.113571 0.206494 0.025596 -0.115914 0.440423 0.587821 0.137264 0.392502 0.354305 -0.034506 0.292780 -0.014106 -0.447832 -0.221742 -0.081268 0.016705 0.171917 -0.297080 0.101936 -0.247374 0.013517 0.154741 -0.263696 0.399067 0.067848 0.274566 0.323425 -0.172190 0.251668 -0.512017 -0.504790 0.007505 0.177861 -0.114235 -0.101090 0.349955 -0.171796 0.266724 0.084535 0.235927 -0.485428 0.052914 -0.078804 -0.139607 0.688805 0.023832 0.183818 -0.240155 -0.421772 -0.278029 -0.037630 -0.256450 0.106306 0.369869 0.397796 -0.044848 -0.088545 0.237793 -0.200139 -0.159790 0.049106 0.177767 -0.233986 0.111830 -0.137622 -0.106093 -0.190797 -0.267046 -0.015662 -0.491253 -0.125482 -0.236615 0.154923 -0.104305 0.160971 -0.443276 0.064090 0.106329 -0.136384 0.198719 0.195709 0.104376 0.549391 0.342560 -0.096923 -0.119562 0.014850 -0.244589 -0.186668 -0.011406 0.209507 -0.216315 0.035379 -0.069703 -0.336224
와 -0.253159 0.243662 0.286122 1.115394 -0.477438 0.135709 0.243615 0.030511 -0.135313 0.515332 0.669416 0.159776 0.450188 0.403903 -0.044521 0.338157 -0.017576 -0.513238 -0.262259 -0.093087 0.019282 0.189116 -0.338778 0.118521 -0.282194 0.016808 0.184629 -0.308018 0.459098 0.070508 0.307192 0.364594 -0.195392 0.294874 -0.590649 -0.578255 0.012388 0.205625 -0.139378 -0.118454 0.404806 -0.195070 0.308948 0.096476 0.270686 -0.553082 0.060015 -0.092653 -0.161121 0.794375 0.026818 0.208727 -0.276936 -0.491503 -0.322294 -0.043529 -0.296986 0.127313 0.432997 0.460146 -0.046968 -0.096492 0.275562 -0.230163 -0.177427 0.055673 0.204701 -0.273003 0.123232 -0.152147 -0.119788 -0.217748 -0.305364 -0.021496 -0.571790 -0.137865 -0.269058 0.173278 -0.111679 0.181845 -0.515117 0.072950 0.127392 -0.146127 0.221727 0.221188 0.125768 0.631117 0.396515 -0.112172 -0.139428 0.023332 -0.283569 -0.208233 -0.012687 0.245174 -0.251742 0.045016 -0.084241 -0.385918
2 -0.215321 0.221304 0.249483 0.978925 -0.418801 0.113180 0.213724 0.028215 -0.118755 0.447660 0.584008 0.140154 0.389165 0.348533 -0.043610 0.291220 -0.010838 -0.444071 -0.229983 -0.076461 0.020706 0.169562 -0.297378 0.103784 -0.246089 0.013179 0.161569 -0.265152 0.407465 0.060982 0.273874 0.319437 -0.178818 0.250709 -0.511911 -0.509007 0.013228 0.171859 -0.118760 -0.102052 0.359253 -0.166874 0.263991 0.080408 0.241093 -0.482081 0.054248 -0.080652 -0.141837 0.692768 0.031742 0.188896 -0.246302 -0.428968 -0.279181 -0.039760 -0.255842 0.112250 0.368751 0.408998 -0.045494 -0.088908 0.240485 -0.197592 -0.154942 0.039526 0.177102 -0.234553 0.107645 -0.137606 -0.105235 -0.188312 -0.272274 -0.013879 -0.496926 -0.119756 -0.241150 0.156334 -0.101835 0.162679 -0.452242 0.060326 0.108344 -0.126177 0.195056 0.194833 0.107475 0.556062 0.346487 -0.099438 -0.121186 0.012320 -0.249144 -0.187438 -0.016718 0.213616 -0.216040 0.036967 -0.069371 -0.339666
1 -0.180347 0.178027 0.213204 0.823662 -0.352567 0.093663 0.175590 0.025172 -0.097201 0.379315 0.499471 0.114297 0.333749 0.300610 -0.038795 0.245392 -0.009824 -0.373659 -0.190360 -0.069803 0.015907 0.146045 -0.244594 0.091951 -0.208460 0.012699 0.129501 -0.229035 0.336606 0.059209 0.232558 0.276287 -0.146576 0.211540 -0.425856 -0.426924 0.006999 0.150378 -0.098666 -0.085781 0.302373 -0.141751 0.222102 0.075202 0.200146 -0.409108 0.048017 -0.063325 -0.123205 0.584444 0.021283 0.154765 -0.208447 -0.357905 -0.231118 -0.031511 -0.218414 0.089953 0.316927 0.342094 -0.041221 -0.075315 0.203298 -0.173479 -0.133749 0.033796 0.148995 -0.202871 0.090981 -0.114972 -0.094296 -0.155083 -0.221389 -0.010847 -0.419296 -0.106431 -0.200239 0.127441 -0.088751 0.139307 -0.377668 0.049030 0.087942 -0.108946 0.169105 0.165673 0.085357 0.466623 0.290705 -0.088469 -0.101748 0.017127 -0.205411 -0.157748 -0.015479 0.179597 -0.176467 0.029719 -0.062935 -0.288038
3 -0.198262 0.202654 0.234520 0.895901 -0.382908 0.102335 0.192527 0.024150 -0.109744 0.409617 0.542026 0.126973 0.363699 0.319443 -0.035413 0.275772 -0.013548 -0.412505 -0.211406 -0.075589 0.022457 0.150487 -0.274549 0.093357 -0.230705 0.013999 0.149745 -0.242755 0.369174 0.062667 0.247096 0.295353 -0.164349 0.234735 -0.472363 -0.466555 0.005260 0.163771 -0.112270 -0.098738 0.331346 -0.160490 0.245864 0.082831 0.216353 -0.447476 0.048616 -0.073825 -0.125703 0.631010 0.026060 0.165694 -0.227778 -0.388255 -0.257686 -0.035280 -0.232258 0.103294 0.343046 0.373546 -0.040464 -0.077857 0.220951 -0.188786 -0.147642 0.042395 0.165618 -0.222824 0.102160 -0.120641 -0.101571 -0.169097 -0.245556 -0.011901 -0.458088 -0.107246 -0.220184 0.142223 -0.090353 0.151365 -0.407600 0.054506 0.095474 -0.123385 0.185530 0.178635 0.102084 0.505996 0.317475 -0.090223 -0.115223 0.015986 -0.227527 -0.163653 -0.018144 0.193849 -0.201891 0.033487 -0.067307 -0.311940
ㄴ다 -0.158833 0.166099 0.189713 0.720673 -0.306208 0.084712 0.153560 0.025166 -0.084259 0.324986 0.435217 0.105040 0.286628 0.262792 -0.026523 0.220803 -0.009034 -0.329690 -0.173608 -0.056623 0.014071 0.121689 -0.222147 0.082283 -0.179162 0.008780 0.114205 -0.202147 0.300388 0.045080 0.205509 0.242660 -0.135245 0.185503 -0.381331 -0.376682 0.001375 0.131355 -0.083146 -0.073092 0.261361 -0.121913 0.199545 0.065872 0.175911 -0.359591 0.043267 -0.055163 -0.106270 0.511349 0.021830 0.136355 -0.186606 -0.318537 -0.203744 -0.029265 -0.188576 0.080900 0.281346 0.297915 -0.034427 -0.066628 0.172672 -0.147059 -0.115918 0.029537 0.137493 -0.173300 0.078584 -0.097758 -0.085892 -0.134434 -0.202516 -0.012660 -0.370052 -0.091991 -0.174285 0.113901 -0.075800 0.118008 -0.330507 0.045741 0.082591 -0.095557 0.143839 0.143024 0.085208 0.411307 0.249801 -0.072435 -0.095000 0.015250 -0.176649 -0.130784 -0.013573 0.158154 -0.164499 0.023192 -0.047074 -0.245004
들 -0.232226 0.222510 0.266631 1.018983 -0.436002 0.120377 0.226351 0.034950 -0.119832 0.470652 0.619318 0.148052 0.410133 0.370598 -0.042482 0.305941 -0.018015 -0.471403 -0.235480 -0.082251 0.015231 0.175652 -0.308935 0.109269 -0.252445 0.015649 0.162814 -0.276629 0.426899 0.069438 0.284970 0.341055 -0.181942 0.264178 -0.532932 -0.530396 0.010809 0.179874 -0.119006 -0.109565 0.372998 -0.178229 0.283621 0.086632 0.248810 -0.504351 0.061526 -0.081878 -0.152146 0.726960 0.028524 0.191039 -0.258833 -0.450592 -0.286702 -0.041258 -0.270977 0.118788 0.388649 0.423549 -0.045846 -0.092306 0.246457 -0.213841 -0.166187 0.044438 0.185116 -0.250300 0.115536 -0.145457 -0.109788 -0.198457 -0.283057 -0.016890 -0.517470 -0.129419 -0.252540 0.161881 -0.110334 0.166854 -0.470580 0.066608 0.109996 -0.142305 0.202872 0.204756 0.108834 0.580089 0.365563 -0.105794 -0.130642 0.016352 -0.254357 -0.192638 -0.012107 0.215036 -0.231552 0.043127 -0.074522 -0.346955
지 -0.195216 0.185318 0.224642 0.847082 -0.359258 0.103015 0.183588 0.026778 -0.096416 0.382368 0.510346 0.118913 0.338678 0.309025 -0.035892 0.260930 -0.007696 -0.389204 -0.197447 -0.072529 0.019207 0.149784 -0.262097 0.094698 -0.208037 0.011520 0.139386 -0.230398 0.349128 0.063026 0.241934 0.278780 -0.152997 0.215680 -0.442711 -0.447102 0.001114 0.157223 -0.102863 -0.089275 0.314626 -0.148729 0.238889 0.076585 0.208181 -0.422161 0.049438 -0.067085 -0.120202 0.605156 0.028662 0.160235 -0.213338 -0.370595 -0.244544 -0.031217 -0.221240 0.094084 0.324455 0.352524 -0.033020 -0.075899 0.202996 -0.174042 -0.137483 0.038036 0.159481 -0.206520 0.101529 -0.112075 -0.093412 -0.160582 -0.236487 -0.017091 -0.434086 -0.100098 -0.210832 0.133098 -0.084754 0.136067 -0.392807 0.054769 0.099274 -0.118553 0.176368 0.167468 0.096034 0.484883 0.295904 -0.088055 -0.102486 0.012705 -0.215133 -0.156257 -0.017873 0.185006 -0.194177 0.035610 -0.056108 -0.287856
며 -0.197289 0.198227 0.232577 0.887035 -0.371345 0.102732 0.191892 0.026269 -0.108672 0.406091 0.532896 0.127881 0.352554 0.315245 -0.039175 0.266174 -0.018433 -0.406099 -0.205299 -0.070025 0.017196 0.152449 -0.273339 0.094715 -0.225074 0.017685 0.146567 -0.238026 0.362678 0.060535 0.248572 0.293837 -0.163016 0.227236 -0.466081 -0.457575 0.005871 0.159803 -0.105462 -0.089240 0.326460 -0.158225 0.247918 0.081141 0.209180 -0.437180 0.049345 -0.068819 -0.125536 0.630924 0.020648 0.160418 -0.227592 -0.389198 -0.256320 -0.031467 -0.230235 0.100187 0.340332 0.366414 -0.038421 -0.077950 0.209714 -0.178687 -0.143456 0.036896 0.161161 -0.220352 0.104587 -0.126243 -0.094706 -0.168742 -0.238679 -0.010050 -0.445103 -0.106638 -0.212859 0.140055 -0.095863 0.150008 -0.405844 0.054106 0.094597 -0.123652 0.183116 0.169761 0.098041 0.506333 0.308195 -0.095683 -0.110859 0.019332 -0.220815 -0.166833 -0.018179 0.191069 -0.196163 0.037914 -0.066195 -0.304431
등 -0.199649 0.198055 0.233987 0.883493 -0.382365 0.103328 0.191630 0.031475 -0.108759 0.407114 0.535994 0.121528 0.360075 0.324945 -0.032336 0.268171 -0.017103 -0.409405 -0.206998 -0.076451 0.022134 0.157154 -0.266172 0.095516 -0.228770 0.019846 0.147322 -0.244560 0.370657 0.055942 0.242195 0.297557 -0.158807 0.234024 -0.470159 -0.461511 0.006925 0.161732 -0.111577 -0.094357 0.318734 -0.151693 0.241266 0.071998 0.214506 -0.439196 0.050389 -0.066326 -0.129551 0.632413 0.025529 0.167893 -0.223043 -0.383849 -0.251045 -0.033251 -0.231395 0.100003 0.339502 0.363147 -0.042662 -0.077745 0.212341 -0.179420 -0.145590 0.037108 0.162684 -0.220275 0.103020 -0.123181 -0.095597 -0.166325 -0.241024 -0.008481 -0.448588 -0.115377 -0.213757 0.140751 -0.096176 0.144011 -0.407586 0.056337 0.103146 -0.124184 0.180089 0.178048 0.099640 0.507442 0.313705 -0.091358 -0.112230 0.019624 -0.226182 -0.170664 -0.015805 0.189969 -0.197650 0.030320 -0.059917 -0.305372
년 -0.218646 0.212861 0.252786 0.959338 -0.402415 0.116705 0.213546 0.033721 -0.113569 0.436182 0.580382 0.139535 0.381989 0.341919 -0.036070 0.289431 -0.017800 -0.441737 -0.219672 -0.079452 0.022441 0.163447 -0.287798 0.100762 -0.244493 0.018645 0.160259 -0.260990 0.398913 0.068978 0.269287 0.320074 -0.176286 0.250175 -0.499339 -0.500541 0.004856 0.175869 -0.118612 -0.096594 0.347481 -0.169785 0.259459 0.082944 0.233555 -0.477664 0.049194 -0.071399 -0.144709 0.677866 0.025589 0.180195 -0.237833 -0.415674 -0.271546 -0.039967 -0.254689 0.103957 0.371341 0.397075 -0.041652 -0.083751 0.235538 -0.199734 -0.150689 0.044462 0.172284 -0.238055 0.109234 -0.133256 -0.105243 -0.186278 -0.268743 -0.010654 -0.492649 -0.121700 -0.231570 0.153059 -0.097389 0.152832 -0.437131 0.068073 0.109669 -0.124721 0.195370 0.186999 0.102681 0.548522 0.341459 -0.093447 -0.117578 0.020442 -0.236200 -0.175965 -0.019470 0.208034 -0.216474 0.041822 -0.072744 -0.328537
것 -0.171494 0.176179 0.199801 0.779671 -0.335445 0.095671 0.165286 0.025318 -0.088542 0.351273 0.466483 0.114230 0.316137 0.277052 -0.029047 0.235623 -0.008596 -0.350755 -0.186283 -0.058664 0.011321 0.132273 -0.231442 0.082196 -0.194768 0.011224 0.122076 -0.210528 0.326673 0.054068 0.219844 0.252342 -0.143808 0.206718 -0.411276 -0.406503 0.009261 0.143544 -0.092941 -0.086572 0.282772 -0.132214 0.213259 0.067411 0.189403 -0.388998 0.048772 -0.063322 -0.108869 0.551004 0.022053 0.141097 -0.201120 -0.343184 -0.224825 -0.034579 -0.203000 0.085191 0.297699 0.323007 -0.035146 -0.062633 0.191028 -0.164857 -0.126045 0.036336 0.146212 -0.191695 0.092302 -0.103950 -0.083067 -0.149539 -0.211257 -0.012336 -0.390895 -0.091973 -0.192695 0.121366 -0.083547 0.129418 -0.358008 0.053278 0.087530 -0.110808 0.159236 0.152907 0.088377 0.448413 0.272690 -0.085092 -0.101085 0.010281 -0.192520 -0.143551 -0.010597 0.167886 -0.173849 0.032129 -0.055017 -0.265071
감독 -0.151774 0.155203 0.174854 0.697263 -0.293441 0.081323 0.152056 0.026909 -0.084383 0.316895 0.419815 0.102200 0.279039 0.248825 -0.024523 0.210761 -0.012635 -0.313890 -0.160800 -0.055401 0.013172 0.119573 -0.212982 0.076598 -0.170295 0.014820 0.108412 -0.190902 0.289607 0.048573 0.191377 0.226626 -0.122942 0.184231 -0.362314 -0.366522 0.004039 0.121271 -0.082720 -0.077682 0.257601 -0.121660 0.193845 0.060117 0.168618 -0.339387 0.042270 -0.058584 -0.099240 0.488866 0.020656 0.125893 -0.178321 -0.304230 -0.194664 -0.028454 -0.179380 0.076440 0.269727 0.287562 -0.028644 -0.065277 0.170081 -0.137736 -0.109382 0.032532 0.122460 -0.166503 0.074888 -0.100345 -0.078748 -0.137118 -0.190501 -0.014243 -0.352372 -0.083145 -0.171751 0.113957 -0.068597 0.118121 -0.313889 0.050118 0.081185 -0.097483 0.141772 0.137037 0.079423 0.397210 0.246720 -0.071213 -0.091944 0.011561 -0.172690 -0.129317 -0.014343 0.146010 -0.154021 0.021879 -0.045717 -0.242497
전 -0.220505 0.216252 0.253001 0.984218 -0.421178 0.114617 0.212328 0.025954 -0.121331 0.450041 0.587314 0.145363 0.396160 0.358225 -0.039238 0.295136 -0.011545 -0.453262 -0.227510 -0.075779 0.021283 0.174163 -0.296951 0.102480 -0.249753 0.014844 0.159853 -0.272267 0.410745 0.067205 0.269848 0.325886 -0.172706 0.258408 -0.516508 -0.513767 0.003056 0.182239 -0.114282 -0.107100 0.360071 -0.174918 0.269831 0.088420 0.234723 -0.489362 0.052994 -0.074289 -0.140716 0.697882 0.032984 0.180311 -0.247755 -0.434998 -0.277321 -0.040855 -0.261737 0.111363 0.382770 0.408475 -0.045445 -0.080721 0.241876 -0.201433 -0.156335 0.047292 0.184406 -0.239373 0.107784 -0.138774 -0.114196 -0.187164 -0.267410 -0.015248 -0.506022 -0.124505 -0.243537 0.160793 -0.099549 0.161976 -0.452985 0.061145 0.110433 -0.130626 0.200256 0.195315 0.109551 0.557721 0.351958 -0.100767 -0.124351 0.011790 -0.245705 -0.182098 -0.013597 0.214989 -0.219762 0.036532 -0.074780 -0.341901
- -0.218188 0.207334 0.242716 0.956613 -0.402748 0.108689 0.210262 0.034741 -0.118849 0.430244 0.576485 0.132819 0.388050 0.349037 -0.033802 0.292102 -0.017970 -0.433727 -0.227162 -0.081700 0.016506 0.161615 -0.286076 0.099836 -0.240814 0.020389 0.152465 -0.264124 0.396819 0.063237 0.261766 0.314996 -0.165715 0.250557 -0.504067 -0.491162 0.011080 0.169004 -0.112787 -0.096185 0.351783 -0.171985 0.258242 0.086895 0.229936 -0.475866 0.047506 -0.071236 -0.135951 0.679099 0.026530 0.175646 -0.238098 -0.419999 -0.274362 -0.042865 -0.252455 0.103573 0.369062 0.396182 -0.046301 -0.086277 0.226100 -0.192500 -0.156613 0.042286 0.177291 -0.229318 0.104947 -0.126227 -0.107411 -0.181705 -0.265778 -0.012280 -0.482435 -0.120231 -0.233961 0.156275 -0.096060 0.159968 -0.432934 0.063920 0.108930 -0.131433 0.192425 0.192371 0.102033 0.537585 0.339823 -0.097918 -0.120068 0.021276 -0.241141 -0.175955 -0.019751 0.206277 -0.212757 0.033869 -0.066533 -0.331360
영화 -0.215866 0.217743 0.251441 0.968897 -0.415789 0.113054 0.208925 0.028962 -0.110353 0.445259 0.584893 0.141413 0.383972 0.347295 -0.038982 0.292811 -0.014221 -0.448051 -0.224559 -0.082367 0.017508 0.163745 -0.295264 0.102036 -0.242118 0.014682 0.156415 -0.260716 0.403986 0.060814 0.268227 0.321791 -0.175550 0.252098 -0.510400 -0.500629 0.009528 0.177818 -0.116683 -0.107763 0.356381 -0.172437 0.262126 0.080808 0.236464 -0.481978 0.057234 -0.073655 -0.138253 0.688234 0.024701 0.178163 -0.240079 -0.421961 -0.278882 -0.034490 -0.253397 0.108902 0.369849 0.405387 -0.048034 -0.084635 0.235605 -0.195437 -0.158249 0.040234 0.181897 -0.241371 0.107860 -0.136255 -0.109100 -0.187349 -0.269833 -0.012245 -0.491162 -0.120869 -0.238223 0.151944 -0.100467 0.157512 -0.441363 0.065631 0.108817 -0.130615 0.193789 0.195838 0.102518 0.553007 0.341181 -0.102044 -0.122351 0.016735 -0.238072 -0.186255 -0.012732 0.205657 -0.210061 0.038106 -0.067174 -0.328871
4 -0.201817 0.192228 0.230620 0.890110 -0.373492 0.102606 0.192149 0.029649 -0.106024 0.404525 0.535850 0.128010 0.359410 0.323757 -0.035053 0.272344 -0.012171 -0.404935 -0.201351 -0.073887 0.020570 0.157464 -0.270013 0.092848 -0.223147 0.013663 0.149029 -0.240377 0.370670 0.063705 0.241856 0.294476 -0.153407 0.234618 -0.466941 -0.461559 0.007109 0.158566 -0.104733 -0.092015 0.319683 -0.158190 0.243427 0.078778 0.218728 -0.433237 0.051525 -0.070314 -0.129666 0.624566 0.024205 0.169585 -0.227724 -0.390323 -0.255064 -0.032993 -0.233991 0.099905 0.340123 0.365705 -0.042006 -0.073443 0.212910 -0.186328 -0.142700 0.036327 0.164149 -0.222002 0.104718 -0.121492 -0.097873 -0.171017 -0.246385 -0.014972 -0.446349 -0.109883 -0.219332 0.140867 -0.086620 0.144884 -0.405357 0.060022 0.101327 -0.116571 0.183954 0.175782 0.093637 0.500471 0.315709 -0.091211 -0.108485 0.018619 -0.221683 -0.168942 -0.018465 0.189762 -0.195554 0.036399 -0.060300 -0.308707
던 -0.171912 0.169841 0.203781 0.769553 -0.328182 0.087154 0.168035 0.020203 -0.091591 0.345787 0.460547 0.107820 0.306854 0.277744 -0.032065 0.234991 -0.015448 -0.349852 -0.184044 -0.059084 0.014332 0.128068 -0.234126 0.084586 -0.193100 0.009988 0.126999 -0.208772 0.315798 0.056767 0.216890 0.256352 -0.141171 0.195802 -0.400236 -0.402954 0.008817 0.138963 -0.093396 -0.079134 0.280865 -0.134328 0.211137 0.067487 0.184954 -0.379636 0.045274 -0.064458 -0.109135 0.547576 0.018388 0.143540 -0.192173 -0.334553 -0.220001 -0.026100 -0.201989 0.085185 0.292256 0.316262 -0.036092 -0.067555 0.185601 -0.158077 -0.128567 0.031988 0.137891 -0.191912 0.084711 -0.106362 -0.083900 -0.146571 -0.214668 -0.012132 -0.387156 -0.092945 -0.187350 0.120518 -0.079206 0.123093 -0.350287 0.053837 0.082052 -0.109077 0.157955 0.150709 0.089000 0.438183 0.275263 -0.079156 -0.094308 0.017200 -0.188696 -0.142604 -0.009372 0.167051 -0.174532 0.026290 -0.055745 -0.265991
5 -0.219100 0.219066 0.257506 0.996063 -0.420301 0.119391 0.221389 0.027699 -0.122527 0.456886 0.595526 0.139853 0.402451 0.363472 -0.036195 0.305657 -0.019408 -0.460178 -0.228910 -0.076549 0.017433 0.172834 -0.299350 0.104679 -0.252442 0.013801 0.157134 -0.269965 0.416991 0.064862 0.274564 0.330961 -0.179325 0.254755 -0.523491 -0.522702 0.004033 0.177629 -0.124108 -0.104587 0.362280 -0.172426 0.270024 0.083816 0.241293 -0.488030 0.052933 -0.076654 -0.148614 0.706520 0.024552 0.186856 -0.254273 -0.430550 -0.284497 -0.036673 -0.262979 0.113628 0.384090 0.413515 -0.046948 -0.081764 0.241673 -0.205331 -0.161990 0.047564 0.180235 -0.244377 0.114145 -0.141435 -0.114127 -0.190624 -0.278059 -0.018631 -0.511692 -0.125708 -0.246195 0.155615 -0.097871 0.158867 -0.456979 0.067550 0.116306 -0.129082 0.205205 0.202557 0.113243 0.562094 0.354343 -0.097619 -0.127944 0.020973 -0.246732 -0.186610 -0.013423 0.213954 -0.222945 0.042848 -0.076997 -0.344962
팀 -0.196495 0.191320 0.225198 0.882573 -0.379966 0.101185 0.189666 0.032070 -0.101194 0.397891 0.531355 0.122244 0.358847 0.317490 -0.031750 0.263989 -0.016532 -0.399090 -0.209004 -0.071057 0.017103 0.152465 -0.271252 0.095817 -0.225792 0.017258 0.139804 -0.235695 0.364917 0.054795 0.241628 0.291439 -0.159079 0.225297 -0.463012 -0.461130 0.010100 0.155699 -0.102179 -0.088668 0.325423 -0.150239 0.240100 0.077226 0.212821 -0.437302 0.053841 -0.070730 -0.128777 0.620610 0.025809 0.170646 -0.220314 -0.382152 -0.254295 -0.036590 -0.229691 0.100965 0.337679 0.360995 -0.040770 -0.073053 0.214234 -0.180627 -0.148087 0.043624 0.160319 -0.214493 0.101125 -0.126010 -0.094363 -0.171234 -0.240315 -0.010290 -0.449837 -0.114077 -0.216289 0.135880 -0.090081 0.149287 -0.400010 0.058995 0.101573 -0.123407 0.173665 0.178808 0.097649 0.503745 0.314576 -0.087032 -0.106194 0.017396 -0.223068 -0.164683 -0.012763 0.185125 -0.196991 0.033514 -0.058616 -0.307282
월 -0.203282 0.204206 0.241010 0.917743 -0.385559 0.105145 0.198550 0.031767 -0.112944 0.414172 0.548032 0.132740 0.364711 0.334764 -0.033174 0.280595 -0.019241 -0.415702 -0.211950 -0.077164 0.016392 0.157728 -0.274144 0.099354 -0.232218 0.019039 0.147216 -0.247974 0.383692 0.062800 0.257468 0.305964 -0.167259 0.231830 -0.480766 -0.474553 0.005984 0.161512 -0.112516 -0.095942 0.338753 -0.159464 0.255274 0.083795 0.218258 -0.447472 0.045449 -0.071192 -0.127919 0.643424 0.025336 0.175295 -0.233094 -0.393203 -0.257847 -0.036373 -0.245475 0.097703 0.351924 0.381507 -0.037563 -0.080792 0.221853 -0.185162 -0.147582 0.040753 0.169773 -0.221972 0.101185 -0.131314 -0.100618 -0.171254 -0.250701 -0.011802 -0.469948 -0.117682 -0.217959 0.141486 -0.091749 0.144458 -0.417946 0.061998 0.099151 -0.118685 0.181562 0.184889 0.102875 0.523226 0.325778 -0.095359 -0.116903 0.013563 -0.229804 -0.174863 -0.013767 0.193908 -0.206260 0.041483 -0.064210 -0.319374
게 -0.152280 0.143976 0.173449 0.652878 -0.277711 0.074262 0.141317 0.021592 -0.077113 0.294672 0.395877 0.088767 0.265344 0.238166 -0.030956 0.195868 -0.005166 -0.300070 -0.154375 -0.050014 0.013811 0.109353 -0.193580 0.069300 -0.165324 0.007415 0.104756 -0.182812 0.273298 0.047127 0.185557 0.214806 -0.115968 0.169935 -0.345469 -0.338626 0.003898 0.119448 -0.079475 -0.065607 0.233089 -0.116114 0.184677 0.059606 0.158335 -0.321500 0.036949 -0.051831 -0.094979 0.461446 0.020074 0.119847 -0.166315 -0.285763 -0.189986 -0.027340 -0.171948 0.075629 0.245942 0.275480 -0.029615 -0.059882 0.162441 -0.133778 -0.109366 0.025191 0.120060 -0.160828 0.076370 -0.085300 -0.071575 -0.129386 -0.177502 -0.005295 -0.333600 -0.076784 -0.156797 0.098575 -0.064111 0.102131 -0.299338 0.039894 0.074749 -0.091509 0.130340 0.123447 0.073204 0.373545 0.234357 -0.072757 -0.084360 0.005608 -0.165638 -0.127322 -0.009963 0.136655 -0.144383 0.024363 -0.047320 -0.226467
만 -0.202162 0.205226 0.230865 0.904715 -0.388087 0.110918 0.196529 0.029689 -0.106868 0.414565 0.543541 0.132643 0.358603 0.321067 -0.039125 0.271874 -0.017486 -0.410540 -0.206925 -0.075863 0.020449 0.157208 -0.278142 0.097438 -0.229355 0.019614 0.147513 -0.240959 0.376474 0.064461 0.252468 0.302065 -0.159446 0.233311 -0.471250 -0.473512 0.007746 0.165087 -0.104097 -0.095968 0.332482 -0.155526 0.245823 0.081603 0.222636 -0.447928 0.046871 -0.071095 -0.126277 0.641100 0.021157 0.175187 -0.223217 -0.396063 -0.254761 -0.031039 -0.238244 0.095600 0.348442 0.380134 -0.041731 -0.081940 0.216280 -0.182118 -0.151760 0.036751 0.164310 -0.225742 0.104684 -0.127880 -0.097754 -0.173590 -0.252016 -0.014063 -0.460026 -0.110151 -0.220357 0.141369 -0.090251 0.143950 -0.418565 0.059769 0.096127 -0.118600 0.181874 0.183050 0.101788 0.512129 0.316875 -0.094565 -0.116267 0.020177 -0.229451 -0.169876 -0.018154 0.197064 -0.201289 0.039064 -0.068872 -0.313337
경기 -0.202778 0.204043 0.240644 0.916309 -0.393191 0.106871 0.201582 0.024741 -0.113268 0.418658 0.553346 0.129764 0.363043 0.326794 -0.040974 0.277902 -0.017803 -0.415922 -0.215614 -0.068712 0.020159 0.160867 -0.279752 0.100236 -0.233587 0.012754 0.149780 -0.249242 0.378671 0.067006 0.258967 0.303612 -0.161761 0.235103 -0.482215 -0.481949 0.003693 0.160688 -0.111005 -0.094652 0.335065 -0.165853 0.251083 0.074838 0.222790 -0.451610 0.053256 -0.072500 -0.134761 0.646514 0.025250 0.172023 -0.226709 -0.401289 -0.257469 -0.032199 -0.241861 0.104078 0.354848 0.375347 -0.039635 -0.081906 0.217933 -0.189337 -0.147484 0.037614 0.171291 -0.228212 0.103806 -0.123124 -0.099486 -0.176014 -0.257836 -0.016109 -0.467876 -0.114532 -0.228055 0.148856 -0.095267 0.149341 -0.414690 0.056181 0.107057 -0.118500 0.188613 0.183130 0.103476 0.519079 0.326427 -0.091840 -0.120386 0.012414 -0.225716 -0.169856 -0.017091 0.195469 -0.202238 0.035757 -0.062087 -0.317345
한국 -0.162618 0.164929 0.193076 0.730473 -0.314730 0.088945 0.157912 0.023854 -0.085602 0.338645 0.443756 0.109759 0.292620 0.265392 -0.025618 0.221648 -0.017095 -0.335166 -0.168158 -0.057040 0.014521 0.127695 -0.218779 0.080317 -0.187950 0.008018 0.120210 -0.203334 0.300100 0.048251 0.207115 0.246589 -0.126582 0.191185 -0.387298 -0.378925 0.001673 0.136272 -0.092969 -0.080320 0.271488 -0.133556 0.206295 0.066624 0.179335 -0.359895 0.036731 -0.061335 -0.104136 0.513097 0.015246 0.133665 -0.182380 -0.316800 -0.206584 -0.031163 -0.197069 0.084025 0.281486 0.303433 -0.029103 -0.061901 0.177356 -0.154870 -0.114709 0.038220 0.136733 -0.182007 0.081073 -0.102023 -0.079340 -0.145444 -0.204336 -0.008025 -0.373329 -0.090559 -0.183502 0.118397 -0.073731 0.118168 -0.335529 0.051557 0.077801 -0.101413 0.145326 0.139951 0.084817 0.414720 0.258055 -0.076348 -0.092741 0.014310 -0.180733 -0.133979 -0.010145 0.158310 -0.157282 0.025049 -0.048601 -0.253591
6 -0.183220 0.178699 0.212989 0.809420 -0.344838 0.090845 0.176059 0.024374 -0.097228 0.366160 0.483257 0.119703 0.320591 0.291215 -0.034931 0.245347 -0.012962 -0.365705 -0.190038 -0.069687 0.016135 0.144684 -0.243092 0.090527 -0.206529 0.019512 0.131799 -0.221443 0.340310 0.054867 0.222082 0.269159 -0.146731 0.206224 -0.424870 -0.424162 0.011133 0.149518 -0.093230 -0.086967 0.291384 -0.142893 0.218858 0.065735 0.200030 -0.397799 0.044960 -0.062584 -0.118628 0.570194 0.018273 0.154482 -0.203500 -0.348522 -0.228072 -0.028044 -0.209635 0.091660 0.314417 0.337299 -0.036635 -0.073527 0.193492 -0.170162 -0.130754 0.040748 0.147539 -0.198100 0.094331 -0.116589 -0.090744 -0.153336 -0.224746 -0.009854 -0.414565 -0.099515 -0.194781 0.125960 -0.084525 0.137053 -0.375080 0.049461 0.087270 -0.110546 0.160875 0.164052 0.091965 0.460315 0.282363 -0.083941 -0.107053 0.015555 -0.204873 -0.149165 -0.010116 0.176941 -0.176191 0.030879 -0.058700 -0.282016
지나 -0.152762 0.150354 0.173046 0.673532 -0.280510 0.076004 0.144937 0.016729 -0.083810 0.306414 0.404836 0.100141 0.270139 0.240005 -0.025238 0.200554 -0.014107 -0.309951 -0.156560 -0.049696 0.013905 0.117447 -0.204506 0.076893 -0.166476 0.010041 0.112931 -0.181563 0.274253 0.044482 0.186746 0.221235 -0.115408 0.173279 -0.352476 -0.346281 0.002064 0.116201 -0.079807 -0.075430 0.244930 -0.113838 0.187337 0.063383 0.157916 -0.331522 0.032208 -0.047370 -0.096157 0.470214 0.021515 0.121028 -0.167855 -0.296059 -0.188998 -0.025990 -0.173757 0.073304 0.255429 0.278089 -0.031467 -0.052132 0.159921 -0.141424 -0.106031 0.026165 0.126761 -0.165212 0.074734 -0.095848 -0.072508 -0.127392 -0.187426 -0.014428 -0.340007 -0.081189 -0.161317 0.110254 -0.068055 0.111219 -0.303517 0.047511 0.078459 -0.087968 0.138084 0.137454 0.076028 0.374819 0.239276 -0.068468 -0.088159 0.015171 -0.172899 -0.123298 -0.008358 0.148211 -0.149020 0.028998 -0.050225 -0.224567
적 -0.145206 0.142492 0.157142 0.620088 -0.265726 0.072325 0.131219 0.018209 -0.074259 0.285320 0.369021 0.084063 0.246577 0.219549 -0.022385 0.188278 -0.011828 -0.287287 -0.143565 -0.046538 0.009978 0.107622 -0.192566 0.068206 -0.151217 0.005886 0.103376 -0.165873 0.255975 0.039545 0.171740 0.200693 -0.110572 0.163962 -0.321700 -0.321495 0.003928 0.112822 -0.076336 -0.064008 0.231551 -0.114312 0.167430 0.049859 0.146293 -0.311041 0.037445 -0.050263 -0.095768 0.440887 0.013848 0.114211 -0.155612 -0.270627 -0.173041 -0.028096 -0.165008 0.064718 0.235715 0.259264 -0.024341 -0.053738 0.146147 -0.124866 -0.101079 0.032874 0.114824 -0.154352 0.067940 -0.082162 -0.069682 -0.115425 -0.172068 -0.005432 -0.317503 -0.078270 -0.151313 0.094622 -0.067807 0.103840 -0.288997 0.044331 0.072509 -0.088737 0.124837 0.124614 0.069053 0.351898 0.221168 -0.063908 -0.076204 0.013690 -0.157094 -0.120091 -0.013642 0.136083 -0.141200 0.025060 -0.049326 -0.216198
기 -0.181400 0.177707 0.206099 0.798763 -0.340606 0.095732 0.171269 0.022610 -0.090927 0.368158 0.481031 0.118212 0.323947 0.284189 -0.036031 0.236374 -0.008660 -0.361423 -0.181211 -0.067173 0.013721 0.131267 -0.243778 0.090269 -0.201904 0.009427 0.134383 -0.216127 0.328556 0.053625 0.224553 0.265644 -0.144495 0.207287 -0.415619 -0.415835 0.006140 0.147544 -0.099670 -0.088340 0.292479 -0.137514 0.222830 0.073242 0.187414 -0.392391 0.049395 -0.067053 -0.121476 0.561673 0.024740 0.152668 -0.196852 -0.345746 -0.225769 -0.034629 -0.205614 0.085262 0.299744 0.330567 -0.039532 -0.063627 0.187995 -0.163537 -0.132085 0.037512 0.149833 -0.191971 0.087442 -0.108989 -0.092707 -0.150826 -0.215051 -0.012709 -0.407464 -0.099270 -0.194338 0.129701 -0.084949 0.129383 -0.369240 0.053934 0.090291 -0.111699 0.162096 0.161447 0.090184 0.458708 0.281193 -0.080221 -0.097310 0.013528 -0.197127 -0.145032 -0.016263 0.171644 -0.171971 0.032735 -0.054857 -0.270475
수 -0.173258 0.174303 0.203245 0.773976 -0.337371 0.087625 0.168170 0.025861 -0.094918 0.359613 0.474332 0.107349 0.314630 0.282275 -0.034040 0.231907 -0.009885 -0.360788 -0.185395 -0.063552 0.016833 0.129517 -0.234701 0.080530 -0.193744 0.010621 0.125145 -0.209449 0.325779 0.053128 0.219801 0.262134 -0.135669 0.204717 -0.403351 -0.405461 0.004630 0.135603 -0.097174 -0.084055 0.278874 -0.133041 0.214611 0.064456 0.193414 -0.389842 0.045214 -0.058820 -0.113945 0.555037 0.025542 0.141252 -0.194244 -0.336077 -0.221896 -0.029694 -0.201784 0.087746 0.301302 0.327778 -0.032304 -0.072500 0.189458 -0.155884 -0.131966 0.039410 0.145755 -0.191743 0.088090 -0.104360 -0.089115 -0.147338 -0.213196 -0.014536 -0.396372 -0.100853 -0.188156 0.122664 -0.078734 0.122936 -0.360473 0.051383 0.090515 -0.105765 0.155935 0.153958 0.083193 0.449764 0.275865 -0.078107 -0.099313 0.008643 -0.192939 -0.144244 -0.013332 0.171269 -0.176910 0.029459 -0.058625 -0.270603
7 -0.198949 0.195529 0.228258 0.868991 -0.372744 0.104694 0.187867 0.027785 -0.107165 0.395339 0.527955 0.127843 0.345626 0.309005 -0.038288 0.266597 -0.018103 -0.400060 -0.199334 -0.066454 0.018712 0.151870 -0.263650 0.092869 -0.220688 0.017762 0.144223 -0.234024 0.360043 0.053672 0.246582 0.286724 -0.151677 0.225155 -0.459621 -0.448210 0.011984 0.154836 -0.104668 -0.086606 0.313438 -0.156730 0.239071 0.072843 0.214809 -0.424421 0.048721 -0.067802 -0.130151 0.618287 0.021002 0.164453 -0.222503 -0.381849 -0.246793 -0.033852 -0.231333 0.098283 0.337212 0.364141 -0.034390 -0.075783 0.212128 -0.182725 -0.141029 0.039373 0.154139 -0.210301 0.101468 -0.115799 -0.092509 -0.164507 -0.236048 -0.016515 -0.447145 -0.108916 -0.213901 0.133883 -0.091207 0.139470 -0.402935 0.053597 0.099076 -0.112236 0.176231 0.172684 0.092252 0.488876 0.306901 -0.086747 -0.106862 0.012430 -0.222339 -0.166313 -0.014219 0.189564 -0.190202 0.030820 -0.066685 -0.297970
개 -0.167784 0.166958 0.184877 0.727896 -0.314739 0.087944 0.161040 0.019556 -0.090354 0.330341 0.444772 0.103327 0.289566 0.263149 -0.032607 0.220806 -0.007545 -0.333057 -0.167669 -0.063183 0.013482 0.129824 -0.222610 0.076616 -0.184645 0.012422 0.115893 -0.203680 0.302539 0.050110 0.198689 0.244273 -0.130943 0.190957 -0.380338 -0.381505 0.002056 0.126803 -0.083211 -0.078799 0.268788 -0.127900 0.202693 0.063347 0.178970 -0.358731 0.037535 -0.054753 -0.102166 0.517865 0.015608 0.142629 -0.183273 -0.315713 -0.211658 -0.028839 -0.193067 0.086433 0.281106 0.308148 -0.031711 -0.066485 0.180596 -0.149883 -0.116057 0.035160 0.134878 -0.182610 0.086253 -0.101685 -0.078014 -0.143247 -0.203366 -0.006723 -0.373321 -0.086157 -0.175174 0.119153 -0.078417 0.117573 -0.335090 0.045280 0.077098 -0.096638 0.143785 0.141290 0.076369 0.414848 0.261559 -0.070326 -0.093338 0.008819 -0.178215 -0.136958 -0.008653 0.153522 -0.167226 0.032140 -0.049382 -0.253487
리그 -0.199276 0.194376 0.227440 0.893993 -0.384287 0.104340 0.191899 0.032724 -0.106581 0.406116 0.536880 0.130515 0.362207 0.324906 -0.038001 0.272792 -0.014947 -0.407979 -0.212863 -0.069414 0.014700 0.148928 -0.272280 0.093303 -0.224552 0.012025 0.141990 -0.246758 0.366183 0.063571 0.250516 0.290572 -0.164297 0.234711 -0.470515 -0.463453 0.005289 0.162879 -0.104097 -0.090722 0.327844 -0.162299 0.242952 0.073638 0.218537 -0.443814 0.053242 -0.068450 -0.134223 0.632686 0.025992 0.167895 -0.226949 -0.387725 -0.255171 -0.031354 -0.234693 0.098699 0.346435 0.371501 -0.039987 -0.076835 0.211077 -0.180249 -0.147678 0.037055 0.167595 -0.220318 0.098127 -0.127605 -0.103683 -0.173672 -0.245965 -0.015328 -0.458519 -0.113169 -0.222030 0.145128 -0.096215 0.146244 -0.403508 0.056170 0.102346 -0.117495 0.177900 0.173833 0.100657 0.509096 0.319338 -0.092116 -0.112011 0.009859 -0.222037 -0.165574 -0.012928 0.192958 -0.197482 0.034374 -0.068638 -0.307341
시 -0.241152 0.239062 0.277209 1.065493 -0.458224 0.125886 0.227338 0.035000 -0.125346 0.483129 0.645151 0.152490 0.426211 0.386037 -0.041000 0.318235 -0.021856 -0.483420 -0.249878 -0.087125 0.020696 0.184287 -0.323153 0.113020 -0.272036 0.013936 0.176281 -0.290300 0.439737 0.073379 0.295139 0.356209 -0.185443 0.280162 -0.561700 -0.558646 0.010236 0.190867 -0.124486 -0.108465 0.384323 -0.190421 0.292604 0.089184 0.254075 -0.525424 0.063173 -0.085025 -0.151951 0.754763 0.034994 0.204290 -0.264867 -0.462196 -0.303101 -0.047561 -0.277293 0.116256 0.405242 0.444001 -0.044605 -0.096551 0.260388 -0.223902 -0.178417 0.049184 0.197808 -0.261685 0.117678 -0.143528 -0.115149 -0.208221 -0.293062 -0.020382 -0.546769 -0.127694 -0.258338 0.165243 -0.114203 0.177164 -0.484474 0.072673 0.114597 -0.139985 0.210939 0.209348 0.119596 0.608732 0.371485 -0.111080 -0.129685 0.022252 -0.261297 -0.195178 -0.014038 0.229907 -0.237620 0.046459 -0.073604 -0.368826
회 -0.188840 0.193924 0.225438 0.853708 -0.362243 0.097808 0.189912 0.023023 -0.098216 0.391003 0.515869 0.125451 0.344185 0.309059 -0.036308 0.259320 -0.013654 -0.390800 -0.199987 -0.066101 0.016458 0.143757 -0.258736 0.096588 -0.210623 0.019219 0.139760 -0.232505 0.357499 0.060183 0.238085 0.281572 -0.154495 0.219259 -0.447962 -0.446587 0.006118 0.151012 -0.100985 -0.087977 0.312607 -0.151127 0.233595 0.078477 0.203554 -0.425240 0.047169 -0.065902 -0.125828 0.605725 0.023510 0.162065 -0.219196 -0.370416 -0.244414 -0.035038 -0.226289 0.089928 0.331464 0.351358 -0.041123 -0.071533 0.204380 -0.171249 -0.133895 0.040425 0.155748 -0.210492 0.101231 -0.119600 -0.097230 -0.164421 -0.237086 -0.009399 -0.430107 -0.102692 -0.206783 0.138532 -0.087971 0.144439 -0.392697 0.059489 0.095923 -0.113960 0.174132 0.170860 0.088561 0.487387 0.301592 -0.084478 -0.110162 0.014865 -0.208984 -0.162947 -0.009814 0.185283 -0.187360 0.037656 -0.057510 -0.296318
오 -0.186012 0.187541 0.214125 0.824921 -0.345965 0.094591 0.179817 0.026566 -0.101421 0.379685 0.499544 0.118348 0.330897 0.297887 -0.030771 0.251431 -0.008296 -0.379637 -0.195866 -0.065848 0.016067 0.143881 -0.254462 0.084922 -0.208682 0.015788 0.130915 -0.226640 0.338951 0.060406 0.230896 0.274829 -0.146872 0.215824 -0.436682 -0.426741 0.001904 0.146984 -0.095798 -0.085482 0.304392 -0.141436 0.231790 0.074996 0.196117 -0.409404 0.049896 -0.060106 -0.116385 0.581998 0.025969 0.156221 -0.203380 -0.356738 -0.234054 -0.033307 -0.212899 0.093725 0.316980 0.343702 -0.035299 -0.070415 0.198574 -0.172371 -0.136185 0.041921 0.152553 -0.197479 0.093573 -0.112140 -0.095799 -0.155046 -0.222266 -0.010749 -0.424054 -0.101338 -0.203565 0.134006 -0.084718 0.136108 -0.380820 0.059978 0.087906 -0.117031 0.164202 0.167816 0.088364 0.465862 0.288479 -0.083633 -0.106529 0.016307 -0.204099 -0.150127 -0.009805 0.174609 -0.180821 0.036200 -0.059328 -0.287932
야구 -0.163023 0.160788 0.182703 0.723315 -0.312490 0.082392 0.153106 0.024606 -0.087223 0.336148 0.441576 0.105915 0.295900 0.257728 -0.025188 0.219072 -0.006990 -0.330684 -0.164750 -0.054047 0.012782 0.122618 -0.224458 0.080276 -0.180400 0.011123 0.120894 -0.201489 0.306315 0.053117 0.206782 0.240921 -0.133999 0.190161 -0.383736 -0.383198 0.001628 0.133951 -0.084717 -0.076990 0.270778 -0.130015 0.198637 0.058935 0.176463 -0.364945 0.041820 -0.057564 -0.108330 0.513408 0.022551 0.139066 -0.178591 -0.319095 -0.207949 -0.023435 -0.195767 0.081523 0.279773 0.298946 -0.035252 -0.062247 0.176843 -0.149112 -0.113891 0.033361 0.130556 -0.180725 0.079496 -0.103733 -0.076315 -0.141585 -0.200862 -0.007227 -0.372211 -0.091838 -0.178307 0.111357 -0.076316 0.119811 -0.333318 0.050849 0.086142 -0.096890 0.143066 0.140982 0.085284 0.414803 0.262149 -0.073701 -0.088019 0.014077 -0.179551 -0.140502 -0.012444 0.151313 -0.158539 0.025359 -0.053493 -0.252308
위 -0.136382 0.136893 0.160044 0.626213 -0.265256 0.068696 0.135229 0.018525 -0.075216 0.282278 0.375343 0.083734 0.254673 0.225319 -0.030280 0.193736 -0.009043 -0.287475 -0.141955 -0.046430 0.015365 0.102326 -0.183682 0.071737 -0.162286 0.014961 0.102886 -0.170732 0.262585 0.045274 0.175797 0.207030 -0.113527 0.157370 -0.327490 -0.323419 0.002179 0.116953 -0.069798 -0.068626 0.231811 -0.108324 0.173551 0.049884 0.149694 -0.309037 0.029651 -0.048544 -0.091957 0.446972 0.022602 0.113027 -0.158884 -0.266283 -0.173038 -0.027740 -0.166831 0.072123 0.240333 0.257550 -0.031634 -0.056607 0.155066 -0.124408 -0.106335 0.032956 0.114255 -0.152350 0.068871 -0.089144 -0.067744 -0.124602 -0.176269 -0.004043 -0.314953 -0.076077 -0.151342 0.094907 -0.068442 0.100801 -0.284762 0.037718 0.070034 -0.086904 0.130765 0.128604 0.067834 0.359913 0.222272 -0.066242 -0.080923 0.013270 -0.156026 -0.121697 -0.007138 0.133088 -0.140381 0.021864 -0.039811 -0.218597
대하 -0.121930 0.119770 0.139686 0.545261 -0.234692 0.061402 0.114135 0.018922 -0.060836 0.252547 0.324658 0.079237 0.220465 0.197548 -0.024243 0.168349 -0.007726 -0.247232 -0.126930 -0.043750 0.011605 0.098287 -0.166693 0.060249 -0.134966 0.013576 0.088829 -0.148293 0.224438 0.034890 0.150116 0.180126 -0.094774 0.140288 -0.283260 -0.279678 0.005957 0.094481 -0.061197 -0.059366 0.198915 -0.099064 0.150011 0.046382 0.132398 -0.270247 0.027120 -0.046792 -0.081549 0.388180 0.019519 0.105335 -0.132968 -0.241782 -0.156575 -0.025721 -0.140541 0.057851 0.206384 0.223291 -0.025675 -0.046065 0.128819 -0.117116 -0.086919 0.021328 0.102273 -0.133029 0.058034 -0.071556 -0.064207 -0.108007 -0.151869 -0.010397 -0.275291 -0.068791 -0.129957 0.091305 -0.056773 0.090429 -0.245382 0.037489 0.055740 -0.077337 0.106895 0.103505 0.065467 0.312753 0.189855 -0.058157 -0.065084 0.004635 -0.131774 -0.102619 -0.011887 0.120503 -0.119237 0.019579 -0.043250 -0.184425
영화제 -0.184750 0.183682 0.214305 0.807181 -0.342750 0.098776 0.175876 0.026681 -0.092401 0.367649 0.489877 0.117549 0.328394 0.295341 -0.031087 0.241058 -0.017756 -0.372015 -0.192484 -0.070587 0.015789 0.141001 -0.246486 0.086273 -0.202736 0.010268 0.128175 -0.217877 0.337459 0.053016 0.222625 0.263308 -0.149921 0.214029 -0.423447 -0.425327 0.002544 0.143965 -0.092904 -0.081968 0.300335 -0.139645 0.221367 0.065497 0.197584 -0.403065 0.041066 -0.061319 -0.120682 0.573955 0.025470 0.153763 -0.207831 -0.347483 -0.232139 -0.032762 -0.208042 0.093420 0.309243 0.334068 -0.039460 -0.064986 0.194240 -0.162000 -0.129670 0.033939 0.150462 -0.198639 0.092713 -0.111866 -0.085596 -0.152043 -0.222050 -0.010342 -0.417236 -0.101032 -0.197714 0.126030 -0.088036 0.129108 -0.371101 0.049664 0.088206 -0.110539 0.166552 0.162414 0.094219 0.462160 0.287341 -0.080884 -0.102009 0.017287 -0.197326 -0.154288 -0.012782 0.171238 -0.178095 0.030908 -0.056072 -0.275627
않 -0.130477 0.126687 0.149148 0.574780 -0.242978 0.066792 0.129708 0.021122 -0.063523 0.266946 0.342519 0.077730 0.229809 0.208572 -0.027302 0.170898 -0.005929 -0.265090 -0.137276 -0.050323 0.012348 0.100538 -0.179201 0.066112 -0.140253 0.011058 0.098221 -0.161110 0.239398 0.035384 0.166096 0.188506 -0.102706 0.152029 -0.296987 -0.300623 0.004143 0.103450 -0.065682 -0.060953 0.207041 -0.102384 0.163416 0.054691 0.138413 -0.285527 0.036904 -0.042180 -0.089032 0.410640 0.016458 0.110918 -0.149659 -0.254820 -0.166751 -0.026253 -0.156322 0.064293 0.221677 0.234900 -0.022825 -0.049794 0.142001 -0.119510 -0.092343 0.030200 0.103640 -0.141457 0.061778 -0.084470 -0.068430 -0.108262 -0.161259 -0.013237 -0.291627 -0.066256 -0.136393 0.087470 -0.060482 0.099881 -0.262314 0.039858 0.059032 -0.080437 0.119903 0.109008 0.066763 0.326687 0.205789 -0.062253 -0.076696 0.010215 -0.143405 -0.111075 -0.009399 0.128406 -0.129432 0.024617 -0.038360 -0.198113
시즌 -0.152631 0.151464 0.168915 0.663841 -0.282206 0.077690 0.139889 0.017951 -0.081502 0.299339 0.397350 0.090298 0.261323 0.233033 -0.027162 0.203889 -0.014755 -0.298685 -0.152469 -0.058388 0.015164 0.113295 -0.203899 0.071795 -0.170579 0.011149 0.110673 -0.179962 0.277583 0.043331 0.185937 0.216369 -0.116105 0.169687 -0.344436 -0.344542 0.002432 0.113585 -0.074573 -0.072928 0.243434 -0.113365 0.179924 0.058307 0.163552 -0.325390 0.041097 -0.049658 -0.096781 0.471205 0.023267 0.129123 -0.168973 -0.290837 -0.183531 -0.024709 -0.177536 0.074898 0.249238 0.271967 -0.033251 -0.054672 0.158836 -0.133203 -0.111521 0.031058 0.119785 -0.162459 0.071563 -0.088078 -0.076620 -0.125659 -0.186476 -0.010605 -0.341294 -0.078147 -0.158310 0.105344 -0.070427 0.113363 -0.301913 0.041456 0.071993 -0.084079 0.134214 0.127409 0.076775 0.378656 0.235341 -0.063355 -0.082905 0.012892 -0.164871 -0.124353 -0.009972 0.139801 -0.143017 0.021974 -0.049704 -0.222218
프로 -0.167208 0.166531 0.184460 0.727659 -0.306564 0.084588 0.158172 0.021361 -0.084213 0.337773 0.443674 0.107453 0.299597 0.263859 -0.034791 0.217351 -0.007495 -0.334268 -0.170745 -0.055435 0.008459 0.121175 -0.222483 0.074906 -0.184504 0.016042 0.119023 -0.197368 0.304636 0.052792 0.203917 0.242762 -0.125597 0.195259 -0.384955 -0.386107 0.001652 0.137120 -0.085045 -0.082698 0.272264 -0.125701 0.197852 0.060755 0.175086 -0.364249 0.043317 -0.052781 -0.109242 0.515289 0.017431 0.141273 -0.186833 -0.315478 -0.207735 -0.027433 -0.196345 0.080841 0.283648 0.301301 -0.033155 -0.060677 0.180242 -0.147571 -0.116164 0.032597 0.134436 -0.180551 0.084924 -0.096018 -0.077508 -0.144125 -0.198814 -0.013323 -0.368990 -0.086156 -0.179403 0.120946 -0.075203 0.122568 -0.339209 0.044510 0.084967 -0.102825 0.149599 0.142254 0.077832 0.411202 0.259072 -0.078547 -0.093776 0.011800 -0.183326 -0.138085 -0.015377 0.154163 -0.158711 0.032134 -0.052385 -0.250160
8 -0.147372 0.137616 0.162372 0.640490 -0.269960 0.078944 0.138565 0.016467 -0.074948 0.289660 0.386478 0.088422 0.259403 0.227118 -0.021882 0.195430 -0.013302 -0.296177 -0.146763 -0.051201 0.008808 0.112031 -0.192940 0.067724 -0.157231 0.010941 0.108796 -0.174494 0.264706 0.041228 0.174197 0.207155 -0.108550 0.161320 -0.337848 -0.332122 0.005248 0.118907 -0.073849 -0.064780 0.235261 -0.107858 0.176518 0.050980 0.154798 -0.313072 0.037795 -0.045246 -0.092583 0.450958 0.022411 0.117301 -0.161189 -0.273384 -0.184104 -0.028921 -0.163242 0.071591 0.243780 0.262528 -0.026903 -0.055489 0.155102 -0.136421 -0.099447 0.030165 0.113692 -0.161246 0.074889 -0.088722 -0.066691 -0.124404 -0.172278 -0.012763 -0.323076 -0.077864 -0.156696 0.104348 -0.068563 0.109511 -0.289789 0.038995 0.071190 -0.084949 0.126599 0.125838 0.065279 0.363556 0.223948 -0.065408 -0.083177 0.015119 -0.157146 -0.114916 -0.005926 0.141058 -0.136613 0.030244 -0.046819 -0.220359
한 -0.152084 0.144715 0.169798 0.668110 -0.289751 0.077869 0.144595 0.017933 -0.080234 0.306396 0.401768 0.099149 0.271072 0.245574 -0.025397 0.201909 -0.005689 -0.311925 -0.156186 -0.058616 0.013591 0.110846 -0.203223 0.077823 -0.170465 0.012271 0.104366 -0.183768 0.282310 0.050400 0.188306 0.225608 -0.116201 0.173065 -0.354657 -0.352173 0.009653 0.122838 -0.084981 -0.070509 0.247386 -0.112745 0.189639 0.056454 0.164462 -0.334717 0.034039 -0.050435 -0.093496 0.473685 0.016100 0.125047 -0.166794 -0.290097 -0.191118 -0.024186 -0.172790 0.079762 0.261359 0.276800 -0.030174 -0.054200 0.165981 -0.142856 -0.113796 0.034649 0.123800 -0.167368 0.072122 -0.097385 -0.071242 -0.129214 -0.182723 -0.009371 -0.344938 -0.082469 -0.160353 0.104322 -0.072021 0.114533 -0.309376 0.049227 0.074216 -0.086139 0.133307 0.128510 0.078337 0.382197 0.236143 -0.073668 -0.086082 0.011837 -0.170964 -0.129988 -0.008516 0.147192 -0.149053 0.030675 -0.051629 -0.233484
` -0.136922 0.136626 0.158031 0.624176 -0.260357 0.076184 0.134888 0.020180 -0.070473 0.282698 0.368671 0.087827 0.248742 0.228861 -0.021160 0.186114 -0.015167 -0.286046 -0.142660 -0.050074 0.009433 0.109050 -0.193859 0.069145 -0.154029 0.015361 0.102787 -0.164933 0.259110 0.036375 0.170317 0.205229 -0.111672 0.163262 -0.328578 -0.322166 0.006407 0.112243 -0.076055 -0.068368 0.222011 -0.105905 0.166612 0.053237 0.153938 -0.307452 0.030933 -0.052878 -0.087893 0.438816 0.014586 0.115307 -0.151127 -0.275067 -0.176213 -0.020702 -0.165819 0.066938 0.241399 0.258306 -0.025833 -0.052706 0.148777 -0.126655 -0.095446 0.027138 0.116209 -0.150819 0.073794 -0.089715 -0.067994 -0.123759 -0.167342 -0.009583 -0.320135 -0.080733 -0.148012 0.098705 -0.063046 0.098005 -0.285629 0.035925 0.066003 -0.079067 0.126103 0.122799 0.071299 0.355705 0.221284 -0.061791 -0.076806 0.015125 -0.151304 -0.121179 -0.006921 0.137088 -0.141071 0.028362 -0.043326 -0.210161
일본 -0.144699 0.138462 0.167995 0.642314 -0.276564 0.071077 0.140618 0.018160 -0.076494 0.291711 0.388659 0.087188 0.257648 0.226593 -0.030598 0.192721 -0.007667 -0.293420 -0.144383 -0.047034 0.010765 0.113376 -0.199738 0.068199 -0.157920 0.011069 0.104630 -0.174960 0.267244 0.041903 0.178770 0.213206 -0.110437 0.170855 -0.333801 -0.336011 0.002246 0.110512 -0.073622 -0.063967 0.232846 -0.114784 0.177343 0.060448 0.155031 -0.317744 0.033891 -0.054918 -0.091801 0.450065 0.022177 0.124073 -0.165660 -0.282664 -0.179298 -0.028324 -0.169627 0.070466 0.242298 0.260788 -0.025547 -0.056223 0.153814 -0.131158 -0.108745 0.033200 0.120380 -0.159662 0.069946 -0.089449 -0.067644 -0.126781 -0.174813 -0.006732 -0.326626 -0.080393 -0.156468 0.101759 -0.061409 0.103430 -0.297978 0.040710 0.073029 -0.081360 0.127621 0.126141 0.070476 0.368961 0.222339 -0.064261 -0.083747 0.013686 -0.160834 -0.117385 -0.006537 0.132902 -0.139930 0.027712 -0.051041 -0.224459
축구 -0.138891 0.138910 0.153674 0.600572 -0.255562 0.074816 0.127655 0.023691 -0.073402 0.271476 0.364246 0.090978 0.245550 0.218862 -0.029076 0.181098 -0.012939 -0.274303 -0.136946 -0.045575 0.008149 0.100065 -0.180868 0.061264 -0.154420 0.008293 0.097276 -0.160069 0.246568 0.039310 0.165914 0.194398 -0.104113 0.157381 -0.319300 -0.315915 0.000920 0.113763 -0.075535 -0.068319 0.219663 -0.105556 0.165811 0.052122 0.149431 -0.300148 0.032198 -0.050988 -0.084240 0.423188 0.012028 0.116603 -0.149021 -0.265895 -0.172168 -0.028244 -0.158683 0.062404 0.231141 0.245148 -0.023765 -0.047607 0.143037 -0.120453 -0.094867 0.031211 0.109739 -0.149630 0.070893 -0.084752 -0.066861 -0.112336 -0.169595 -0.005506 -0.307327 -0.071943 -0.145796 0.092271 -0.067669 0.100515 -0.275239 0.035857 0.072109 -0.077169 0.125462 0.115497 0.062659 0.345277 0.216658 -0.060262 -0.077341 0.008299 -0.153511 -0.116779 -0.010170 0.129705 -0.129575 0.028284 -0.038811 -0.208974
주 -0.122487 0.121602 0.147716 0.559552 -0.241423 0.067854 0.123878 0.019177 -0.068265 0.254518 0.334181 0.083501 0.226735 0.205267 -0.022779 0.172641 -0.011681 -0.255710 -0.124756 -0.040506 0.008404 0.096566 -0.169374 0.056588 -0.134624 0.005378 0.088604 -0.152013 0.229200 0.040674 0.158868 0.182552 -0.097295 0.143023 -0.287573 -0.286679 -0.000780 0.100458 -0.062338 -0.058477 0.204816 -0.099228 0.156399 0.051469 0.139548 -0.270278 0.034137 -0.047061 -0.080187 0.397729 0.016117 0.102359 -0.144772 -0.242467 -0.157498 -0.025592 -0.150104 0.063038 0.209628 0.231893 -0.026256 -0.047733 0.134279 -0.117924 -0.090799 0.021193 0.101351 -0.132162 0.061003 -0.079798 -0.060554 -0.110939 -0.151338 -0.007378 -0.278998 -0.066758 -0.138254 0.083420 -0.060311 0.088315 -0.250688 0.036201 0.065920 -0.072788 0.113055 0.115217 0.065784 0.318589 0.192162 -0.060775 -0.072904 0.005711 -0.142681 -0.100600 -0.007510 0.118576 -0.122492 0.018145 -0.035161 -0.195259
열리 -0.139529 0.141287 0.160567 0.613593 -0.257110 0.071811 0.138563 0.024411 -0.070358 0.285504 0.371175 0.088451 0.245046 0.224099 -0.023305 0.182877 -0.012556 -0.280433 -0.147958 -0.045143 0.012079 0.108094 -0.191540 0.071537 -0.156752 0.005808 0.102352 -0.171198 0.253434 0.044112 0.168580 0.198875 -0.106000 0.155800 -0.321847 -0.316595 0.009073 0.115474 -0.069724 -0.063291 0.229735 -0.109585 0.174409 0.052176 0.150438 -0.303839 0.037957 -0.044499 -0.085037 0.433002 0.013014 0.119006 -0.155905 -0.272543 -0.172301 -0.021387 -0.163548 0.072156 0.237162 0.251818 -0.025569 -0.048485 0.152747 -0.128393 -0.102041 0.022733 0.117784 -0.151272 0.069957 -0.082730 -0.068171 -0.119345 -0.174882 -0.013334 -0.317910 -0.077726 -0.154034 0.098816 -0.065611 0.099851 -0.280810 0.043296 0.073993 -0.081067 0.127889 0.121107 0.072362 0.353581 0.219038 -0.066007 -0.079787 0.014831 -0.157674 -0.116530 -0.007196 0.130585 -0.134696 0.022880 -0.044413 -0.207307
말 -0.100920 0.098177 0.105782 0.419320 -0.177668 0.052851 0.090353 0.013705 -0.049262 0.189154 0.258691 0.062723 0.175227 0.148919 -0.013309 0.124344 -0.007965 -0.198862 -0.099702 -0.030209 0.005753 0.074529 -0.132013 0.047610 -0.110256 0.009825 0.072326 -0.112862 0.175343 0.029349 0.123451 0.143698 -0.076906 0.109979 -0.222701 -0.217685 0.004308 0.079009 -0.047684 -0.042966 0.153021 -0.074157 0.121846 0.041031 0.104028 -0.209238 0.021326 -0.029914 -0.065721 0.300641 0.016817 0.083790 -0.103055 -0.186216 -0.118588 -0.018565 -0.110015 0.047647 0.167049 0.178056 -0.018449 -0.039702 0.102833 -0.089485 -0.065838 0.016606 0.081202 -0.101175 0.043820 -0.062439 -0.044984 -0.082252 -0.118272 -0.008507 -0.214109 -0.052857 -0.101581 0.062998 -0.041826 0.069716 -0.197743 0.031007 0.051009 -0.053734 0.088808 0.085016 0.046410 0.242943 0.151455 -0.040146 -0.051951 0.003170 -0.108554 -0.077628 -0.001927 0.088415 -0.094840 0.019379 -0.026302 -0.147492
에게 -0.142333 0.144251 0.163152 0.636584 -0.266427 0.075320 0.139753 0.021453 -0.079529 0.292325 0.384738 0.090088 0.258624 0.231498 -0.026488 0.191619 -0.008639 -0.285802 -0.148325 -0.051536 0.012973 0.113191 -0.190366 0.066742 -0.164140 0.013879 0.106030 -0.172738 0.264166 0.039904 0.174475 0.213244 -0.111369 0.166246 -0.336139 -0.330275 0.006104 0.115446 -0.072143 -0.068030 0.233341 -0.116142 0.170518 0.058225 0.148454 -0.313098 0.037933 -0.052968 -0.089541 0.445624 0.021393 0.122368 -0.155784 -0.279817 -0.182321 -0.022127 -0.168244 0.071455 0.237809 0.262740 -0.026492 -0.060200 0.155630 -0.127826 -0.104570 0.029477 0.118738 -0.150466 0.072444 -0.082559 -0.072493 -0.116437 -0.175793 -0.006297 -0.324483 -0.080845 -0.154991 0.101511 -0.062412 0.101601 -0.289651 0.041498 0.074731 -0.086509 0.126640 0.123839 0.069462 0.360051 0.222635 -0.060205 -0.084103 0.007892 -0.155613 -0.121967 -0.008682 0.131882 -0.142803 0.023228 -0.049676 -0.214212
위하 -0.121969 0.120947 0.140117 0.542838 -0.229377 0.059630 0.124110 0.014242 -0.068597 0.247519 0.328599 0.077440 0.222788 0.194390 -0.021220 0.168564 -0.010790 -0.245265 -0.130606 -0.042515 0.010085 0.091736 -0.165187 0.059767 -0.138512 0.013971 0.086122 -0.153795 0.224983 0.037440 0.151249 0.179360 -0.102070 0.138661 -0.287565 -0.282873 -0.000727 0.102598 -0.069462 -0.062052 0.202271 -0.101457 0.148891 0.051051 0.136445 -0.271156 0.030988 -0.038204 -0.079094 0.384809 0.010202 0.098316 -0.132176 -0.243130 -0.155546 -0.023355 -0.143789 0.057150 0.213073 0.228468 -0.025746 -0.052331 0.128411 -0.115414 -0.087380 0.029679 0.104120 -0.137891 0.059219 -0.080604 -0.056084 -0.106834 -0.147268 -0.004856 -0.274337 -0.063339 -0.134943 0.088825 -0.059847 0.093297 -0.254799 0.031841 0.061969 -0.072718 0.105259 0.112698 0.062864 0.314899 0.195891 -0.059812 -0.074186 0.005848 -0.142179 -0.106432 -0.005567 0.118931 -0.125158 0.018062 -0.035526 -0.190893
천 -0.133402 0.136320 0.161485 0.608739 -0.254915 0.069709 0.130260 0.016582 -0.073272 0.276916 0.361282 0.087180 0.239979 0.218529 -0.026413 0.188334 -0.013332 -0.279441 -0.139818 -0.050204 0.007560 0.100779 -0.186263 0.062680 -0.156888 0.006631 0.094021 -0.165856 0.251421 0.040805 0.168941 0.198888 -0.108073 0.151985 -0.318914 -0.319648 0.007112 0.103948 -0.074787 -0.065719 0.218317 -0.107390 0.170069 0.056557 0.146783 -0.304350 0.033061 -0.042245 -0.087090 0.432402 0.020113 0.115142 -0.147789 -0.267761 -0.175595 -0.025032 -0.163901 0.070721 0.232913 0.256072 -0.023229 -0.051621 0.146636 -0.123279 -0.096172 0.026204 0.115147 -0.146052 0.070112 -0.086277 -0.071777 -0.111656 -0.166413 -0.010568 -0.314104 -0.075567 -0.145773 0.099895 -0.057796 0.100585 -0.280406 0.038096 0.063537 -0.079219 0.125835 0.116784 0.070914 0.340703 0.209964 -0.060969 -0.078914 0.007809 -0.153774 -0.112572 -0.011648 0.134446 -0.132943 0.025608 -0.042757 -0.211948
루 -0.125929 0.121503 0.145478 0.546004 -0.232909 0.069136 0.124333 0.016715 -0.064584 0.253322 0.335075 0.082085 0.225548 0.198636 -0.028227 0.167437 -0.003976 -0.248436 -0.127742 -0.047306 0.011568 0.094934 -0.166182 0.063682 -0.143994 0.012891 0.088628 -0.150247 0.232295 0.036184 0.153338 0.180263 -0.100096 0.141541 -0.292465 -0.288375 0.009403 0.095055 -0.066708 -0.059089 0.206073 -0.099222 0.153784 0.052350 0.131665 -0.269235 0.030850 -0.043617 -0.084582 0.391589 0.019977 0.102051 -0.135936 -0.238438 -0.159437 -0.019060 -0.143042 0.063820 0.211794 0.231559 -0.021871 -0.049574 0.132865 -0.115166 -0.092553 0.020432 0.103500 -0.133945 0.064571 -0.071972 -0.064365 -0.108781 -0.146667 -0.008958 -0.281011 -0.064487 -0.129895 0.091229 -0.057836 0.092267 -0.257106 0.037389 0.059388 -0.071334 0.109475 0.106215 0.055615 0.317239 0.199556 -0.053661 -0.069152 0.014143 -0.138658 -0.107157 -0.003825 0.113529 -0.120082 0.024343 -0.041640 -0.185925
안타 -0.134868 0.133470 0.150430 0.597609 -0.251965 0.072618 0.130667 0.023278 -0.073337 0.269411 0.356983 0.088102 0.239904 0.217218 -0.022872 0.180415 -0.009434 -0.273109 -0.138377 -0.052057 0.011521 0.107443 -0.184869 0.065430 -0.151707 0.006820 0.091686 -0.167773 0.250152 0.043419 0.162786 0.196477 -0.110531 0.152764 -0.312896 -0.315754 0.003887 0.107863 -0.076124 -0.060761 0.222871 -0.101968 0.166669 0.053452 0.147345 -0.293078 0.034932 -0.049532 -0.085221 0.420462 0.014479 0.115390 -0.146174 -0.256472 -0.174099 -0.020416 -0.156860 0.070467 0.233516 0.242956 -0.030887 -0.051201 0.148707 -0.117957 -0.093744 0.031760 0.108771 -0.147763 0.068748 -0.086705 -0.065393 -0.111351 -0.167785 -0.009617 -0.301974 -0.077746 -0.146769 0.091544 -0.057328 0.098496 -0.276121 0.039021 0.068283 -0.080545 0.116943 0.113166 0.070175 0.336136 0.205575 -0.062952 -0.073544 0.007561 -0.152923 -0.110989 -0.011145 0.131161 -0.135111 0.019330 -0.046177 -0.205070
밝히 -0.091682 0.089343 0.101168 0.401366 -0.167213 0.049859 0.089675 0.008566 -0.050234 0.184129 0.238928 0.062302 0.165760 0.141338 -0.016275 0.119693 -0.002021 -0.183727 -0.088852 -0.027808 0.007542 0.069599 -0.123563 0.046582 -0.100912 0.008937 0.070269 -0.105381 0.164837 0.032111 0.117529 0.129655 -0.074075 0.105315 -0.207278 -0.206139 0.001683 0.077737 -0.052211 -0.039569 0.144150 -0.068929 0.106065 0.034802 0.093258 -0.202606 0.026303 -0.026612 -0.058706 0.282978 0.013658 0.076513 -0.098389 -0.179879 -0.112599 -0.016366 -0.104337 0.040147 0.158459 0.169168 -0.021650 -0.033895 0.092920 -0.087233 -0.068470 0.015351 0.078241 -0.094291 0.046627 -0.050507 -0.043866 -0.074070 -0.106783 -0.006710 -0.199999 -0.048319 -0.094771 0.061613 -0.041449 0.070532 -0.183034 0.022482 0.039426 -0.050043 0.079886 0.079850 0.048479 0.232776 0.138488 -0.042738 -0.052934 0.004641 -0.102458 -0.077054 -0.004036 0.089409 -0.090709 0.018064 -0.028656 -0.141718
서울 -0.106167 0.102205 0.123951 0.477923 -0.197262 0.054323 0.107073 0.011234 -0.054770 0.216881 0.289137 0.070951 0.186206 0.174691 -0.020917 0.148470 -0.006588 -0.214020 -0.114358 -0.040151 0.010004 0.077390 -0.144825 0.050504 -0.115202 0.004166 0.080186 -0.125014 0.196331 0.032846 0.130532 0.154330 -0.081889 0.123820 -0.245028 -0.243390 -0.001301 0.088636 -0.054062 -0.050709 0.177011 -0.087773 0.133390 0.043045 0.111619 -0.235256 0.027090 -0.034591 -0.068287 0.336549 0.018331 0.093538 -0.124139 -0.204624 -0.133148 -0.017255 -0.120285 0.054537 0.186087 0.199715 -0.019768 -0.039754 0.113612 -0.093544 -0.077294 0.016742 0.088221 -0.117979 0.057464 -0.064854 -0.049982 -0.093067 -0.129236 -0.010553 -0.244241 -0.061219 -0.116336 0.074245 -0.050260 0.081232 -0.214041 0.033399 0.048326 -0.059780 0.095463 0.091944 0.051653 0.266899 0.164306 -0.046778 -0.055411 0.012257 -0.119981 -0.086327 -0.005544 0.106649 -0.107869 0.022704 -0.036022 -0.163292
번 -0.162020 0.160975 0.181862 0.703969 -0.299210 0.079999 0.147917 0.021909 -0.082272 0.323122 0.423144 0.101056 0.284814 0.250755 -0.031266 0.212191 -0.014281 -0.317092 -0.161385 -0.059339 0.018687 0.121755 -0.217504 0.078478 -0.177449 0.014745 0.112702 -0.192317 0.294447 0.049349 0.197275 0.229473 -0.121761 0.181739 -0.371284 -0.369502 0.009719 0.129354 -0.086643 -0.079268 0.253844 -0.118972 0.188904 0.066387 0.171466 -0.344405 0.034845 -0.051264 -0.098107 0.497547 0.018754 0.136116 -0.176725 -0.309778 -0.205022 -0.029922 -0.181815 0.073397 0.267711 0.292036 -0.028382 -0.064968 0.168518 -0.140107 -0.118711 0.033853 0.134156 -0.176995 0.078639 -0.093494 -0.076863 -0.135374 -0.188988 -0.012258 -0.357211 -0.089470 -0.170904 0.112054 -0.074064 0.116540 -0.325821 0.047062 0.080829 -0.089757 0.138111 0.142117 0.080434 0.396922 0.252923 -0.075637 -0.088107 0.007974 -0.180312 -0.130809 -0.008970 0.148418 -0.158544 0.031328 -0.052660 -0.245439
10 -0.132460 0.127755 0.144595 0.571418 -0.242059 0.070379 0.128343 0.015116 -0.068216 0.265611 0.344868 0.081345 0.233598 0.210775 -0.021671 0.177906 -0.009960 -0.264954 -0.138691 -0.051278 0.011827 0.103580 -0.173749 0.065188 -0.148380 0.007119 0.093480 -0.156066 0.241090 0.043949 0.158794 0.193997 -0.103495 0.153000 -0.302254 -0.305344 0.007314 0.098221 -0.073583 -0.062958 0.212756 -0.105881 0.160037 0.047479 0.136845 -0.280288 0.032446 -0.049711 -0.083051 0.406371 0.012322 0.110987 -0.147444 -0.249857 -0.167699 -0.024778 -0.147520 0.064149 0.218587 0.242206 -0.028604 -0.054693 0.138388 -0.123682 -0.089970 0.023980 0.106854 -0.144644 0.069389 -0.084014 -0.062147 -0.113260 -0.157074 -0.007480 -0.291954 -0.068212 -0.140826 0.095502 -0.059835 0.095317 -0.263892 0.037194 0.063942 -0.073564 0.120808 0.112887 0.066820 0.326925 0.199481 -0.056815 -0.069425 0.008936 -0.141323 -0.107374 -0.007723 0.125462 -0.123549 0.021061 -0.045282 -0.201093
지만 -0.116745 0.114513 0.137262 0.534850 -0.225992 0.066075 0.112448 0.012987 -0.062988 0.246879 0.319114 0.075170 0.210151 0.188857 -0.024703 0.164867 -0.006340 -0.242599 -0.120111 -0.043732 0.008110 0.089681 -0.156856 0.054964 -0.130889 0.006629 0.082713 -0.148600 0.222574 0.040491 0.152808 0.170905 -0.098347 0.141109 -0.282893 -0.281483 0.003809 0.092344 -0.060353 -0.051837 0.190022 -0.092079 0.147997 0.049439 0.127874 -0.260769 0.032969 -0.037569 -0.081528 0.372893 0.013292 0.101455 -0.133620 -0.229391 -0.153646 -0.023010 -0.137999 0.059482 0.199664 0.224200 -0.028147 -0.050838 0.133163 -0.112295 -0.089855 0.025171 0.099821 -0.130380 0.062085 -0.073021 -0.060717 -0.101611 -0.148180 -0.009009 -0.272344 -0.066825 -0.129529 0.086499 -0.056462 0.083692 -0.239515 0.031921 0.063938 -0.072106 0.110223 0.102741 0.054437 0.303928 0.190049 -0.051917 -0.063428 0.008582 -0.129241 -0.100780 -0.005011 0.110240 -0.123466 0.022638 -0.037944 -0.183645
씨 -0.110209 0.101017 0.121182 0.467936 -0.201240 0.054059 0.105694 0.016654 -0.060193 0.214511 0.281752 0.064953 0.193011 0.164919 -0.020873 0.138594 -0.009269 -0.218357 -0.104777 -0.033129 0.012291 0.078417 -0.147475 0.052574 -0.115277 0.008599 0.078290 -0.127887 0.196094 0.031993 0.130164 0.156000 -0.086871 0.117062 -0.247142 -0.240223 -0.000720 0.082027 -0.054976 -0.046960 0.168174 -0.087100 0.133399 0.044094 0.114299 -0.234494 0.025954 -0.036472 -0.064750 0.327844 0.009085 0.084509 -0.118695 -0.209650 -0.131651 -0.022664 -0.123964 0.047510 0.179594 0.199593 -0.016985 -0.042921 0.113876 -0.092447 -0.071578 0.023581 0.085312 -0.118937 0.050846 -0.065276 -0.051709 -0.088925 -0.126503 -0.003849 -0.244558 -0.058047 -0.114054 0.069840 -0.046192 0.079272 -0.210448 0.031113 0.051563 -0.064346 0.090339 0.092304 0.051770 0.270627 0.169702 -0.044565 -0.056092 0.003620 -0.118404 -0.092064 -0.010326 0.103483 -0.107744 0.019975 -0.033791 -0.158341
미국 -0.098961 0.104455 0.119574 0.447665 -0.187162 0.055673 0.094651 0.014335 -0.052977 0.209171 0.273480 0.065436 0.176367 0.159143 -0.022535 0.138337 -0.008805 -0.207753 -0.108297 -0.033919 0.008716 0.075458 -0.138887 0.052458 -0.117820 0.004495 0.074641 -0.125316 0.189459 0.025185 0.127673 0.148011 -0.081530 0.113556 -0.234842 -0.239180 0.000813 0.085568 -0.057102 -0.050085 0.169237 -0.076995 0.120601 0.043836 0.104400 -0.226188 0.027513 -0.036196 -0.066682 0.319822 0.011518 0.087062 -0.116502 -0.191700 -0.124340 -0.014994 -0.118983 0.049454 0.177291 0.186721 -0.019752 -0.036630 0.112151 -0.093183 -0.072373 0.019208 0.081428 -0.111901 0.053467 -0.058081 -0.055153 -0.087113 -0.120768 -0.002629 -0.232149 -0.052866 -0.114662 0.069926 -0.046184 0.073815 -0.201798 0.027504 0.047449 -0.059037 0.087480 0.089956 0.053507 0.256337 0.158745 -0.043353 -0.054749 0.004928 -0.112479 -0.081296 -0.010868 0.098694 -0.095092 0.015066 -0.032500 -0.151206
보이 -0.120846 0.110720 0.133152 0.517182 -0.224282 0.060651 0.111509 0.017582 -0.061802 0.239775 0.312626 0.074569 0.211422 0.183059 -0.025697 0.158328 -0.005841 -0.240344 -0.121986 -0.040689 0.009570 0.093052 -0.160936 0.053086 -0.125827 0.005387 0.088762 -0.138761 0.211224 0.030658 0.143758 0.170392 -0.094378 0.135634 -0.274239 -0.266279 0.005389 0.091580 -0.062435 -0.052943 0.193020 -0.090850 0.139224 0.044444 0.127257 -0.256720 0.032344 -0.039931 -0.072245 0.364176 0.019073 0.094349 -0.131112 -0.230161 -0.149067 -0.016717 -0.139112 0.053846 0.196667 0.211836 -0.025681 -0.045464 0.129329 -0.107478 -0.086933 0.025843 0.099904 -0.122841 0.059673 -0.071910 -0.060296 -0.100971 -0.138614 -0.003865 -0.259387 -0.067691 -0.121575 0.084053 -0.054756 0.079614 -0.233097 0.038285 0.062666 -0.073067 0.106151 0.107216 0.059195 0.300622 0.184753 -0.052254 -0.068710 0.013074 -0.127243 -0.101746 -0.006668 0.109344 -0.118920 0.022818 -0.032176 -0.174142
째 -0.154994 0.155295 0.174438 0.676386 -0.290986 0.081601 0.152949 0.023180 -0.083157 0.313391 0.408745 0.093412 0.272636 0.247745 -0.030145 0.210780 -0.006017 -0.310698 -0.154057 -0.051009 0.011557 0.115395 -0.210815 0.070943 -0.171357 0.014259 0.109079 -0.186057 0.285133 0.045737 0.186107 0.225664 -0.118788 0.174669 -0.353839 -0.351224 0.010519 0.121998 -0.084283 -0.075491 0.246208 -0.119202 0.190166 0.061780 0.167647 -0.337493 0.036155 -0.053344 -0.102710 0.485384 0.017702 0.123601 -0.169053 -0.300225 -0.189872 -0.030879 -0.176042 0.077447 0.265326 0.285869 -0.033098 -0.062310 0.168200 -0.141715 -0.106781 0.033033 0.126517 -0.161880 0.075073 -0.089640 -0.076940 -0.134213 -0.188908 -0.014979 -0.349230 -0.081879 -0.166382 0.104491 -0.071436 0.111394 -0.315159 0.042611 0.071210 -0.092490 0.136506 0.137596 0.078936 0.387883 0.241527 -0.069844 -0.090402 0.010943 -0.168402 -0.128097 -0.015651 0.145531 -0.146215 0.030942 -0.043846 -0.230232
같 -0.133771 0.124461 0.147515 0.573918 -0.245564 0.072676 0.125437 0.013762 -0.066051 0.260440 0.349112 0.078271 0.230405 0.210345 -0.021614 0.177774 -0.010325 -0.268069 -0.135083 -0.050910 0.006315 0.099334 -0.172368 0.066131 -0.148148 0.009319 0.094010 -0.155232 0.244573 0.042859 0.164628 0.195366 -0.099851 0.152350 -0.307670 -0.305989 0.004617 0.101893 -0.073560 -0.064149 0.210789 -0.098388 0.158039 0.047078 0.144309 -0.289155 0.029636 -0.043575 -0.084371 0.408475 0.016878 0.108613 -0.148834 -0.255370 -0.161086 -0.021717 -0.156375 0.065471 0.219484 0.242973 -0.028932 -0.051446 0.137013 -0.121088 -0.095038 0.023000 0.104427 -0.140871 0.067759 -0.078810 -0.061118 -0.109752 -0.158148 -0.007387 -0.296494 -0.069252 -0.144552 0.092184 -0.060933 0.091450 -0.268923 0.040929 0.065103 -0.076005 0.114298 0.115278 0.067644 0.329743 0.204471 -0.059223 -0.076860 0.010229 -0.143198 -0.110587 -0.011624 0.125269 -0.123745 0.023719 -0.036380 -0.200346
받 -0.116344 0.118953 0.137290 0.530540 -0.225843 0.061134 0.113072 0.013266 -0.067604 0.243603 0.313624 0.079918 0.211869 0.187745 -0.021042 0.162358 -0.011011 -0.239588 -0.128113 -0.044063 0.007908 0.088532 -0.165769 0.059816 -0.129754 0.006148 0.084931 -0.148864 0.216187 0.033047 0.148445 0.175328 -0.090068 0.141030 -0.275196 -0.280906 -0.000772 0.091208 -0.061867 -0.058262 0.192601 -0.095756 0.149024 0.044597 0.129208 -0.263515 0.029039 -0.036540 -0.079485 0.371461 0.016290 0.095391 -0.135810 -0.230689 -0.146167 -0.022868 -0.140451 0.057068 0.205445 0.219933 -0.023442 -0.044800 0.125212 -0.111605 -0.084142 0.026373 0.099733 -0.128612 0.062006 -0.071004 -0.060637 -0.104816 -0.148522 -0.007750 -0.270480 -0.067116 -0.128521 0.084391 -0.053706 0.083676 -0.242765 0.035832 0.057795 -0.069673 0.108668 0.107965 0.060337 0.303517 0.188192 -0.049637 -0.071394 0.008025 -0.129021 -0.099738 -0.003551 0.110436 -0.119944 0.021157 -0.040419 -0.178574
부터 -0.145060 0.145277 0.163874 0.632663 -0.264809 0.073161 0.133685 0.023945 -0.078828 0.284338 0.380565 0.091448 0.256105 0.230358 -0.026672 0.191028 -0.011011 -0.288901 -0.151232 -0.051585 0.009741 0.105698 -0.188916 0.067312 -0.158726 0.007036 0.103583 -0.176963 0.260784 0.046485 0.177184 0.208808 -0.116981 0.168397 -0.333979 -0.332222 0.008354 0.115589 -0.072857 -0.071156 0.234749 -0.108482 0.169681 0.053886 0.154303 -0.309192 0.032057 -0.047627 -0.087394 0.446077 0.016371 0.114604 -0.160328 -0.278621 -0.179994 -0.022435 -0.169700 0.073898 0.242619 0.259103 -0.029624 -0.053405 0.152817 -0.124978 -0.098765 0.025255 0.118708 -0.151872 0.068583 -0.085512 -0.074278 -0.118785 -0.170370 -0.013815 -0.317745 -0.079201 -0.150485 0.102009 -0.068859 0.105569 -0.287779 0.043185 0.071112 -0.080199 0.128219 0.122163 0.066537 0.359147 0.219813 -0.061809 -0.075990 0.010041 -0.154850 -0.121604 -0.006493 0.139188 -0.140519 0.024958 -0.042600 -0.219829
뒤 -0.111640 0.111823 0.137815 0.517896 -0.223501 0.057925 0.115372 0.020679 -0.060239 0.238881 0.311459 0.073699 0.204343 0.185111 -0.019995 0.156375 -0.004644 -0.236787 -0.123595 -0.043710 0.005800 0.090400 -0.155436 0.051485 -0.129691 0.005848 0.086081 -0.137720 0.217298 0.031549 0.141800 0.168131 -0.092944 0.131645 -0.273090 -0.268226 0.001673 0.095420 -0.060695 -0.051831 0.183794 -0.086888 0.145423 0.048586 0.123554 -0.250362 0.028438 -0.039564 -0.075091 0.363111 0.009951 0.091749 -0.133441 -0.227138 -0.149093 -0.016910 -0.134993 0.059431 0.198709 0.208433 -0.027315 -0.044151 0.125181 -0.103242 -0.083827 0.018481 0.096727 -0.124714 0.063091 -0.071330 -0.058428 -0.098731 -0.140667 -0.002774 -0.258578 -0.060578 -0.124881 0.083063 -0.050568 0.083507 -0.238377 0.037190 0.054679 -0.064781 0.102260 0.101125 0.060959 0.296239 0.179920 -0.050474 -0.066968 0.012653 -0.132476 -0.096055 -0.005511 0.108168 -0.113093 0.024283 -0.039919 -0.180842
삼성 -0.121312 0.119520 0.137365 0.543686 -0.234026 0.068125 0.122789 0.016786 -0.060910 0.251071 0.325419 0.073876 0.214785 0.193489 -0.020346 0.164209 -0.009560 -0.250292 -0.124872 -0.042287 0.008346 0.092824 -0.167898 0.055252 -0.133720 0.004468 0.084302 -0.150931 0.230308 0.038771 0.153498 0.178506 -0.095362 0.136969 -0.281313 -0.284756 0.006049 0.098244 -0.069416 -0.053294 0.200740 -0.094193 0.149342 0.044294 0.128785 -0.270465 0.029260 -0.039998 -0.082708 0.381689 0.019463 0.102884 -0.133607 -0.243142 -0.150964 -0.022293 -0.143578 0.062628 0.211088 0.229880 -0.023707 -0.044355 0.136905 -0.115443 -0.093717 0.027020 0.097208 -0.136336 0.059654 -0.074137 -0.061873 -0.102844 -0.146091 -0.005400 -0.275074 -0.065747 -0.135441 0.085757 -0.051727 0.090740 -0.251295 0.040539 0.063153 -0.072361 0.105153 0.105542 0.061056 0.315710 0.191635 -0.058418 -0.072870 0.011936 -0.141591 -0.097887 -0.006445 0.112926 -0.119331 0.024317 -0.042471 -0.185103
보 -0.133921 0.129645 0.155727 0.589600 -0.251814 0.074333 0.132425 0.019337 -0.074849 0.268975 0.356141 0.087549 0.240980 0.216954 -0.022620 0.175351 -0.007027 -0.273810 -0.140975 -0.049175 0.010993 0.105258 -0.180187 0.066724 -0.146474 0.012653 0.099313 -0.163010 0.241815 0.038218 0.170139 0.192094 -0.107864 0.149374 -0.306259 -0.311680 -0.000679 0.106195 -0.070052 -0.062987 0.215428 -0.106523 0.166240 0.055527 0.141136 -0.290059 0.030491 -0.046080 -0.082608 0.422945 0.015892 0.107728 -0.152735 -0.257247 -0.171044 -0.027523 -0.157140 0.062453 0.224582 0.246344 -0.031032 -0.051198 0.141734 -0.121501 -0.095209 0.030056 0.110800 -0.142426 0.067815 -0.078300 -0.070967 -0.112284 -0.158590 -0.009816 -0.299474 -0.072424 -0.146739 0.091426 -0.063928 0.101514 -0.267288 0.041758 0.061280 -0.085481 0.123534 0.121499 0.065293 0.341126 0.211067 -0.062806 -0.069930 0.005921 -0.150752 -0.109167 -0.012318 0.127941 -0.129047 0.022820 -0.041348 -0.204378
홈런 -0.128197 0.122400 0.147958 0.556963 -0.234939 0.069829 0.118481 0.019358 -0.065077 0.256531 0.338796 0.073980 0.226313 0.197065 -0.023717 0.169667 -0.009465 -0.256386 -0.131392 -0.045946 0.010238 0.094581 -0.171001 0.063005 -0.138103 0.014161 0.085350 -0.156321 0.231811 0.039447 0.154470 0.183086 -0.097546 0.144026 -0.294506 -0.289669 0.008530 0.096494 -0.064473 -0.059310 0.207611 -0.095623 0.149030 0.046314 0.138818 -0.270160 0.028892 -0.042000 -0.082685 0.391000 0.020267 0.101801 -0.141017 -0.239068 -0.155794 -0.024439 -0.148125 0.060448 0.217122 0.228386 -0.029478 -0.043955 0.138936 -0.116045 -0.085072 0.025753 0.106523 -0.131218 0.066661 -0.072354 -0.058859 -0.108763 -0.155668 -0.003290 -0.277554 -0.065817 -0.135732 0.087437 -0.060877 0.087840 -0.252798 0.039352 0.066827 -0.075820 0.110232 0.113915 0.058106 0.312092 0.191771 -0.054947 -0.074664 0.010639 -0.143270 -0.108901 -0.005860 0.121177 -0.119196 0.022498 -0.044395 -0.193601
시작 -0.112165 0.116779 0.128312 0.503673 -0.217083 0.062715 0.112987 0.015001 -0.057032 0.228993 0.301969 0.069429 0.200910 0.186196 -0.015524 0.157008 -0.005446 -0.226044 -0.115446 -0.041418 0.013339 0.086719 -0.154164 0.056602 -0.122649 0.013308 0.078060 -0.133213 0.206347 0.036759 0.139244 0.162350 -0.087099 0.134987 -0.268018 -0.268241 0.004107 0.095894 -0.062596 -0.053135 0.186063 -0.087743 0.141632 0.048029 0.119031 -0.251048 0.029584 -0.038713 -0.072774 0.358150 0.012137 0.097552 -0.125408 -0.217641 -0.143615 -0.023205 -0.133942 0.059546 0.198221 0.210638 -0.019069 -0.039846 0.124484 -0.108210 -0.084519 0.023710 0.089345 -0.123056 0.057352 -0.072744 -0.051440 -0.100989 -0.138943 -0.009420 -0.255557 -0.064630 -0.119748 0.079069 -0.050026 0.080428 -0.229319 0.033198 0.058209 -0.067629 0.101616 0.102749 0.052808 0.287540 0.179771 -0.052486 -0.066140 0.006381 -0.130688 -0.099723 -0.012702 0.111230 -0.116506 0.015346 -0.038137 -0.174534
까지 -0.140682 0.144748 0.159145 0.633167 -0.270968 0.073210 0.135086 0.022817 -0.071714 0.290782 0.382060 0.088922 0.255206 0.229572 -0.026311 0.194319 -0.005525 -0.285798 -0.150682 -0.046125 0.013589 0.103642 -0.189394 0.069666 -0.162906 0.011343 0.101092 -0.169474 0.264582 0.039410 0.177993 0.209031 -0.117020 0.167112 -0.327420 -0.330185 0.006586 0.115301 -0.078255 -0.068872 0.230802 -0.115741 0.173567 0.052406 0.150260 -0.309692 0.034454 -0.049993 -0.089389 0.450125 0.018225 0.115492 -0.161312 -0.273234 -0.179876 -0.023447 -0.168539 0.067659 0.245869 0.261874 -0.023776 -0.056318 0.156241 -0.129308 -0.099018 0.032765 0.117677 -0.157618 0.068034 -0.090644 -0.068541 -0.116238 -0.177597 -0.012152 -0.323463 -0.077125 -0.155501 0.101383 -0.068027 0.106358 -0.292371 0.041532 0.073784 -0.083180 0.125842 0.129048 0.067227 0.364046 0.218314 -0.060846 -0.077030 0.008379 -0.156712 -0.121914 -0.006168 0.136237 -0.137174 0.024459 -0.040868 -0.216913
0 -0.119650 0.108743 0.132359 0.510190 -0.221748 0.054743 0.110949 0.016834 -0.061819 0.233266 0.308660 0.071898 0.203286 0.182631 -0.021374 0.158365 -0.004453 -0.234935 -0.124062 -0.036350 0.012802 0.086197 -0.157173 0.060136 -0.129612 0.013187 0.086135 -0.139673 0.215159 0.031213 0.141130 0.165245 -0.094824 0.127804 -0.265748 -0.266353 0.008792 0.089903 -0.057128 -0.049445 0.182372 -0.093245 0.141282 0.044173 0.127997 -0.250482 0.031006 -0.041307 -0.077863 0.359805 0.019311 0.093879 -0.133781 -0.222149 -0.141284 -0.017405 -0.132193 0.061716 0.200181 0.208304 -0.019223 -0.048718 0.125655 -0.100473 -0.078820 0.019640 0.092434 -0.126919 0.059902 -0.069352 -0.058690 -0.094160 -0.139820 -0.006398 -0.255223 -0.065709 -0.122944 0.075838 -0.054138 0.082223 -0.233516 0.032202 0.057125 -0.066559 0.106410 0.099452 0.053776 0.287806 0.175109 -0.057031 -0.059272 0.011669 -0.132516 -0.090953 -0.005184 0.105669 -0.114574 0.017705 -0.036889 -0.172050
